<?xml version="1.0"?>
<opencv_storage>
<opencv_ml_svm>
  <format>3</format>
  <svmType>C_SVC</svmType>
  <kernel>
    <type>RBF</type>
    <gamma>5.0625000000000009e-01</gamma></kernel>
  <C>6.2500000000000000e+01</C>
  <term_criteria><epsilon>1.1920928955078125e-07</epsilon>
    <iterations>1000</iterations></term_criteria>
  <var_count>50</var_count>
  <class_count>2</class_count>
  <class_labels type_id="opencv-matrix">
    <rows>2</rows>
    <cols>1</cols>
    <dt>i</dt>
    <data>
      0 1</data></class_labels>
  <sv_total>329</sv_total>
  <support_vectors>
    <_>
      8.80281627e-03 1.23239439e-02 8.80281702e-02 2.11267602e-02
      2.28873231e-02 5.45774624e-02 1.40845068e-02 1.58450697e-02
      2.64084507e-02 1.40845068e-02 3.69718298e-02 2.64084507e-02
      5.28169004e-03 7.04225339e-03 8.80281627e-03 1.40845068e-02
      1.58450697e-02 2.81690136e-02 7.04225339e-03 2.46478878e-02
      1.76056325e-02 1.93661973e-02 2.46478878e-02 7.04225339e-03
      1.93661973e-02 1.93661973e-02 1.76056325e-02 2.64084507e-02
      1.93661973e-02 2.64084507e-02 3.34507041e-02 2.11267602e-02
      8.80281627e-03 1.58450697e-02 1.93661973e-02 1.93661973e-02
      1.05633801e-02 1.23239439e-02 1.40845068e-02 2.64084507e-02
      1.23239439e-02 1.40845068e-02 2.46478878e-02 1.40845068e-02
      1.23239439e-02 2.64084507e-02 1.58450697e-02 1.93661973e-02
      1.58450697e-02 1.40845068e-02</_>
    <_>
      1.15273772e-02 2.59365980e-02 5.18731959e-02 1.44092217e-02
      2.01729108e-02 1.15273772e-02 1.15273772e-02 2.30547544e-02
      2.01729108e-02 3.74639742e-02 2.30547544e-02 2.30547544e-02
      2.01729108e-02 1.72910653e-02 8.64553265e-03 2.59365980e-02
      1.72910653e-02 8.64553265e-03 1.72910653e-02 1.72910653e-02
      1.44092217e-02 2.01729108e-02 5.76368859e-03 5.76368859e-03
      1.44092217e-02 2.30547544e-02 2.30547544e-02 1.15273772e-02
      1.15273772e-02 2.59365980e-02 2.30547544e-02 5.76368859e-03
      1.15273772e-02 1.44092217e-02 1.72910653e-02 2.30547544e-02
      5.76368859e-03 2.59365980e-02 2.88184434e-02 1.72910653e-02
      1.44092217e-02 2.88184430e-03 2.59365980e-02 5.76368859e-03
      2.30547544e-02 4.03458215e-02 2.59365980e-02 4.03458215e-02
      4.32276651e-02 4.32276651e-02</_>
    <_>
      5.58069386e-02 2.11161394e-02 1.50829563e-02 1.35746608e-02
      1.50829563e-02 1.50829563e-02 1.05580697e-02 9.04977415e-03
      2.71493215e-02 1.65912528e-02 3.31825055e-02 3.31825055e-02
      6.03318261e-03 1.20663652e-02 2.11161394e-02 1.65912528e-02
      3.01659126e-02 1.65912528e-02 1.65912528e-02 1.35746608e-02
      1.96078438e-02 3.31825055e-02 1.50829563e-02 3.46908011e-02
      1.96078438e-02 1.65912528e-02 1.65912528e-02 2.26244349e-02
      1.65912528e-02 1.80995483e-02 1.50829563e-02 6.03318261e-03
      7.54147815e-03 1.96078438e-02 1.80995483e-02 1.65912528e-02
      6.03318261e-03 1.35746608e-02 3.77073921e-02 1.35746608e-02
      3.77073921e-02 2.86576170e-02 2.56410260e-02 2.26244349e-02
      1.80995483e-02 1.35746608e-02 3.16742100e-02 9.04977415e-03
      2.86576170e-02 1.96078438e-02</_>
    <_>
      1.06951874e-02 2.13903747e-02 4.27807495e-02 1.60427801e-02
      1.33689847e-02 2.40641721e-02 1.33689847e-02 2.13903747e-02
      2.13903747e-02 2.40641721e-02 2.67379694e-02 2.13903747e-02
      2.13903747e-02 1.06951874e-02 2.67379694e-02 1.33689847e-02
      2.13903747e-02 2.13903747e-02 2.67379684e-03 1.33689847e-02
      2.13903747e-02 1.87165774e-02 2.67379694e-02 1.33689847e-02
      1.33689847e-02 2.13903747e-02 2.13903747e-02 1.06951874e-02
      1.06951874e-02 2.13903747e-02 2.40641721e-02 3.74331549e-02
      2.13903747e-02 1.33689847e-02 2.13903747e-02 1.06951874e-02
      1.06951874e-02 2.94117648e-02 1.33689847e-02 1.87165774e-02
      1.60427801e-02 2.94117648e-02 1.87165774e-02 1.06951874e-02
      3.20855603e-02 3.74331549e-02 1.33689847e-02 2.67379694e-02
      2.13903747e-02 2.67379694e-02</_>
    <_>
      1.35501362e-02 1.62601620e-02 1.89701896e-02 1.89701896e-02
      8.13008100e-03 4.60704602e-02 1.62601620e-02 2.43902449e-02
      1.35501362e-02 1.35501362e-02 3.25203240e-02 2.98102982e-02
      2.16802172e-02 2.98102982e-02 2.71002725e-02 2.98102982e-02
      1.62601620e-02 2.71002715e-03 3.52303535e-02 2.16802172e-02
      1.62601620e-02 3.25203240e-02 1.08401086e-02 1.89701896e-02
      2.43902449e-02 1.62601620e-02 3.25203240e-02 1.89701896e-02
      2.71002725e-02 3.52303535e-02 2.16802172e-02 2.16802172e-02
      5.42005431e-03 1.08401086e-02 1.35501362e-02 1.62601620e-02
      2.43902449e-02 1.89701896e-02 2.43902449e-02 8.13008100e-03
      8.13008100e-03 8.13008100e-03 0. 2.43902449e-02 1.89701896e-02
      2.16802172e-02 1.89701896e-02 2.98102982e-02 2.71002725e-02
      8.13008100e-03</_>
    <_>
      3.80281694e-02 2.39436608e-02 7.04225339e-03 1.97183099e-02
      1.97183099e-02 1.69014074e-02 2.95774639e-02 1.26760555e-02
      2.39436608e-02 3.09859142e-02 3.52112651e-02 2.67605633e-02
      2.81690131e-03 4.22535185e-03 1.12676052e-02 1.54929571e-02
      1.97183099e-02 1.69014074e-02 9.85915493e-03 1.69014074e-02
      2.81690136e-02 3.23943645e-02 2.81690136e-02 5.21126725e-02
      3.23943645e-02 1.40845068e-02 2.67605633e-02 1.83098577e-02
      1.12676052e-02 1.69014074e-02 9.85915493e-03 2.53521111e-02
      7.04225339e-03 1.12676052e-02 1.40845068e-02 1.83098577e-02
      4.22535185e-03 1.26760555e-02 1.97183099e-02 2.39436608e-02
      2.25352105e-02 2.11267602e-02 2.25352105e-02 1.97183099e-02
      2.81690136e-02 1.26760555e-02 1.69014074e-02 2.25352105e-02
      1.12676052e-02 3.38028148e-02</_>
    <_>
      1.14068445e-02 1.52091254e-02 2.28136890e-02 1.90114062e-02
      1.14068445e-02 3.42205316e-02 1.52091254e-02 2.66159698e-02
      1.52091254e-02 1.52091254e-02 2.28136890e-02 2.66159698e-02
      2.66159698e-02 4.56273779e-02 2.28136890e-02 3.42205316e-02
      1.90114062e-02 1.52091254e-02 7.60456268e-03 1.90114062e-02
      1.52091254e-02 1.90114062e-02 3.04182507e-02 1.14068445e-02
      2.28136890e-02 1.90114062e-02 3.04182507e-02 3.80228134e-03
      2.28136890e-02 3.80228125e-02 1.90114062e-02 2.66159698e-02
      4.56273779e-02 1.52091254e-02 1.52091254e-02 7.60456268e-03
      1.52091254e-02 1.52091254e-02 7.60456268e-03 1.52091254e-02
      7.60456268e-03 1.14068445e-02 1.14068445e-02 3.80228125e-02
      7.60456268e-03 1.14068445e-02 1.52091254e-02 4.18250933e-02
      1.90114062e-02 1.52091254e-02</_>
    <_>
      5.93525209e-02 1.79856122e-02 1.43884895e-02 8.99280608e-03
      1.61870513e-02 2.15827338e-02 1.97841730e-02 8.99280608e-03
      2.15827338e-02 2.87769791e-02 4.67625894e-02 1.43884895e-02
      1.07913669e-02 2.15827338e-02 8.99280608e-03 1.43884895e-02
      1.97841730e-02 1.61870513e-02 2.69784182e-02 2.33812947e-02
      1.61870513e-02 1.07913669e-02 1.43884895e-02 5.21582738e-02
      2.87769791e-02 1.61870513e-02 2.51798574e-02 1.61870513e-02
      1.07913669e-02 1.61870513e-02 1.25899287e-02 3.95683460e-02
      1.61870513e-02 3.59712238e-03 2.87769791e-02 3.59712238e-03
      1.43884895e-02 1.43884895e-02 2.51798574e-02 1.97841730e-02
      1.07913669e-02 3.05755399e-02 1.43884895e-02 1.25899287e-02
      1.79856122e-02 1.43884895e-02 2.33812947e-02 1.07913669e-02
      2.87769791e-02 3.05755399e-02</_>
    <_>
      5.28634340e-02 6.60792924e-03 1.76211447e-02 1.54185016e-02
      8.81057233e-03 2.20264308e-02 1.76211447e-02 1.32158585e-02
      6.60792924e-03 1.98237877e-02 4.40528616e-02 1.54185016e-02
      2.20264308e-02 1.98237877e-02 8.81057233e-03 2.64317170e-02
      1.98237877e-02 1.54185016e-02 1.54185016e-02 1.10132154e-02
      1.76211447e-02 1.54185016e-02 2.20264308e-02 2.86343601e-02
      1.98237877e-02 2.86343601e-02 2.20264308e-03 0. 2.86343601e-02
      2.86343601e-02 3.74449342e-02 2.42290739e-02 2.20264308e-02
      1.32158585e-02 7.04845786e-02 4.40528616e-03 2.20264308e-02
      8.81057233e-03 3.52422893e-02 1.54185016e-02 1.98237877e-02
      3.08370031e-02 8.81057233e-03 1.32158585e-02 4.40528616e-03
      2.20264308e-02 2.20264308e-02 3.30396444e-02 1.98237877e-02
      2.20264308e-03</_>
    <_>
      4.87804860e-02 9.75609757e-03 5.85365854e-02 2.19512191e-02
      1.21951215e-02 0. 1.70731712e-02 9.75609757e-03 1.95121951e-02
      3.65853645e-02 5.12195118e-02 1.70731712e-02 2.43902439e-03
      3.41463424e-02 1.46341464e-02 1.95121951e-02 1.21951215e-02
      9.75609757e-03 2.43902430e-02 2.43902430e-02 2.68292688e-02
      2.19512191e-02 1.95121951e-02 2.68292688e-02 2.43902430e-02
      2.19512191e-02 2.19512191e-02 9.75609757e-03 1.70731712e-02
      2.43902430e-02 1.46341464e-02 1.21951215e-02 1.21951215e-02
      1.70731712e-02 3.17073166e-02 2.19512191e-02 1.95121951e-02
      9.75609757e-03 1.46341464e-02 2.92682927e-02 1.21951215e-02
      3.41463424e-02 2.43902439e-03 7.31707318e-03 4.87804879e-03
      1.95121951e-02 1.46341464e-02 2.19512191e-02 2.68292688e-02
      1.46341464e-02</_>
    <_>
      2.35042740e-02 1.28205139e-02 1.70940179e-02 2.35042740e-02
      2.13675220e-02 2.56410278e-02 1.70940179e-02 2.77777798e-02
      2.13675220e-02 2.35042740e-02 5.34188077e-02 1.92307699e-02
      1.49572659e-02 8.54700897e-03 1.92307699e-02 4.05982919e-02
      1.70940179e-02 6.41025696e-03 2.35042740e-02 1.70940179e-02
      1.70940179e-02 2.13675220e-02 1.92307699e-02 1.49572659e-02
      1.92307699e-02 4.27350439e-02 2.99145319e-02 1.06837610e-02
      2.35042740e-02 2.56410278e-02 8.54700897e-03 3.41880359e-02
      1.92307699e-02 1.49572659e-02 4.91452999e-02 1.06837610e-02
      1.70940179e-02 1.28205139e-02 8.54700897e-03 8.54700897e-03
      1.49572659e-02 8.54700897e-03 1.70940179e-02 2.99145319e-02
      1.49572659e-02 1.28205139e-02 1.49572659e-02 3.41880359e-02
      6.41025696e-03 4.27350448e-03</_>
    <_>
      1.18811885e-02 1.58415847e-02 2.37623770e-02 2.17821784e-02
      2.37623770e-02 7.92079233e-03 2.37623770e-02 2.37623770e-02
      3.16831693e-02 3.36633660e-02 6.93069324e-02 2.97029708e-02
      1.38613861e-02 1.58415847e-02 1.18811885e-02 2.17821784e-02
      1.78217832e-02 1.98019817e-02 1.38613861e-02 3.76237631e-02
      1.78217832e-02 2.37623770e-02 1.58415847e-02 3.16831693e-02
      9.90099087e-03 3.56435664e-02 1.98019817e-02 1.38613861e-02
      1.58415847e-02 3.16831693e-02 1.18811885e-02 3.36633660e-02
      3.16831693e-02 1.98019817e-02 3.76237631e-02 1.98019817e-02
      1.98019817e-02 9.90099087e-03 3.96039616e-03 2.77227722e-02
      1.18811885e-02 7.92079233e-03 5.94059424e-03 1.18811885e-02
      5.94059424e-03 1.18811885e-02 9.90099087e-03 2.17821784e-02
      1.98019808e-03 9.90099087e-03</_>
    <_>
      2.62529850e-02 1.19331749e-02 2.62529850e-02 9.54653975e-03
      7.15990458e-03 2.86396183e-02 4.53460626e-02 4.77326987e-03
      7.15990458e-03 1.43198092e-02 5.01193330e-02 1.43198092e-02
      1.19331749e-02 1.90930795e-02 1.43198092e-02 1.43198092e-02
      1.19331749e-02 1.43198092e-02 9.54653975e-03 2.14797147e-02
      2.38663498e-02 2.38663498e-02 4.05727923e-02 3.10262535e-02
      2.86396183e-02 7.15990458e-03 3.10262535e-02 2.62529850e-02
      3.34128886e-02 2.38663498e-02 2.86396183e-02 3.34128886e-02
      2.62529850e-02 3.34128886e-02 2.14797147e-02 1.19331749e-02
      1.19331749e-02 1.90930795e-02 1.43198092e-02 9.54653975e-03
      2.62529850e-02 2.14797147e-02 7.15990458e-03 7.15990458e-03
      1.43198092e-02 1.67064443e-02 1.19331749e-02 4.77326987e-03
      1.90930795e-02 2.86396183e-02</_>
    <_>
      0. 3.61010828e-03 1.08303251e-02 3.61010828e-03 1.80505421e-02
      1.44404331e-02 2.16606501e-02 1.08303251e-02 2.16606501e-02
      2.16606501e-02 6.85920566e-02 3.24909762e-02 2.52707582e-02
      7.22021656e-03 3.24909762e-02 2.16606501e-02 1.44404331e-02
      7.22021656e-03 7.22021656e-03 1.08303251e-02 2.88808662e-02
      2.16606501e-02 2.52707582e-02 3.61010828e-03 2.52707582e-02
      2.16606501e-02 3.24909762e-02 1.80505421e-02 3.24909762e-02
      3.97111923e-02 3.61010842e-02 5.05415164e-02 7.22021656e-03
      2.16606501e-02 3.61010842e-02 1.44404331e-02 1.08303251e-02
      3.61010828e-03 3.61010828e-03 1.08303251e-02 1.08303251e-02
      2.16606501e-02 1.80505421e-02 2.52707582e-02 7.22021656e-03
      2.52707582e-02 1.08303251e-02 4.33213003e-02 1.80505421e-02
      2.16606501e-02</_>
    <_>
      1.88323911e-02 1.12994350e-02 4.70809788e-02 2.25988701e-02
      7.53295654e-03 4.89642173e-02 1.50659131e-02 1.50659131e-02
      2.44821087e-02 2.63653472e-02 4.70809788e-02 3.38983051e-02
      1.12994350e-02 2.63653472e-02 2.44821087e-02 1.69491526e-02
      2.07156297e-02 7.53295654e-03 9.41619556e-03 2.82485876e-02
      2.63653472e-02 3.20150666e-02 3.20150666e-02 1.12994350e-02
      1.69491526e-02 1.31826736e-02 1.50659131e-02 3.20150666e-02
      2.44821087e-02 1.31826736e-02 1.31826736e-02 3.01318262e-02
      1.31826736e-02 1.31826736e-02 3.76647823e-02 1.12994350e-02
      1.12994350e-02 3.76647827e-03 1.88323911e-02 2.25988701e-02
      1.50659131e-02 1.50659131e-02 3.76647827e-03 2.44821087e-02
      7.53295654e-03 1.69491526e-02 2.07156297e-02 1.12994350e-02
      1.31826736e-02 1.69491526e-02</_>
    <_>
      1.80180185e-02 1.35135138e-02 1.35135138e-02 1.05105108e-02
      2.55255252e-02 3.45345363e-02 2.25225240e-02 1.05105108e-02
      2.55255252e-02 1.80180185e-02 1.95195191e-02 1.80180185e-02
      3.00300308e-03 1.20120123e-02 7.50750769e-03 1.20120123e-02
      2.85285302e-02 1.35135138e-02 7.50750769e-03 1.35135138e-02
      3.75375375e-02 2.70270277e-02 2.55255252e-02 1.05105108e-02
      3.75375375e-02 1.05105108e-02 2.55255252e-02 1.80180185e-02
      1.95195191e-02 1.50150154e-02 2.85285302e-02 1.05105108e-02
      1.20120123e-02 2.85285302e-02 3.60360369e-02 3.15315314e-02
      7.50750769e-03 2.85285302e-02 2.40240246e-02 1.20120123e-02
      1.95195191e-02 2.70270277e-02 2.70270277e-02 7.50750769e-03
      2.70270277e-02 3.15315314e-02 2.25225240e-02 1.50150154e-02
      1.50150154e-02 3.45345363e-02</_>
    <_>
      2.40000002e-02 8.00000038e-03 5.60000017e-02 1.20000001e-02
      1.20000001e-02 6.40000030e-02 3.20000015e-02 3.20000015e-02
      2.40000002e-02 4.00000019e-03 7.20000044e-02 2.00000014e-02
      2.00000014e-02 1.20000001e-02 2.40000002e-02 2.00000014e-02
      4.00000019e-03 2.40000002e-02 8.00000038e-03 1.60000008e-02
      2.00000014e-02 1.60000008e-02 3.60000022e-02 4.00000019e-03
      1.20000001e-02 2.40000002e-02 2.40000002e-02 4.00000019e-03
      2.00000014e-02 8.00000038e-03 1.20000001e-02 1.60000008e-02
      4.00000019e-03 1.60000008e-02 5.60000017e-02 8.00000038e-03
      2.80000009e-02 1.20000001e-02 1.60000008e-02 2.00000014e-02
      4.00000019e-03 1.20000001e-02 4.00000028e-02 8.00000038e-03
      1.20000001e-02 1.60000008e-02 1.60000008e-02 1.60000008e-02
      2.40000002e-02 8.00000038e-03</_>
    <_>
      3.36538479e-02 9.61538497e-03 9.61538497e-03 0. 4.80769249e-03
      9.61538497e-03 4.80769249e-03 1.92307699e-02 2.88461559e-02
      4.80769249e-03 3.84615399e-02 1.92307699e-02 1.92307699e-02
      1.92307699e-02 4.80769249e-03 4.32692319e-02 1.44230779e-02
      4.80769249e-03 4.80769249e-03 9.61538497e-03 0. 1.44230779e-02
      4.80769249e-03 5.28846160e-02 4.80769249e-03 3.84615399e-02
      1.44230779e-02 1.44230779e-02 3.36538479e-02 2.40384620e-02 0.
      4.32692319e-02 1.44230779e-02 0. 4.80769239e-02 4.80769249e-03
      2.40384620e-02 9.61538497e-03 3.36538479e-02 3.84615399e-02
      7.21153840e-02 6.73076957e-02 9.61538497e-03 9.61538497e-03
      9.61538497e-03 4.80769249e-03 4.80769239e-02 2.40384620e-02
      9.61538497e-03 2.40384620e-02</_>
    <_>
      1.28755365e-02 1.71673819e-02 4.50643785e-02 2.14592274e-02
      2.57510729e-02 3.86266112e-02 1.71673819e-02 2.78969966e-02
      2.36051492e-02 1.28755365e-02 3.21888402e-02 1.50214592e-02
      6.43776823e-03 1.93133056e-02 6.43776823e-03 2.36051492e-02
      1.93133056e-02 1.28755365e-02 2.14592274e-03 2.14592274e-02
      1.28755365e-02 8.58369097e-03 3.21888402e-02 2.57510729e-02
      1.71673819e-02 2.36051492e-02 3.00429184e-02 2.36051492e-02
      1.71673819e-02 1.93133056e-02 1.28755365e-02 3.64806876e-02
      6.43776823e-03 1.93133056e-02 4.72102985e-02 1.50214592e-02
      1.07296137e-02 1.71673819e-02 1.50214592e-02 1.71673819e-02
      2.14592274e-02 1.93133056e-02 2.14592274e-02 8.58369097e-03
      1.93133056e-02 2.14592274e-02 1.71673819e-02 3.21888402e-02
      1.71673819e-02 1.28755365e-02</_>
    <_>
      2.97951587e-02 2.23463699e-02 2.23463699e-02 1.86219737e-02
      1.86219737e-02 2.60707643e-02 1.11731850e-02 2.79329605e-02
      2.60707643e-02 1.48975793e-02 2.60707643e-02 1.67597774e-02
      7.44878966e-03 2.60707643e-02 1.11731850e-02 2.23463699e-02
      1.86219737e-02 2.23463699e-02 1.48975793e-02 1.86219737e-02
      2.79329605e-02 1.30353821e-02 3.16573568e-02 7.44878966e-03
      1.30353821e-02 2.23463699e-02 3.16573568e-02 2.60707643e-02
      9.31098685e-03 2.23463699e-02 2.60707643e-02 2.04841718e-02
      7.44878966e-03 2.79329605e-02 2.04841718e-02 1.11731850e-02
      2.04841718e-02 2.79329605e-02 9.31098685e-03 7.44878966e-03
      2.60707643e-02 1.86219737e-02 1.67597774e-02 1.67597774e-02
      1.11731850e-02 2.04841718e-02 1.48975793e-02 3.53817493e-02
      3.35195549e-02 2.04841718e-02</_>
    <_>
      2.63788980e-02 4.79616318e-03 9.59232636e-03 2.63788980e-02
      1.43884895e-02 1.67865716e-02 2.15827338e-02 2.39808150e-02
      2.87769791e-02 1.43884895e-02 2.63788980e-02 5.03597148e-02
      1.43884895e-02 2.87769791e-02 3.59712243e-02 3.35731432e-02
      2.39808159e-03 1.67865716e-02 2.15827338e-02 1.43884895e-02
      2.63788980e-02 2.39808150e-02 1.19904075e-02 7.19424477e-03
      1.91846527e-02 4.07673866e-02 2.87769791e-02 1.43884895e-02
      1.67865716e-02 2.39808150e-02 1.67865716e-02 5.03597148e-02
      1.19904075e-02 1.19904075e-02 1.91846527e-02 1.19904075e-02
      1.91846527e-02 2.15827338e-02 2.39808150e-02 1.19904075e-02
      1.91846527e-02 1.43884895e-02 4.79616318e-03 1.91846527e-02
      1.19904075e-02 1.91846527e-02 1.43884895e-02 3.11750602e-02
      1.19904075e-02 9.59232636e-03</_>
    <_>
      2.33463030e-02 1.29701681e-02 2.72373538e-02 1.29701681e-02
      1.55642023e-02 2.07522698e-02 2.20492873e-02 1.42671857e-02
      1.81582365e-02 1.55642023e-02 3.63164730e-02 2.33463030e-02
      9.07911826e-03 7.78210117e-03 9.07911826e-03 1.42671857e-02
      2.46433206e-02 1.42671857e-02 2.07522698e-02 2.46433206e-02
      1.42671857e-02 1.94552522e-02 2.85343714e-02 3.89105058e-03
      3.11284047e-02 2.07522698e-02 3.24254222e-02 1.55642023e-02
      1.68612190e-02 2.33463030e-02 2.59403363e-02 2.07522698e-02
      1.94552522e-02 2.33463030e-02 3.24254222e-02 2.85343714e-02
      1.29701681e-02 1.94552522e-02 1.68612190e-02 1.68612190e-02
      1.29701681e-02 1.42671857e-02 2.20492873e-02 1.94552522e-02
      2.33463030e-02 2.85343714e-02 1.68612190e-02 2.33463030e-02
      2.46433206e-02 2.46433206e-02</_>
    <_>
      3.71179059e-02 1.74672492e-02 2.18340605e-02 1.09170303e-02
      1.74672492e-02 1.09170303e-02 2.40174681e-02 1.96506549e-02
      1.52838435e-02 4.36681230e-03 5.67685589e-02 8.73362459e-03
      4.36681230e-03 1.31004369e-02 2.62008738e-02 1.74672492e-02
      1.52838435e-02 1.96506549e-02 1.96506549e-02 1.52838435e-02
      2.18340605e-02 1.74672492e-02 3.93013097e-02 3.49344984e-02
      1.74672492e-02 2.62008738e-02 3.27510908e-02 1.96506549e-02
      1.52838435e-02 8.73362459e-03 1.96506549e-02 4.36681211e-02
      1.96506549e-02 8.73362459e-03 3.93013097e-02 0. 6.55021844e-03
      8.73362459e-03 2.62008738e-02 1.09170303e-02 4.58515286e-02
      4.58515286e-02 2.18340605e-02 4.36681230e-03 1.52838435e-02
      2.18340615e-03 2.18340605e-02 6.55021844e-03 3.71179059e-02
      6.55021844e-03</_>
    <_>
      1.79028139e-02 1.79028139e-02 2.30179019e-02 1.53452680e-02
      1.02301789e-02 2.30179019e-02 2.55754478e-02 7.67263398e-03
      3.06905359e-02 1.02301789e-02 6.39386177e-02 1.79028139e-02
      1.79028139e-02 1.53452680e-02 1.27877239e-02 2.55754478e-02
      2.04603579e-02 1.53452680e-02 2.04603579e-02 2.30179019e-02
      2.55754478e-02 2.30179019e-02 2.81329919e-02 1.02301789e-02
      2.55754478e-02 3.32480818e-02 2.55754478e-02 2.30179019e-02
      1.02301789e-02 3.58056277e-02 1.27877239e-02 4.09207158e-02
      1.27877239e-02 5.11508947e-03 4.09207158e-02 5.11508947e-03
      1.27877239e-02 3.83631699e-02 2.30179019e-02 7.67263398e-03
      1.27877239e-02 2.04603579e-02 1.02301789e-02 1.79028139e-02
      1.27877239e-02 1.79028139e-02 1.79028139e-02 1.02301789e-02
      7.67263398e-03 1.79028139e-02</_>
    <_>
      0. 0. 1.29870130e-02 1.94805190e-02 0. 1.29870130e-02
      1.94805190e-02 7.14285746e-02 1.29870130e-02 6.49350649e-03
      5.19480519e-02 1.94805190e-02 3.89610380e-02 6.49350649e-03
      6.49350649e-03 2.59740259e-02 0. 1.94805190e-02 1.94805190e-02
      2.59740259e-02 1.94805190e-02 1.94805190e-02 6.49350649e-03 0.
      1.29870130e-02 3.89610380e-02 6.49350649e-03 1.94805190e-02
      1.94805190e-02 3.89610380e-02 1.29870130e-02 6.49350658e-02
      1.29870130e-02 6.49350649e-03 7.14285746e-02 2.59740259e-02
      2.59740259e-02 6.49350649e-03 1.29870130e-02 6.49350649e-03
      1.94805190e-02 2.59740259e-02 6.49350649e-03 3.89610380e-02 0.
      2.59740259e-02 0. 6.49350658e-02 1.94805190e-02 0.</_>
    <_>
      8.37988779e-03 1.67597756e-02 5.58659211e-02 2.79329605e-02
      3.91061455e-02 5.30726239e-02 8.37988779e-03 1.95530728e-02
      1.67597756e-02 2.23463681e-02 3.07262558e-02 1.39664803e-02
      1.67597756e-02 1.39664803e-02 1.11731840e-02 2.51396634e-02
      4.74860333e-02 8.37988779e-03 8.37988779e-03 3.07262558e-02
      1.95530728e-02 1.67597756e-02 2.51396634e-02 8.37988779e-03
      2.51396634e-02 5.58659201e-03 1.39664803e-02 5.58659201e-03
      1.67597756e-02 1.39664803e-02 2.79329605e-02 1.11731840e-02
      1.39664803e-02 1.67597756e-02 2.51396634e-02 2.23463681e-02
      2.51396634e-02 1.95530728e-02 1.11731840e-02 1.95530728e-02
      2.79329601e-03 8.37988779e-03 4.46927361e-02 1.11731840e-02
      2.51396634e-02 3.07262558e-02 8.37988779e-03 1.11731840e-02
      3.07262558e-02 8.37988779e-03</_>
    <_>
      1.09289614e-02 8.19672085e-03 3.55191231e-02 0. 3.27868834e-02
      1.36612020e-02 2.45901626e-02 2.45901626e-02 3.00546438e-02
      3.27868834e-02 6.01092875e-02 1.91256832e-02 8.19672085e-03
      1.91256832e-02 1.36612020e-02 2.73224041e-02 2.18579229e-02
      1.91256832e-02 8.19672085e-03 5.46448072e-03 5.46448072e-03
      1.91256832e-02 1.63934417e-02 1.09289614e-02 2.18579229e-02
      4.37158458e-02 1.63934417e-02 2.73224036e-03 2.18579229e-02
      3.82513665e-02 4.64480855e-02 1.63934417e-02 8.19672085e-03
      1.09289614e-02 4.64480855e-02 2.18579229e-02 1.36612020e-02
      3.00546438e-02 2.18579229e-02 1.09289614e-02 2.73224036e-03
      1.09289614e-02 8.19672085e-03 1.91256832e-02 2.73224041e-02
      3.27868834e-02 1.09289614e-02 2.73224041e-02 5.46448072e-03
      1.63934417e-02</_>
    <_>
      4.03587446e-02 4.48430516e-03 3.58744413e-02 2.24215258e-02
      1.79372206e-02 5.38116619e-02 8.96861032e-03 2.24215258e-02
      1.79372206e-02 4.48430516e-03 2.24215258e-02 2.24215258e-02
      1.34529155e-02 4.48430516e-03 8.96861032e-03 1.79372206e-02
      3.13901380e-02 3.13901380e-02 8.96861032e-03 2.69058309e-02
      8.96861032e-03 8.96861032e-03 1.34529155e-02 2.24215258e-02
      1.34529155e-02 3.13901380e-02 4.48430516e-03 0. 8.96861032e-03
      2.69058309e-02 2.24215258e-02 4.03587446e-02 3.58744413e-02
      2.24215258e-02 3.13901380e-02 0. 4.48430516e-03 2.69058309e-02
      1.34529155e-02 8.96861032e-03 4.03587446e-02 1.79372206e-02
      2.24215258e-02 1.34529155e-02 2.24215258e-02 2.24215258e-02
      3.58744413e-02 2.24215258e-02 4.03587446e-02 0.</_>
    <_>
      0. 0. 4.12371121e-02 1.54639166e-02 1.54639166e-02 1.54639166e-02
      1.03092780e-02 1.54639166e-02 2.06185561e-02 2.57731955e-02
      8.76288638e-02 2.57731955e-02 5.15463902e-03 1.54639166e-02
      1.03092780e-02 4.63917516e-02 1.03092780e-02 1.54639166e-02
      1.54639166e-02 1.54639166e-02 5.15463902e-03 1.54639166e-02
      2.57731955e-02 5.15463902e-03 2.06185561e-02 5.15463911e-02 0. 0.
      5.15463902e-03 2.57731955e-02 3.09278332e-02 1.03092780e-02
      3.09278332e-02 2.57731955e-02 6.18556663e-02 5.15463902e-03
      2.57731955e-02 1.54639166e-02 1.54639166e-02 1.03092780e-02
      1.03092780e-02 0. 5.15463902e-03 1.54639166e-02 1.54639166e-02
      5.15463911e-02 5.15463902e-03 5.15463911e-02 4.12371121e-02
      1.03092780e-02</_>
    <_>
      2.22929940e-02 2.86624208e-02 7.96178356e-02 1.27388537e-02
      2.54777074e-02 1.91082805e-02 2.22929940e-02 2.86624208e-02
      2.22929940e-02 1.27388537e-02 4.14012745e-02 1.27388537e-02
      9.55414027e-03 1.91082805e-02 1.91082805e-02 1.91082805e-02
      3.82165611e-02 1.59235671e-02 6.36942685e-03 1.59235671e-02
      2.54777074e-02 1.91082805e-02 1.59235671e-02 1.27388537e-02
      2.86624208e-02 1.27388537e-02 1.59235671e-02 3.18471342e-03
      3.50318477e-02 1.59235671e-02 1.91082805e-02 1.27388537e-02 0.
      1.91082805e-02 5.09554148e-02 2.22929940e-02 1.27388537e-02
      9.55414027e-03 1.91082805e-02 1.27388537e-02 1.59235671e-02
      3.18471342e-03 5.09554148e-02 6.36942685e-03 9.55414027e-03
      3.50318477e-02 9.55414027e-03 1.59235671e-02 1.27388537e-02
      6.36942685e-03</_>
    <_>
      2.26244349e-02 1.13122175e-02 1.13122175e-02 1.13122175e-02
      1.80995483e-02 9.04977415e-03 1.58371050e-02 2.26244349e-02
      4.29864265e-02 9.04977415e-03 4.75113131e-02 3.39366533e-02
      1.58371050e-02 2.48868782e-02 2.03619916e-02 3.61990966e-02
      1.35746617e-02 1.80995483e-02 1.80995483e-02 2.71493234e-02
      2.26244349e-02 9.04977415e-03 1.35746617e-02 9.04977415e-03
      1.13122175e-02 2.71493234e-02 2.03619916e-02 1.35746617e-02
      3.84615399e-02 3.16742100e-02 1.13122175e-02 1.80995483e-02
      1.58371050e-02 1.80995483e-02 2.26244349e-02 1.13122175e-02
      2.26244349e-02 2.71493234e-02 2.94117667e-02 2.26244349e-02
      9.04977415e-03 1.58371050e-02 2.03619916e-02 1.80995483e-02
      1.35746617e-02 1.13122175e-02 1.35746617e-02 2.71493234e-02
      2.26244349e-02 2.26244349e-02</_>
    <_>
      1.40350880e-02 7.01754401e-03 6.66666701e-02 1.40350880e-02
      2.10526325e-02 5.61403520e-02 1.75438598e-02 1.75438598e-02
      3.15789469e-02 7.01754401e-03 3.15789469e-02 1.40350880e-02
      1.75438598e-02 1.40350880e-02 1.40350880e-02 1.05263162e-02
      2.80701760e-02 1.75438598e-02 2.10526325e-02 1.05263162e-02
      1.75438598e-02 2.10526325e-02 3.15789469e-02 1.05263162e-02
      2.80701760e-02 1.75438598e-02 1.75438598e-02 3.50877200e-03
      2.10526325e-02 4.91228066e-02 3.85964923e-02 3.50877196e-02
      1.05263162e-02 1.75438598e-02 2.45614033e-02 7.01754401e-03
      1.05263162e-02 1.40350880e-02 1.05263162e-02 1.75438598e-02
      1.05263162e-02 1.05263162e-02 1.75438598e-02 1.75438598e-02
      2.45614033e-02 2.45614033e-02 0. 4.21052650e-02 1.75438598e-02 0.</_>
    <_>
      5.64102568e-02 2.05128212e-02 1.53846163e-02 2.82051284e-02
      1.79487187e-02 5.12820529e-03 1.53846163e-02 1.79487187e-02
      2.82051284e-02 2.05128212e-02 3.84615399e-02 1.79487187e-02
      2.05128212e-02 4.35897447e-02 1.53846163e-02 1.79487187e-02
      2.30769236e-02 1.28205130e-02 3.84615399e-02 1.53846163e-02
      1.02564106e-02 1.53846163e-02 2.30769236e-02 1.53846163e-02
      2.56410260e-02 2.82051284e-02 7.69230817e-03 1.28205130e-02
      2.56410264e-03 2.30769236e-02 1.53846163e-02 2.82051284e-02
      2.82051284e-02 7.69230817e-03 2.56410260e-02 1.28205130e-02
      1.53846163e-02 1.53846163e-02 1.53846163e-02 1.53846163e-02
      1.53846163e-02 2.30769236e-02 3.07692327e-02 1.53846163e-02
      1.28205130e-02 2.30769236e-02 5.12820529e-03 2.30769236e-02
      1.02564106e-02 2.82051284e-02</_>
    <_>
      3.47394533e-02 7.44416844e-03 2.23325063e-02 1.73697267e-02
      2.72952858e-02 4.71464023e-02 1.48883369e-02 1.98511165e-02
      2.23325063e-02 1.73697267e-02 5.45905717e-02 9.92555823e-03
      1.24069480e-02 2.48138960e-02 1.48883369e-02 2.72952858e-02
      9.92555823e-03 2.97766738e-02 1.24069480e-02 9.92555823e-03
      1.73697267e-02 9.92555823e-03 1.24069480e-02 1.73697267e-02
      1.73697267e-02 3.72208431e-02 7.44416844e-03 3.47394533e-02
      2.72952858e-02 1.98511165e-02 1.98511165e-02 1.24069480e-02
      7.44416844e-03 2.23325063e-02 2.48138960e-02 3.97022329e-02
      1.98511165e-02 1.98511165e-02 2.23325063e-02 1.24069480e-02
      9.92555823e-03 1.98511165e-02 1.73697267e-02 1.73697267e-02
      1.48883369e-02 2.48138960e-02 1.73697267e-02 9.92555823e-03
      2.23325063e-02 7.44416844e-03</_>
    <_>
      4.73933667e-03 1.42180100e-02 1.89573467e-02 4.73933667e-03
      1.42180100e-02 1.42180100e-02 1.42180100e-02 2.36966833e-02
      2.84360200e-02 0. 3.79146934e-02 3.79146934e-02 9.47867334e-03
      4.26540300e-02 1.89573467e-02 3.31753567e-02 2.36966833e-02
      4.73933667e-03 1.89573467e-02 3.79146934e-02 1.89573467e-02
      4.26540300e-02 4.26540300e-02 0. 5.21327034e-02 1.89573467e-02
      2.84360200e-02 4.73933667e-03 2.84360200e-02 3.79146934e-02
      1.42180100e-02 2.36966833e-02 9.47867334e-03 9.47867334e-03
      2.36966833e-02 2.36966833e-02 4.73933667e-03 9.47867334e-03
      1.89573467e-02 1.89573467e-02 9.47867334e-03 1.89573467e-02
      1.42180100e-02 3.31753567e-02 1.42180100e-02 1.42180100e-02
      1.42180100e-02 4.73933667e-03 3.79146934e-02 4.73933667e-03</_>
    <_>
      5.10204071e-03 5.10204071e-03 7.65306130e-02 1.02040814e-02
      2.04081628e-02 1.02040814e-02 5.10204071e-03 2.55102031e-02
      2.04081628e-02 2.04081628e-02 1.02040814e-02 2.04081628e-02
      2.04081628e-02 4.08163257e-02 1.53061226e-02 2.04081628e-02
      1.02040814e-02 5.10204071e-03 4.08163257e-02 1.53061226e-02 0. 0.
      5.10204071e-03 5.10204071e-03 5.10204071e-03 5.10204062e-02
      2.04081628e-02 1.02040814e-02 2.04081628e-02 3.06122452e-02
      2.04081628e-02 1.53061226e-02 2.04081628e-02 1.02040814e-02
      6.63265288e-02 1.02040814e-02 2.04081628e-02 3.57142836e-02
      1.02040814e-02 2.04081628e-02 1.53061226e-02 5.10204071e-03
      2.55102031e-02 1.53061226e-02 4.59183678e-02 1.02040814e-02
      3.06122452e-02 2.55102031e-02 3.06122452e-02 2.04081628e-02</_>
    <_>
      4.50236984e-02 4.73933667e-03 2.60663517e-02 3.08056884e-02
      1.65876783e-02 7.10900500e-03 1.42180100e-02 2.84360200e-02
      2.60663517e-02 1.89573467e-02 5.92417084e-02 2.13270150e-02
      1.18483417e-02 2.36966833e-02 1.89573467e-02 1.18483417e-02
      2.84360200e-02 2.60663517e-02 3.31753567e-02 3.31753567e-02
      1.42180100e-02 1.18483417e-02 1.89573467e-02 2.13270150e-02
      1.65876783e-02 1.42180100e-02 1.42180100e-02 1.65876783e-02
      2.36966833e-02 1.65876783e-02 9.47867334e-03 1.65876783e-02
      7.10900500e-03 9.47867334e-03 4.97630350e-02 1.65876783e-02
      1.65876783e-02 2.36966833e-02 3.08056884e-02 1.18483417e-02
      7.10900500e-03 1.18483417e-02 9.47867334e-03 9.47867334e-03
      2.84360200e-02 4.73933667e-03 1.89573467e-02 1.42180100e-02
      4.26540300e-02 7.10900500e-03</_>
    <_>
      5.01672253e-02 1.17056854e-02 2.00668890e-02 1.50501672e-02
      1.33779263e-02 1.33779263e-02 1.33779263e-02 2.17391308e-02
      2.00668890e-02 6.68896316e-03 1.67224072e-02 1.17056854e-02
      5.01672225e-03 2.50836127e-02 1.83946490e-02 2.17391308e-02
      3.51170562e-02 1.33779263e-02 1.00334445e-02 2.67558526e-02
      1.17056854e-02 1.33779263e-02 8.36120360e-03 1.50501672e-02
      1.83946490e-02 1.50501672e-02 2.34113708e-02 1.00334445e-02
      2.00668890e-02 2.34113708e-02 2.50836127e-02 1.17056854e-02
      1.67224072e-02 2.00668890e-02 3.67892981e-02 1.00334445e-02
      1.67224072e-02 3.17725763e-02 8.36120360e-03 1.67224072e-02
      1.17056854e-02 5.01672225e-03 3.01003344e-02 2.00668890e-02
      8.36120397e-02 3.51170562e-02 1.00334445e-02 3.01003344e-02
      2.84280926e-02 2.34113708e-02</_>
    <_>
      1.95804201e-02 4.19580424e-03 3.35664339e-02 2.37762239e-02
      1.95804201e-02 2.65734270e-02 1.81818195e-02 1.81818195e-02
      2.65734270e-02 2.79720295e-02 3.21678333e-02 2.09790226e-02
      1.11888116e-02 1.81818195e-02 1.67832170e-02 1.95804201e-02
      9.79021005e-03 3.21678333e-02 2.23776232e-02 3.35664339e-02
      1.39860148e-02 2.09790226e-02 1.81818195e-02 2.37762239e-02
      1.39860148e-02 1.67832170e-02 2.51748264e-02 1.81818195e-02
      3.49650346e-02 2.37762239e-02 1.39860148e-02 3.49650346e-02
      1.25874132e-02 1.81818195e-02 3.77622396e-02 1.11888116e-02
      1.81818195e-02 1.11888116e-02 2.79720295e-02 2.37762239e-02
      1.81818195e-02 1.53846163e-02 1.67832170e-02 9.79021005e-03
      8.39160848e-03 9.79021005e-03 2.23776232e-02 1.25874132e-02
      2.65734270e-02 5.59440581e-03</_>
    <_>
      2.82776356e-02 2.05655526e-02 6.68380484e-02 2.05655526e-02
      2.31362469e-02 5.14138825e-02 2.05655526e-02 3.08483280e-02
      1.02827763e-02 1.02827763e-02 2.31362469e-02 2.05655526e-02
      1.28534706e-02 3.34190242e-02 1.79948583e-02 2.57069413e-02
      2.31362469e-02 7.71208201e-03 1.54241640e-02 1.28534706e-02
      1.54241640e-02 1.79948583e-02 1.79948583e-02 7.71208201e-03
      1.79948583e-02 3.34190242e-02 1.02827763e-02 2.57069408e-03
      2.31362469e-02 2.82776356e-02 2.82776356e-02 1.79948583e-02
      1.79948583e-02 2.31362469e-02 1.02827763e-02 2.05655526e-02
      1.54241640e-02 2.05655526e-02 2.31362469e-02 1.54241640e-02
      2.05655526e-02 2.57069413e-02 1.79948583e-02 2.57069408e-03
      2.57069413e-02 2.31362469e-02 2.57069408e-03 1.79948583e-02
      7.71208201e-03 1.28534706e-02</_>
    <_>
      8.49256944e-03 1.06157120e-02 4.67091314e-02 2.33545657e-02
      2.97239926e-02 3.18471342e-02 1.48619963e-02 2.12314241e-02
      1.91082805e-02 2.12314241e-02 5.30785583e-02 3.39702778e-02
      2.12314236e-03 2.33545657e-02 8.49256944e-03 1.27388537e-02
      8.49256944e-03 1.06157120e-02 4.24628472e-03 1.91082805e-02
      1.06157120e-02 2.33545657e-02 2.54777074e-02 8.49256944e-03
      2.33545657e-02 2.12314241e-02 1.91082805e-02 2.97239926e-02
      1.48619963e-02 3.18471342e-02 3.60934213e-02 2.76008509e-02
      1.27388537e-02 1.69851389e-02 4.45859879e-02 3.18471342e-02
      2.12314236e-03 8.49256944e-03 1.69851389e-02 2.33545657e-02
      1.69851389e-02 1.69851389e-02 1.48619963e-02 1.27388537e-02
      1.06157120e-02 2.54777074e-02 2.12314241e-02 1.48619963e-02
      2.33545657e-02 1.06157120e-02</_>
    <_>
      1.02564106e-02 7.69230817e-03 2.56410260e-02 1.02564106e-02
      7.69230817e-03 5.12820529e-03 3.33333351e-02 3.84615399e-02
      2.56410260e-02 1.79487187e-02 3.84615399e-02 2.30769236e-02
      1.53846163e-02 7.69230817e-03 1.28205130e-02 3.84615399e-02
      1.79487187e-02 1.28205130e-02 1.02564106e-02 3.07692327e-02
      1.79487187e-02 1.53846163e-02 2.82051284e-02 1.02564106e-02
      1.53846163e-02 4.10256423e-02 1.53846163e-02 1.53846163e-02
      1.79487187e-02 4.61538471e-02 1.53846163e-02 3.84615399e-02
      7.69230817e-03 5.12820529e-03 4.87179495e-02 2.56410264e-03
      1.79487187e-02 2.82051284e-02 2.30769236e-02 7.69230817e-03
      1.28205130e-02 1.02564106e-02 1.79487187e-02 1.79487187e-02
      2.05128212e-02 7.69230817e-03 2.56410264e-03 3.84615399e-02
      2.56410260e-02 3.84615399e-02</_>
    <_>
      3.66300368e-03 3.66300368e-03 4.02930416e-02 7.32600736e-03
      3.66300368e-03 1.46520147e-02 2.56410260e-02 4.02930416e-02
      2.56410260e-02 3.66300368e-03 6.59340695e-02 1.46520147e-02
      3.29670347e-02 1.46520147e-02 1.09890113e-02 2.93040294e-02
      1.46520147e-02 2.56410260e-02 2.19780225e-02 2.19780225e-02
      1.09890113e-02 1.46520147e-02 4.76190485e-02 4.39560451e-02
      1.83150191e-02 2.19780225e-02 1.09890113e-02 3.66300368e-03
      2.56410260e-02 2.93040294e-02 4.39560451e-02 2.56410260e-02
      7.32600736e-03 1.46520147e-02 4.39560451e-02 1.09890113e-02
      2.19780225e-02 1.46520147e-02 7.32600736e-03 1.46520147e-02
      3.66300368e-03 1.09890113e-02 3.66300368e-03 1.09890113e-02 0.
      4.76190485e-02 0. 4.02930416e-02 2.19780225e-02 7.32600736e-03</_>
    <_>
      1.06157120e-02 1.06157120e-02 3.39702778e-02 2.97239926e-02
      2.12314241e-02 2.97239926e-02 1.69851389e-02 2.54777074e-02
      1.91082805e-02 3.18471342e-02 3.18471342e-02 1.27388537e-02
      8.49256944e-03 1.48619963e-02 8.49256944e-03 1.27388537e-02
      1.91082805e-02 1.91082805e-02 4.24628472e-03 8.49256944e-03
      1.48619963e-02 1.27388537e-02 2.12314241e-02 2.33545657e-02
      2.54777074e-02 1.91082805e-02 8.49256944e-03 2.12314236e-03
      2.54777074e-02 2.33545657e-02 4.24628481e-02 1.06157120e-02
      2.54777074e-02 2.33545657e-02 4.03397046e-02 4.88322750e-02
      1.69851389e-02 2.76008509e-02 1.69851389e-02 1.06157120e-02
      4.24628472e-03 6.36942685e-03 1.69851389e-02 1.91082805e-02
      2.12314241e-02 4.45859879e-02 1.48619963e-02 2.97239926e-02
      1.27388537e-02 2.12314241e-02</_>
    <_>
      3.05555556e-02 1.38888890e-02 5.55555569e-03 1.94444451e-02
      1.94444451e-02 3.33333351e-02 3.05555556e-02 1.66666675e-02
      2.22222228e-02 1.11111114e-02 5.00000007e-02 1.38888890e-02
      1.11111114e-02 1.38888890e-02 1.11111114e-02 1.66666675e-02
      2.77777780e-02 3.05555556e-02 1.94444451e-02 1.38888890e-02
      1.38888890e-02 1.38888890e-02 2.22222228e-02 5.55555569e-03
      2.50000004e-02 2.50000004e-02 3.88888903e-02 5.55555569e-03
      1.94444451e-02 5.55555569e-03 2.50000004e-02 1.66666675e-02
      2.77777780e-02 1.94444451e-02 1.94444451e-02 1.94444451e-02
      1.38888890e-02 1.66666675e-02 4.16666679e-02 8.33333377e-03
      1.66666675e-02 1.66666675e-02 1.94444451e-02 1.66666675e-02
      3.61111127e-02 2.77777780e-02 2.22222228e-02 1.66666675e-02
      1.66666675e-02 1.66666675e-02</_>
    <_>
      2.62664165e-02 1.68855526e-02 3.93996239e-02 2.06378996e-02
      2.06378996e-02 2.81425901e-02 2.43902430e-02 2.81425901e-02
      1.31332083e-02 1.50093809e-02 5.62851802e-02 1.12570357e-02
      1.12570357e-02 2.06378996e-02 1.50093809e-02 2.25140713e-02
      7.50469044e-03 1.31332083e-02 1.12570357e-02 1.87617261e-02
      1.87617261e-02 1.12570357e-02 1.50093809e-02 1.31332083e-02
      1.50093809e-02 2.81425901e-02 1.68855526e-02 3.56472805e-02
      3.75234522e-03 1.87617261e-02 2.62664165e-02 1.87617261e-02
      3.00187618e-02 2.06378996e-02 3.56472805e-02 1.68855526e-02
      1.87617261e-02 9.38086305e-03 1.68855526e-02 9.38086305e-03
      1.50093809e-02 2.43902430e-02 2.43902430e-02 1.12570357e-02
      1.12570357e-02 2.25140713e-02 1.12570357e-02 3.56472805e-02
      2.25140713e-02 2.25140713e-02</_>
    <_>
      1.29701681e-02 1.68612190e-02 2.46433206e-02 1.81582365e-02
      2.33463030e-02 3.89105044e-02 1.68612190e-02 1.81582365e-02
      1.29701681e-02 2.59403363e-02 3.63164730e-02 2.85343714e-02
      5.18806744e-03 1.94552522e-02 1.55642023e-02 1.29701681e-02
      2.98313871e-02 9.07911826e-03 2.46433206e-02 2.20492873e-02
      2.07522698e-02 1.55642023e-02 1.42671857e-02 1.42671857e-02
      2.46433206e-02 1.94552522e-02 1.81582365e-02 1.94552522e-02
      3.11284047e-02 2.07522698e-02 2.59403363e-02 3.24254222e-02
      1.29701681e-02 2.46433206e-02 2.33463030e-02 2.46433206e-02
      1.42671857e-02 2.46433206e-02 1.68612190e-02 2.07522698e-02
      1.68612190e-02 1.94552522e-02 1.42671857e-02 1.42671857e-02
      1.94552522e-02 2.20492873e-02 2.59403363e-02 7.78210117e-03
      1.81582365e-02 1.03761349e-02</_>
    <_>
      2.08333340e-02 1.25000011e-02 8.33333377e-03 1.45833343e-02
      8.33333377e-03 2.29166672e-02 2.70833354e-02 3.54166701e-02
      2.29166672e-02 2.08333340e-02 6.04166687e-02 2.08333340e-02
      2.50000022e-02 1.87500007e-02 2.08333340e-02 1.66666675e-02
      2.08333340e-02 1.25000011e-02 1.25000011e-02 1.87500007e-02
      1.04166670e-02 2.70833354e-02 2.70833354e-02 1.45833343e-02
      2.29166672e-02 1.66666675e-02 2.08333340e-02 1.66666675e-02
      4.16666688e-03 1.87500007e-02 1.87500007e-02 2.70833354e-02
      4.16666688e-03 1.87500007e-02 5.83333373e-02 1.25000011e-02
      1.04166670e-02 3.33333351e-02 1.45833343e-02 6.25000056e-03
      2.50000022e-02 2.50000022e-02 1.66666675e-02 1.04166670e-02
      1.04166670e-02 1.66666675e-02 2.29166672e-02 2.08333340e-02
      3.33333351e-02 1.45833343e-02</_>
    <_>
      1.41843967e-02 2.36406624e-02 2.83687934e-02 1.41843967e-02
      2.83687934e-02 2.36406624e-02 0. 7.09219836e-03 2.12765951e-02
      2.60047279e-02 4.72813249e-02 4.72813239e-03 1.41843967e-02
      1.89125296e-02 3.54609936e-02 1.89125296e-02 3.07328608e-02
      1.41843967e-02 2.12765951e-02 3.30969281e-02 7.09219836e-03
      9.45626479e-03 4.72813239e-03 1.89125296e-02 1.89125296e-02
      1.65484641e-02 1.65484641e-02 1.41843967e-02 3.07328608e-02
      1.18203312e-02 3.30969281e-02 0. 3.30969281e-02 1.89125296e-02
      5.67375869e-02 3.07328608e-02 0. 2.60047279e-02 1.65484641e-02
      1.65484641e-02 1.41843967e-02 1.89125296e-02 2.83687934e-02
      2.36406620e-03 2.60047279e-02 2.36406624e-02 1.89125296e-02
      9.45626479e-03 2.83687934e-02 2.36406624e-02</_>
    <_>
      2.76243109e-02 3.31491716e-02 2.20994484e-02 1.93370171e-02
      1.65745858e-02 8.28729291e-03 8.28729291e-03 2.48618796e-02
      1.93370171e-02 8.28729291e-03 7.18232095e-02 1.65745858e-02
      1.93370171e-02 2.20994484e-02 1.38121555e-02 5.52486209e-03
      3.59116048e-02 5.52486209e-03 1.10497242e-02 3.03867422e-02
      1.10497242e-02 1.93370171e-02 8.28729291e-03 1.38121555e-02
      5.52486209e-03 1.38121555e-02 1.65745858e-02 5.52486209e-03
      1.93370171e-02 1.10497242e-02 1.10497242e-02 8.28729291e-03
      6.07734844e-02 1.65745858e-02 4.97237593e-02 2.76243105e-03
      1.65745858e-02 2.76243109e-02 2.20994484e-02 2.48618796e-02
      1.38121555e-02 1.38121555e-02 3.31491716e-02 1.10497242e-02
      4.41988967e-02 2.20994484e-02 2.48618796e-02 3.03867422e-02
      1.65745858e-02 5.52486209e-03</_>
    <_>
      1.83673464e-02 4.08163248e-03 3.67346928e-02 2.04081628e-02
      2.44897939e-02 3.46938744e-02 2.24489793e-02 2.24489793e-02
      1.22448970e-02 2.44897939e-02 5.10204062e-02 1.22448970e-02
      1.22448970e-02 2.85714269e-02 1.22448970e-02 1.22448970e-02
      3.46938744e-02 8.16326495e-03 1.83673464e-02 3.26530598e-02
      1.42857134e-02 2.44897939e-02 2.24489793e-02 1.02040814e-02
      2.24489793e-02 1.63265299e-02 1.63265299e-02 3.06122433e-02
      1.42857134e-02 1.22448970e-02 3.46938744e-02 1.22448970e-02
      1.22448970e-02 1.42857134e-02 3.46938744e-02 3.06122433e-02
      1.42857134e-02 2.24489793e-02 1.63265299e-02 1.22448970e-02
      1.02040814e-02 1.63265299e-02 2.24489793e-02 8.16326495e-03
      1.42857134e-02 3.06122433e-02 1.63265299e-02 1.63265299e-02
      1.63265299e-02 1.83673464e-02</_>
    <_>
      1.79372206e-02 2.24215258e-03 4.03587446e-02 1.56950690e-02
      2.46636793e-02 2.46636793e-02 8.96861032e-03 1.56950690e-02
      8.96861032e-03 2.01793723e-02 6.05381206e-02 2.46636793e-02
      1.56950690e-02 1.12107629e-02 2.01793723e-02 1.12107629e-02
      2.24215258e-02 6.72645774e-03 8.96861032e-03 1.79372206e-02
      1.79372206e-02 1.12107629e-02 1.79372206e-02 1.79372206e-02
      2.91479826e-02 2.24215258e-02 1.79372206e-02 2.01793723e-02
      2.91479826e-02 1.79372206e-02 2.91479826e-02 1.34529155e-02
      1.34529155e-02 2.46636793e-02 4.70852032e-02 2.91479826e-02
      2.01793723e-02 8.96861032e-03 8.96861032e-03 1.34529155e-02
      1.34529155e-02 2.01793723e-02 2.69058309e-02 2.01793723e-02
      1.34529155e-02 3.58744413e-02 2.01793723e-02 2.24215258e-02
      6.72645774e-03 3.13901380e-02</_>
    <_>
      1.21951215e-02 4.06504050e-03 4.06504050e-02 3.04878037e-02
      1.21951215e-02 3.65853645e-02 1.42276417e-02 3.45528424e-02
      3.25203240e-02 1.82926822e-02 4.06504050e-02 2.03252025e-02
      1.62601620e-02 1.82926822e-02 1.42276417e-02 2.64227632e-02
      6.09756075e-03 1.82926822e-02 4.06504050e-03 1.42276417e-02
      1.01626012e-02 6.09756075e-03 1.21951215e-02 3.25203240e-02
      1.42276417e-02 2.64227632e-02 8.13008100e-03 1.01626012e-02
      2.23577227e-02 3.04878037e-02 2.84552835e-02 2.64227632e-02
      1.42276417e-02 2.23577227e-02 5.28455265e-02 3.45528424e-02
      1.21951215e-02 1.82926822e-02 1.62601620e-02 1.62601620e-02
      1.01626012e-02 1.82926822e-02 6.09756075e-03 2.43902430e-02
      1.42276417e-02 8.13008100e-03 2.23577227e-02 2.84552835e-02
      2.64227632e-02 1.21951215e-02</_>
    <_>
      2.41935477e-02 1.61290318e-02 5.04032224e-02 2.01612897e-02
      1.81451607e-02 3.62903215e-02 1.41129028e-02 8.06451589e-03
      2.01612897e-02 1.20967738e-02 4.63709682e-02 2.41935477e-02
      6.04838692e-03 1.20967738e-02 2.21774187e-02 1.81451607e-02
      3.62903215e-02 1.61290318e-02 8.06451589e-03 2.21774187e-02
      2.41935477e-02 1.20967738e-02 2.21774187e-02 8.06451589e-03
      1.41129028e-02 2.21774187e-02 2.01612897e-02 3.02419346e-02
      1.00806449e-02 8.06451589e-03 2.01612897e-02 2.41935477e-02
      6.04838692e-03 1.61290318e-02 3.62903215e-02 2.82258056e-02 0.
      1.61290318e-02 4.03225794e-02 4.03225794e-03 1.41129028e-02
      1.00806449e-02 3.22580636e-02 2.01612897e-02 1.81451607e-02
      1.61290318e-02 3.02419346e-02 8.06451589e-03 2.41935477e-02
      3.22580636e-02</_>
    <_>
      7.50000030e-02 2.77777785e-03 1.52777778e-02 1.66666675e-02
      1.25000002e-02 1.80555563e-02 9.72222257e-03 1.52777778e-02
      1.25000002e-02 2.08333340e-02 2.91666668e-02 1.38888890e-02
      6.94444450e-03 2.77777780e-02 8.33333377e-03 8.33333377e-03
      1.38888890e-02 1.94444451e-02 1.80555563e-02 1.66666675e-02
      1.38888890e-02 1.94444451e-02 1.94444451e-02 1.38888890e-02
      1.25000002e-02 2.22222228e-02 1.52777778e-02 8.33333377e-03
      1.38888890e-02 8.33333377e-03 2.91666668e-02 1.25000002e-02
      5.55555569e-03 2.36111116e-02 3.05555556e-02 2.91666668e-02
      1.66666675e-02 3.61111127e-02 1.52777778e-02 1.94444451e-02
      1.38888890e-02 1.38888890e-02 2.22222228e-02 1.94444451e-02
      8.33333358e-02 2.77777780e-02 1.38888890e-02 1.25000002e-02
      4.02777791e-02 2.63888892e-02</_>
    <_>
      1.54142585e-02 1.15606934e-02 2.89017353e-02 2.31213868e-02
      2.50481702e-02 3.85356471e-02 2.31213868e-02 3.27553004e-02
      1.73410401e-02 1.15606934e-02 4.04624268e-02 2.11946052e-02
      1.92678235e-02 1.92678235e-02 1.73410401e-02 3.08285169e-02
      1.34874759e-02 1.34874759e-02 3.85356462e-03 1.92678235e-02
      1.54142585e-02 2.11946052e-02 3.08285169e-02 1.15606934e-02
      1.92678235e-02 1.34874759e-02 1.54142585e-02 7.70712923e-03
      1.15606934e-02 1.54142585e-02 1.92678235e-02 1.54142585e-02
      1.92678235e-02 3.27553004e-02 1.92678235e-02 4.62427735e-02
      2.50481702e-02 5.78034669e-03 1.34874759e-02 1.92678235e-02
      1.15606934e-02 2.11946052e-02 1.92678235e-02 3.08285169e-02
      1.15606934e-02 1.92678235e-02 1.34874759e-02 3.66088636e-02
      1.15606934e-02 2.11946052e-02</_>
    <_>
      1.35869570e-02 5.43478271e-03 5.43478271e-03 1.90217402e-02
      2.71739140e-02 1.08695654e-02 2.17391308e-02 8.15217383e-03
      1.08695654e-02 2.98913047e-02 1.90217402e-02 2.71739140e-02
      8.15217383e-03 1.90217402e-02 3.80434804e-02 1.63043477e-02
      2.98913047e-02 2.71739140e-02 8.15217383e-03 1.63043477e-02
      1.90217402e-02 2.44565215e-02 2.71739140e-02 1.35869570e-02
      2.71739140e-02 2.44565215e-02 1.08695654e-02 8.15217383e-03
      2.71739140e-02 8.15217383e-03 3.26086953e-02 8.15217383e-03
      2.44565215e-02 5.43478280e-02 2.98913047e-02 1.08695654e-02
      1.08695654e-02 1.90217402e-02 2.71739140e-02 2.44565215e-02
      1.08695654e-02 1.35869570e-02 8.15217383e-03 2.44565215e-02
      2.98913047e-02 4.34782617e-02 1.08695654e-02 1.90217402e-02
      2.71739135e-03 4.34782617e-02</_>
    <_>
      3.26086953e-02 1.70807466e-02 4.03726697e-02 1.24223605e-02
      2.01863348e-02 3.72670814e-02 2.32919268e-02 1.70807466e-02
      1.86335407e-02 9.31677036e-03 1.70807466e-02 1.55279506e-02
      6.21118024e-03 1.55279506e-02 2.79503111e-02 7.76397530e-03
      3.88198756e-02 1.24223605e-02 2.95031071e-02 3.41614932e-02
      6.21118024e-03 2.63975151e-02 2.17391308e-02 1.86335407e-02
      1.86335407e-02 1.70807466e-02 1.24223605e-02 6.21118024e-03
      2.32919268e-02 1.55279506e-02 2.95031071e-02 2.48447210e-02
      3.10559012e-02 1.86335407e-02 2.48447210e-02 1.24223605e-02
      1.08695654e-02 2.17391308e-02 1.70807466e-02 1.70807466e-02
      1.70807466e-02 1.70807466e-02 2.63975151e-02 2.48447210e-02
      2.48447210e-02 2.63975151e-02 1.70807466e-02 1.08695654e-02
      1.39751555e-02 1.39751555e-02</_>
    <_>
      8.74635577e-02 1.45772602e-02 4.66472320e-02 1.16618080e-02
      1.45772602e-02 1.45772602e-02 1.74927115e-02 2.91545200e-03
      1.45772602e-02 1.45772602e-02 3.20699736e-02 1.74927115e-02
      2.91545200e-03 2.33236160e-02 8.74635577e-03 1.45772602e-02
      2.62390673e-02 2.91545200e-03 2.91545200e-03 2.62390673e-02
      2.04081647e-02 3.79008763e-02 1.74927115e-02 4.66472320e-02
      2.04081647e-02 8.74635577e-03 2.33236160e-02 4.08163294e-02
      1.45772602e-02 1.74927115e-02 8.74635577e-03 1.74927115e-02
      1.16618080e-02 5.83090400e-03 8.74635577e-03 2.04081647e-02
      5.83090400e-03 2.91545205e-02 3.79008763e-02 1.16618080e-02
      3.49854231e-02 2.91545205e-02 2.04081647e-02 1.16618080e-02
      4.37317789e-02 0. 1.45772602e-02 2.91545200e-03 8.74635577e-03
      3.20699736e-02</_>
    <_>
      3.66972499e-02 1.83486249e-02 1.52905202e-02 2.59938855e-02
      7.64526008e-03 1.98776759e-02 1.52905202e-02 6.11620815e-03
      2.14067288e-02 1.37614682e-02 5.04587181e-02 2.14067288e-02
      1.68195721e-02 3.51681970e-02 1.98776759e-02 9.17431246e-03
      1.37614682e-02 9.17431246e-03 2.29357798e-02 3.51681970e-02
      9.17431246e-03 2.75229365e-02 1.83486249e-02 3.36391442e-02
      2.29357798e-02 1.37614682e-02 2.90519893e-02 2.29357798e-02
      2.59938855e-02 1.68195721e-02 1.68195721e-02 2.29357798e-02
      2.29357798e-02 1.37614682e-02 3.21100913e-02 1.52905202e-02
      2.14067288e-02 1.07033644e-02 1.98776759e-02 2.90519893e-02
      9.17431246e-03 1.83486249e-02 1.37614682e-02 1.68195721e-02
      1.52905202e-02 1.07033644e-02 3.21100913e-02 1.83486249e-02
      1.22324163e-02 1.37614682e-02</_>
    <_>
      2.82485876e-02 2.44821087e-02 4.89642173e-02 1.69491526e-02
      1.31826736e-02 1.88323914e-03 9.41619556e-03 0. 9.41619556e-03
      7.53295654e-03 4.33145016e-02 1.50659131e-02 3.76647827e-03
      2.25988701e-02 1.12994350e-02 7.53295654e-03 9.03954804e-02
      9.41619556e-03 1.69491526e-02 1.50659131e-02 1.69491526e-02
      2.07156297e-02 1.88323911e-02 1.50659131e-02 2.07156297e-02
      1.12994350e-02 2.25988701e-02 4.51977402e-02 1.69491526e-02
      7.53295654e-03 1.69491526e-02 1.69491526e-02 5.64971752e-03
      1.12994350e-02 2.07156297e-02 9.41619556e-03 7.53295654e-03
      1.88323911e-02 3.95480208e-02 1.88323911e-02 1.88323911e-02
      3.57815437e-02 3.57815437e-02 1.31826736e-02 5.64971752e-02
      1.31826736e-02 2.25988701e-02 3.76647827e-03 9.41619556e-03
      3.38983051e-02</_>
    <_>
      4.79573719e-02 8.88099521e-03 3.55239809e-02 2.30905861e-02
      2.13143881e-02 3.90763767e-02 2.30905861e-02 3.55239795e-03
      8.88099521e-03 1.42095918e-02 4.26287763e-02 2.84191836e-02
      1.24333929e-02 3.01953834e-02 5.32859704e-03 2.13143881e-02
      2.48667859e-02 7.10479589e-03 1.24333929e-02 3.01953834e-02
      1.59857906e-02 1.95381884e-02 2.13143881e-02 2.84191836e-02
      2.84191836e-02 1.59857906e-02 2.66429838e-02 1.95381884e-02
      2.30905861e-02 2.30905861e-02 1.42095918e-02 3.73001769e-02
      1.59857906e-02 2.48667859e-02 1.42095918e-02 1.06571941e-02
      1.77619904e-02 7.10479589e-03 2.13143881e-02 1.59857906e-02
      1.42095918e-02 2.30905861e-02 2.13143881e-02 1.06571941e-02
      2.48667859e-02 1.77619904e-02 1.77619904e-02 1.06571941e-02
      1.24333929e-02 5.32859704e-03</_>
    <_>
      4.18848172e-02 1.39616057e-02 1.91972069e-02 1.22164050e-02
      8.72600358e-03 2.09424086e-02 2.09424086e-02 8.72600358e-03
      1.57068074e-02 1.91972069e-02 2.61780098e-02 1.74520072e-02
      1.74520072e-02 6.98080286e-03 1.57068074e-02 1.22164050e-02
      1.91972069e-02 1.57068074e-02 1.91972069e-02 2.44328100e-02
      1.74520072e-02 2.26876102e-02 1.57068074e-02 3.31588127e-02
      2.09424086e-02 2.26876102e-02 2.09424086e-02 1.22164050e-02
      1.91972069e-02 2.26876102e-02 1.57068074e-02 1.74520072e-02
      3.31588127e-02 5.23560215e-03 2.61780098e-02 1.04712043e-02
      1.04712043e-02 3.66492160e-02 2.96684131e-02 1.57068074e-02
      1.74520072e-02 2.26876102e-02 2.44328100e-02 2.26876102e-02
      3.66492160e-02 1.22164050e-02 2.26876102e-02 2.09424086e-02
      1.74520072e-02 3.83944139e-02</_>
    <_>
      3.82775106e-02 9.56937764e-03 9.56937764e-03 9.56937764e-03
      1.43540669e-02 9.56937764e-03 2.39234436e-02 9.56937764e-03
      2.39234436e-02 1.43540669e-02 1.00478463e-01 2.39234436e-02
      2.39234436e-02 1.43540669e-02 2.39234436e-02 2.39234436e-02
      9.56937764e-03 9.56937764e-03 9.56937764e-03 1.43540669e-02
      1.43540669e-02 1.43540669e-02 1.43540669e-02 5.26315756e-02
      1.91387553e-02 4.78468882e-03 1.91387553e-02 4.30621989e-02
      1.43540669e-02 2.39234436e-02 1.43540669e-02 5.26315756e-02
      9.56937764e-03 2.87081338e-02 2.39234436e-02 9.56937764e-03
      1.43540669e-02 4.78468882e-03 2.87081338e-02 9.56937764e-03
      2.39234436e-02 5.26315756e-02 9.56937764e-03 9.56937764e-03
      4.78468882e-03 2.39234436e-02 1.91387553e-02 9.56937764e-03
      4.78468882e-03 9.56937764e-03</_>
    <_>
      2.16216221e-02 2.43243240e-02 4.59459461e-02 1.89189203e-02
      1.35135138e-02 7.02702701e-02 1.35135138e-02 2.16216221e-02
      2.16216221e-02 2.16216221e-02 3.78378406e-02 1.35135138e-02
      1.35135138e-02 2.16216221e-02 1.35135138e-02 2.43243240e-02
      2.70270277e-02 5.40540554e-03 8.10810830e-03 2.70270277e-02
      2.70270277e-03 8.10810830e-03 1.62162166e-02 0. 8.10810830e-03
      2.43243240e-02 1.35135138e-02 5.40540554e-03 1.35135138e-02
      2.70270277e-02 4.59459461e-02 5.40540554e-03 1.62162166e-02
      2.70270277e-02 3.24324332e-02 1.35135138e-02 3.51351351e-02
      1.89189203e-02 2.16216221e-02 1.35135138e-02 1.08108111e-02
      1.08108111e-02 2.70270277e-02 2.16216221e-02 1.89189203e-02
      3.78378406e-02 1.62162166e-02 2.16216221e-02 1.08108111e-02
      1.08108111e-02</_>
    <_>
      7.29927002e-03 1.82481743e-02 1.45985400e-02 2.18978096e-02
      2.91970801e-02 7.29927002e-03 1.82481743e-02 1.82481743e-02
      2.55474448e-02 2.91970801e-02 4.74452563e-02 2.91970801e-02
      2.91970801e-02 2.18978096e-02 2.18978096e-02 2.18978096e-02
      7.29927002e-03 2.18978096e-02 3.64963501e-03 2.91970801e-02
      2.18978096e-02 2.55474448e-02 2.55474448e-02 1.09489048e-02
      2.55474448e-02 2.18978096e-02 2.91970801e-02 1.09489048e-02
      2.91970801e-02 3.64963487e-02 2.18978096e-02 7.29927002e-03
      1.82481743e-02 1.09489048e-02 4.01459858e-02 2.55474448e-02
      2.91970801e-02 2.55474448e-02 2.18978096e-02 1.09489048e-02
      7.29927002e-03 3.64963501e-03 1.45985400e-02 1.45985400e-02
      1.45985400e-02 2.18978096e-02 7.29927002e-03 2.18978096e-02
      7.29927002e-03 1.45985400e-02</_>
    <_>
      3.57142873e-02 1.78571437e-02 2.32142862e-02 1.42857144e-02
      1.96428578e-02 2.50000004e-02 1.25000002e-02 1.60714295e-02
      1.78571437e-02 1.96428578e-02 4.10714298e-02 2.50000004e-02
      5.35714300e-03 2.14285720e-02 1.96428578e-02 2.32142862e-02
      7.14285718e-03 1.07142860e-02 8.92857183e-03 2.85714287e-02
      1.78571437e-02 1.78571437e-02 1.07142860e-02 4.10714298e-02
      2.32142862e-02 1.78571437e-02 1.60714295e-02 2.50000004e-02
      1.25000002e-02 2.50000004e-02 2.67857146e-02 2.85714287e-02
      1.42857144e-02 1.78571430e-03 3.39285731e-02 2.32142862e-02
      1.42857144e-02 1.07142860e-02 3.21428590e-02 1.42857144e-02
      2.50000004e-02 3.03571429e-02 8.92857183e-03 1.42857144e-02
      1.25000002e-02 1.96428578e-02 3.57142873e-02 1.78571437e-02
      1.78571437e-02 1.78571437e-02</_>
    <_>
      3.48837227e-02 5.81395347e-03 6.39534891e-02 1.74418613e-02
      2.32558139e-02 1.74418613e-02 3.48837227e-02 5.81395347e-03
      1.74418613e-02 1.74418613e-02 1.74418613e-02 4.65116277e-02
      2.32558139e-02 5.81395347e-03 1.16279069e-02 2.32558139e-02
      5.81395347e-03 2.32558139e-02 0. 2.90697664e-02 5.81395347e-03
      1.74418613e-02 1.74418613e-02 2.32558139e-02 5.81395347e-03
      5.81395347e-03 2.90697664e-02 0. 2.90697664e-02 4.06976752e-02
      2.90697664e-02 2.32558139e-02 1.74418613e-02 2.90697664e-02
      3.48837227e-02 2.32558139e-02 5.81395347e-03 1.16279069e-02
      5.81395347e-03 1.16279069e-02 1.16279069e-02 5.81395347e-03
      2.90697664e-02 5.23255803e-02 5.81395347e-03 4.65116277e-02
      5.81395347e-03 2.32558139e-02 1.16279069e-02 1.74418613e-02</_>
    <_>
      5.19480519e-02 1.51515156e-02 8.65800865e-03 2.16450207e-02
      1.51515156e-02 1.51515156e-02 8.65800865e-03 6.49350649e-03
      1.51515156e-02 1.94805190e-02 9.09090936e-02 1.29870130e-02
      1.08225103e-02 3.03030312e-02 2.81385276e-02 1.51515156e-02
      2.38095243e-02 1.73160173e-02 1.73160173e-02 2.16450207e-02
      1.08225103e-02 1.51515156e-02 6.49350649e-03 2.59740259e-02
      1.73160173e-02 8.65800865e-03 1.51515156e-02 4.76190485e-02
      2.81385276e-02 6.49350649e-03 1.73160173e-02 1.94805190e-02
      3.03030312e-02 8.65800865e-03 3.03030312e-02 1.94805190e-02
      1.29870130e-02 2.16450207e-02 2.81385276e-02 1.73160173e-02
      3.03030312e-02 1.94805190e-02 6.49350649e-03 1.29870130e-02
      2.16450207e-02 6.49350649e-03 2.38095243e-02 4.32900432e-03
      1.51515156e-02 2.59740259e-02</_>
    <_>
      1.41987829e-02 1.21703856e-02 3.24543603e-02 9.12778918e-03
      2.12981738e-02 2.43407711e-02 1.72413792e-02 4.05679503e-03
      9.12778918e-03 3.24543603e-02 5.07099368e-03 1.62271801e-02
      3.04259639e-03 6.08519278e-03 1.11561865e-02 6.08519278e-03
      1.13590263e-01 6.08519278e-03 6.08519278e-03 7.09939143e-03
      2.23123729e-02 1.52129810e-02 2.02839747e-02 1.41987829e-02
      2.63691675e-02 6.08519278e-03 1.92697756e-02 2.43407711e-02
      1.52129810e-02 1.01419874e-02 1.31845837e-02 1.11561865e-02
      1.31845837e-02 2.53549684e-02 1.41987829e-02 2.02839747e-02
      2.02839752e-03 3.95537503e-02 2.02839747e-02 7.09939143e-03
      1.52129810e-02 1.82555784e-02 4.15821485e-02 1.11561865e-02
      1.33874238e-01 1.11561865e-02 1.31845837e-02 6.08519278e-03
      1.41987829e-02 3.85395512e-02</_>
    <_>
      6.65137619e-02 1.60550456e-02 3.21100913e-02 6.88073365e-03
      9.17431153e-03 6.88073365e-03 1.37614673e-02 1.14678890e-02
      1.37614673e-02 3.21100913e-02 7.79816508e-02 2.52293572e-02
      6.88073365e-03 4.58715577e-03 1.14678890e-02 2.52293572e-02
      1.14678890e-02 1.37614673e-02 1.60550456e-02 3.44036669e-02
      2.75229346e-02 9.17431153e-03 1.14678890e-02 2.52293572e-02
      2.29357779e-02 2.52293572e-02 9.17431153e-03 1.60550456e-02
      2.98165120e-02 1.83486231e-02 9.17431153e-03 2.29357779e-02
      9.17431153e-03 9.17431153e-03 3.66972461e-02 2.29357779e-02
      2.29357788e-03 1.60550456e-02 2.98165120e-02 1.83486231e-02
      2.29357779e-02 1.83486231e-02 9.17431153e-03 1.14678890e-02
      2.29357779e-02 1.37614673e-02 3.44036669e-02 1.60550456e-02
      1.14678890e-02 3.21100913e-02</_>
    <_>
      1.57303363e-02 2.24719103e-03 1.57303363e-02 8.98876414e-03
      1.12359552e-02 3.59550565e-02 2.69662924e-02 2.24719103e-02
      2.69662924e-02 1.57303363e-02 2.02247202e-02 2.47191004e-02
      8.98876414e-03 6.74157310e-03 1.79775283e-02 4.04494405e-02
      2.24719103e-02 1.34831462e-02 1.12359552e-02 3.14606726e-02
      1.79775283e-02 1.79775283e-02 3.14606726e-02 2.02247202e-02
      2.47191004e-02 4.26966287e-02 1.79775283e-02 1.79775283e-02
      1.34831462e-02 2.47191004e-02 2.02247202e-02 3.59550565e-02
      2.02247202e-02 1.34831462e-02 3.14606726e-02 8.98876414e-03
      4.49438207e-03 3.14606726e-02 3.14606726e-02 2.02247202e-02
      1.79775283e-02 1.12359552e-02 1.34831462e-02 2.24719103e-02
      1.57303363e-02 2.02247202e-02 2.02247202e-02 3.37078646e-02
      6.74157310e-03 1.12359552e-02</_>
    <_>
      1.57480314e-02 3.93700786e-03 4.13385816e-02 1.18110236e-02
      1.77165344e-02 2.36220472e-02 1.57480314e-02 1.96850393e-02
      3.14960629e-02 1.18110236e-02 2.36220472e-02 3.93700786e-02
      1.37795275e-02 9.84251965e-03 2.16535442e-02 3.54330689e-02
      3.93700786e-03 1.37795275e-02 7.87401572e-03 4.33070883e-02
      2.55905502e-02 1.77165344e-02 1.57480314e-02 7.87401572e-03
      1.57480314e-02 4.13385816e-02 1.96850393e-02 1.18110236e-02
      1.18110236e-02 4.13385816e-02 2.75590550e-02 3.93700786e-02
      2.75590550e-02 1.96850393e-02 4.52755913e-02 2.55905502e-02
      9.84251965e-03 1.57480314e-02 1.18110236e-02 2.16535442e-02
      1.96850393e-02 3.93700786e-03 5.90551179e-03 1.37795275e-02
      1.18110236e-02 3.14960629e-02 7.87401572e-03 2.36220472e-02
      1.37795275e-02 9.84251965e-03</_>
    <_>
      6.86498825e-03 6.86498825e-03 1.37299765e-02 1.60183050e-02
      1.14416471e-02 6.86498825e-03 3.66132706e-02 9.15331766e-03
      1.60183050e-02 1.60183050e-02 6.86498806e-02 4.11899313e-02 0.
      1.60183050e-02 2.51716226e-02 1.60183050e-02 9.15331766e-03
      9.15331766e-03 0. 1.14416471e-02 3.89016010e-02 1.83066353e-02
      3.20366099e-02 2.28832942e-02 1.37299765e-02 1.14416471e-02
      2.28832942e-02 4.34782580e-02 4.57665883e-03 2.28832942e-02
      1.83066353e-02 1.83066353e-02 0. 6.86498825e-03 8.23798627e-02
      1.37299765e-02 1.60183050e-02 4.57665883e-03 2.51716226e-02
      6.86498825e-03 4.57665883e-02 4.11899313e-02 4.57665883e-03
      1.14416471e-02 6.86498825e-03 2.28832942e-02 3.20366099e-02
      4.57665883e-03 2.97482833e-02 4.11899313e-02</_>
    <_>
      3.58974375e-02 1.53846163e-02 2.56410260e-02 5.12820529e-03
      2.30769236e-02 2.30769236e-02 5.12820529e-03 2.05128212e-02
      1.02564106e-02 2.05128212e-02 7.17948750e-02 2.56410264e-03
      1.79487187e-02 2.30769236e-02 5.12820529e-03 2.82051284e-02
      1.79487187e-02 1.79487187e-02 5.12820529e-03 2.05128212e-02
      2.56410264e-03 7.69230817e-03 7.69230817e-03 4.61538471e-02
      5.12820529e-03 2.82051284e-02 1.02564106e-02 1.28205130e-02
      7.69230817e-03 7.69230817e-03 4.10256423e-02 1.53846163e-02
      3.07692327e-02 1.53846163e-02 5.64102568e-02 5.12820529e-03
      2.30769236e-02 2.82051284e-02 2.82051284e-02 2.56410264e-03
      2.05128212e-02 1.53846163e-02 2.05128212e-02 7.69230817e-03
      2.56410260e-02 3.33333351e-02 3.33333351e-02 7.69230817e-03
      3.33333351e-02 2.56410260e-02</_>
    <_>
      4.03050110e-02 1.30718946e-02 1.19825704e-02 1.41612198e-02
      1.85185187e-02 6.53594732e-03 1.08932462e-02 3.26797366e-03
      8.71459674e-03 3.48583870e-02 7.84313679e-02 1.41612198e-02
      6.53594732e-03 1.85185187e-02 1.63398683e-02 7.62527203e-03
      1.08932462e-02 1.08932462e-02 1.08932459e-03 1.85185187e-02
      1.85185187e-02 1.96078420e-02 1.96078420e-02 6.64488003e-02
      2.06971671e-02 9.80392098e-03 3.26797366e-02 5.22875786e-02
      1.74291935e-02 8.71459674e-03 2.72331145e-02 1.96078420e-02
      6.53594732e-03 1.96078420e-02 2.72331145e-02 2.72331145e-02
      7.62527203e-03 9.80392098e-03 3.15904133e-02 1.74291935e-02
      2.94117648e-02 2.39651408e-02 7.62527203e-03 8.71459674e-03
      2.17864923e-02 2.39651408e-02 3.05010881e-02 9.80392098e-03
      9.80392098e-03 2.94117648e-02</_>
    <_>
      7.20720738e-02 0. 9.00900923e-03 9.00900923e-03 9.00900923e-03
      2.70270277e-02 1.80180185e-02 2.70270277e-02 2.70270277e-02
      9.00900923e-03 2.70270277e-02 1.80180185e-02 5.40540554e-02
      9.00900923e-03 0. 1.80180185e-02 2.70270277e-02 0. 0.
      1.80180185e-02 1.80180185e-02 2.70270277e-02 9.00900923e-03
      9.90990996e-02 0. 2.70270277e-02 9.00900923e-03 1.80180185e-02
      2.70270277e-02 4.50450480e-02 1.80180185e-02 2.70270277e-02 0.
      2.70270277e-02 0. 2.70270277e-02 1.80180185e-02 9.00900923e-03
      3.60360369e-02 2.70270277e-02 9.00900923e-03 1.80180185e-02
      9.00900923e-03 3.60360369e-02 5.40540554e-02 0. 1.80180185e-02
      9.00900923e-03 0. 0.</_>
    <_>
      2.85714306e-02 1.42857153e-02 2.61904765e-02 1.19047621e-02
      1.19047621e-02 5.71428612e-02 1.66666675e-02 1.66666675e-02
      2.38095243e-02 1.66666675e-02 3.33333351e-02 1.19047621e-02
      1.66666675e-02 1.42857153e-02 2.14285720e-02 1.90476198e-02
      1.42857153e-02 1.90476198e-02 2.61904765e-02 3.80952395e-02
      7.14285765e-03 7.14285765e-03 1.90476198e-02 5.47619052e-02
      7.14285765e-03 7.14285765e-03 7.14285765e-03 1.19047621e-02
      3.57142873e-02 1.42857153e-02 1.90476198e-02 1.19047621e-02
      1.90476198e-02 2.14285720e-02 2.38095243e-02 2.38095243e-02
      1.90476198e-02 2.85714306e-02 1.90476198e-02 2.38095243e-02
      3.09523828e-02 3.09523828e-02 9.52380989e-03 1.66666675e-02
      1.66666675e-02 3.80952395e-02 1.42857153e-02 1.19047621e-02
      4.76190494e-03 7.14285765e-03</_>
    <_>
      5.69620281e-02 1.89873427e-02 1.89873427e-02 1.89873427e-02
      1.89873427e-02 0. 1.26582282e-02 6.32911408e-03 0. 6.32911408e-03
      5.69620281e-02 1.26582282e-02 0. 1.26582282e-02 1.26582282e-02
      6.32911408e-03 2.53164563e-02 0. 1.89873427e-02 3.79746854e-02
      6.32911408e-03 6.32911408e-03 1.26582282e-02 2.53164563e-02
      6.32911408e-03 1.89873427e-02 1.89873427e-02 7.59493709e-02 0.
      6.32911408e-03 3.16455700e-02 3.16455700e-02 1.26582282e-02
      3.16455700e-02 1.89873427e-02 1.26582282e-02 6.32911408e-03
      5.69620281e-02 3.16455700e-02 1.26582282e-02 2.53164563e-02
      3.16455700e-02 2.53164563e-02 1.26582282e-02 5.06329127e-02
      2.53164563e-02 4.43037972e-02 0. 0. 1.89873427e-02</_>
    <_>
      2.29132567e-02 2.29132567e-02 1.63666122e-02 3.27332248e-03
      1.30932899e-02 3.92798707e-02 9.81996767e-03 1.80032738e-02
      2.45499182e-02 3.10965627e-02 3.92798707e-02 1.80032738e-02
      6.54664496e-03 9.81996767e-03 6.54664496e-03 6.54664496e-03
      1.80032738e-02 6.54664496e-03 2.12765969e-02 1.47299515e-02
      2.29132567e-02 2.78232414e-02 4.90998384e-03 6.38297871e-02
      1.80032738e-02 1.30932899e-02 2.78232414e-02 4.74631749e-02
      1.14566283e-02 8.18330608e-03 1.80032738e-02 2.78232414e-02
      2.61865798e-02 6.54664496e-03 1.63666122e-02 2.45499182e-02
      2.94599030e-02 1.96399353e-02 3.43698859e-02 1.80032738e-02
      2.78232414e-02 1.80032738e-02 2.61865798e-02 9.81996767e-03
      2.12765969e-02 1.63666122e-02 2.12765969e-02 3.27332248e-03
      8.18330608e-03 3.27332243e-02</_>
    <_>
      1.09890113e-02 1.64835174e-02 4.39560451e-02 5.49450563e-03
      3.29670347e-02 1.09890113e-02 2.74725277e-02 2.19780225e-02
      1.64835174e-02 1.09890113e-02 3.29670347e-02 2.74725277e-02
      5.49450563e-03 1.64835174e-02 1.64835174e-02 3.84615399e-02
      2.74725277e-02 5.49450563e-03 0. 1.09890113e-02 1.09890113e-02
      5.49450563e-03 2.74725277e-02 3.29670347e-02 1.09890113e-02
      2.74725277e-02 1.64835174e-02 2.19780225e-02 5.49450563e-03
      2.74725277e-02 2.19780225e-02 3.29670347e-02 2.19780225e-02
      2.74725277e-02 4.94505502e-02 1.09890113e-02 1.09890113e-02
      1.64835174e-02 2.19780225e-02 0. 1.09890113e-02 1.09890113e-02
      3.29670347e-02 3.29670347e-02 2.74725277e-02 2.74725277e-02
      3.29670347e-02 5.49450563e-03 1.64835174e-02 2.19780225e-02</_>
    <_>
      1.53846163e-02 1.53846163e-02 2.05128212e-02 5.12820529e-03
      2.05128212e-02 1.53846163e-02 2.56410260e-02 2.56410260e-02
      1.53846163e-02 5.12820529e-03 4.61538471e-02 2.56410260e-02
      1.53846163e-02 1.02564106e-02 1.02564106e-02 5.12820520e-02
      1.02564106e-02 5.12820529e-03 5.12820529e-03 1.53846163e-02
      5.12820529e-03 5.12820529e-03 1.53846163e-02 1.02564106e-02
      2.05128212e-02 3.58974375e-02 1.02564106e-02 1.53846163e-02
      1.53846163e-02 3.07692327e-02 2.05128212e-02 1.53846163e-02
      2.05128212e-02 3.07692327e-02 4.61538471e-02 1.53846163e-02
      1.53846163e-02 3.07692327e-02 3.58974375e-02 1.02564106e-02
      4.10256423e-02 2.05128212e-02 2.56410260e-02 2.56410260e-02
      2.56410260e-02 1.02564106e-02 2.56410260e-02 3.58974375e-02
      2.56410260e-02 0.</_>
    <_>
      3.79746854e-02 1.26582282e-02 6.32911399e-02 6.32911408e-03
      3.16455700e-02 1.89873427e-02 2.53164563e-02 2.53164563e-02
      1.89873427e-02 1.89873427e-02 2.53164563e-02 1.26582282e-02
      6.32911408e-03 0. 6.32911408e-03 3.16455700e-02 6.32911408e-03
      6.32911408e-03 0. 0. 1.89873427e-02 1.89873427e-02 5.06329127e-02
      0. 3.79746854e-02 1.26582282e-02 1.89873427e-02 6.32911408e-03 0.
      1.26582282e-02 3.79746854e-02 1.89873427e-02 6.32911408e-03
      1.26582282e-02 9.49367136e-02 3.16455700e-02 1.89873427e-02
      1.89873427e-02 1.89873427e-02 6.32911408e-03 5.06329127e-02 0.
      5.69620281e-02 0. 1.26582282e-02 1.26582282e-02 1.26582282e-02
      1.26582282e-02 2.53164563e-02 1.89873427e-02</_>
    <_>
      3.26797403e-02 6.53594779e-03 4.57516350e-02 6.53594779e-03
      2.61437912e-02 1.96078438e-02 2.61437912e-02 1.96078438e-02
      3.26797403e-02 6.53594779e-03 7.84313753e-02 3.26797403e-02
      1.30718956e-02 0. 6.53594779e-03 3.26797403e-02 0. 1.96078438e-02
      4.57516350e-02 0. 1.96078438e-02 1.30718956e-02 1.30718956e-02
      6.53594779e-03 2.61437912e-02 1.96078438e-02 2.61437912e-02
      2.61437912e-02 6.53594779e-03 1.30718956e-02 3.92156877e-02
      3.92156877e-02 1.96078438e-02 3.92156877e-02 6.53594807e-02
      6.53594779e-03 6.53594779e-03 6.53594779e-03 6.53594779e-03
      6.53594779e-03 1.96078438e-02 0. 6.53594779e-03 0. 6.53594779e-03
      4.57516350e-02 1.30718956e-02 1.30718956e-02 2.61437912e-02
      1.30718956e-02</_>
    <_>
      2.10084040e-02 8.40336177e-03 2.10084040e-02 4.20168089e-03
      2.10084040e-02 1.68067235e-02 2.52100863e-02 4.20168089e-03
      8.40336177e-03 4.62184884e-02 3.78151275e-02 5.46218529e-02
      1.26050431e-02 0. 2.94117667e-02 2.94117667e-02 8.40336177e-03
      1.26050431e-02 3.78151275e-02 8.40336177e-03 8.40336177e-03
      2.52100863e-02 2.10084040e-02 0. 1.26050431e-02 1.68067235e-02
      2.10084040e-02 1.26050431e-02 4.20168089e-03 8.40336177e-03
      2.94117667e-02 0. 2.52100863e-02 2.52100863e-02 5.88235334e-02
      5.88235334e-02 4.20168089e-03 2.52100863e-02 1.68067235e-02
      1.68067235e-02 3.78151275e-02 2.10084040e-02 1.26050431e-02
      2.10084040e-02 0. 2.10084040e-02 2.10084040e-02 8.40336177e-03
      1.26050431e-02 4.62184884e-02</_>
    <_>
      3.90625000e-02 2.96874996e-02 3.90625000e-02 1.40625006e-02
      2.50000004e-02 2.18749996e-02 7.81250000e-03 7.81250000e-03
      1.40625006e-02 2.18749996e-02 9.37500037e-03 1.40625006e-02
      3.12500005e-03 6.25000009e-03 1.09374998e-02 6.25000009e-03
      4.37499993e-02 1.25000002e-02 4.37499993e-02 2.96874996e-02
      1.25000002e-02 2.81250011e-02 1.40625006e-02 2.81250011e-02
      3.12500000e-02 1.25000002e-02 1.71875004e-02 1.25000002e-02
      1.40625006e-02 4.68750019e-03 1.25000002e-02 9.37500037e-03
      4.21875007e-02 1.40625006e-02 1.40625006e-02 1.09374998e-02
      1.09374998e-02 2.18749996e-02 2.18749996e-02 1.25000002e-02
      2.81250011e-02 3.90625000e-02 4.53125015e-02 9.37500037e-03
      4.06250022e-02 2.03125011e-02 1.56250000e-02 4.68750019e-03
      3.75000015e-02 1.40625006e-02</_>
    <_>
      7.29926974e-02 5.10948896e-02 7.29927002e-03 7.29927002e-03
      2.18978096e-02 7.29927002e-03 7.29927002e-03 7.29927002e-03
      2.18978096e-02 3.64963487e-02 4.37956192e-02 0. 7.29927002e-03
      7.29927002e-03 7.29927002e-03 2.91970801e-02 1.45985400e-02
      7.29927002e-03 0. 7.29927002e-03 1.45985400e-02 2.18978096e-02
      3.64963487e-02 5.10948896e-02 2.91970801e-02 3.64963487e-02
      2.91970801e-02 2.91970801e-02 0. 7.29927002e-03 2.91970801e-02
      2.91970801e-02 0. 1.45985400e-02 1.45985400e-02 2.91970801e-02
      7.29927002e-03 0. 2.91970801e-02 1.45985400e-02 4.37956192e-02
      7.29926974e-02 2.91970801e-02 1.45985400e-02 0. 0. 2.91970801e-02
      7.29927002e-03 1.45985400e-02 0.</_>
    <_>
      4.62287106e-02 2.91970801e-02 9.73236002e-03 1.94647200e-02
      3.16301696e-02 1.21654496e-02 4.86618001e-03 1.21654496e-02
      1.21654496e-02 1.70316305e-02 2.91970801e-02 1.94647200e-02
      2.43309001e-03 1.45985400e-02 9.73236002e-03 1.70316305e-02
      3.64963487e-02 2.43308991e-02 1.21654496e-02 2.43308991e-02
      1.70316305e-02 2.67639905e-02 1.70316305e-02 1.70316305e-02
      2.18978096e-02 1.70316305e-02 2.18978096e-02 4.37956192e-02
      1.45985400e-02 1.21654496e-02 2.91970801e-02 2.18978096e-02
      9.73236002e-03 1.70316305e-02 1.21654496e-02 1.45985400e-02
      1.21654496e-02 1.45985400e-02 3.64963487e-02 1.94647200e-02
      2.67639905e-02 1.94647200e-02 2.67639905e-02 7.29927002e-03
      5.10948896e-02 3.40632610e-02 1.94647200e-02 1.21654496e-02
      7.29927002e-03 1.45985400e-02</_>
    <_>
      3.89610380e-02 3.63636352e-02 5.19480510e-03 7.79220741e-03
      1.81818176e-02 2.59740259e-02 7.79220741e-03 0. 2.07792204e-02
      1.55844148e-02 6.23376593e-02 2.59740259e-02 5.19480510e-03
      5.19480510e-03 2.59740255e-03 1.03896102e-02 1.81818176e-02
      7.79220741e-03 7.79220741e-03 2.59740259e-02 1.03896102e-02
      1.81818176e-02 1.03896102e-02 4.93506491e-02 2.07792204e-02
      5.19480510e-03 3.89610380e-02 3.63636352e-02 2.07792204e-02
      2.33766232e-02 1.03896102e-02 4.93506491e-02 2.33766232e-02
      1.29870130e-02 1.03896102e-02 1.81818176e-02 5.19480510e-03
      1.29870130e-02 3.37662324e-02 2.59740259e-02 1.81818176e-02
      1.81818176e-02 1.29870130e-02 1.29870130e-02 3.37662324e-02
      1.55844148e-02 3.89610380e-02 1.29870130e-02 2.07792204e-02
      3.11688296e-02</_>
    <_>
      0. 0. 4.96453866e-02 2.12765951e-02 2.12765951e-02 7.09219836e-03
      2.12765951e-02 7.09219836e-03 2.83687934e-02 0. 7.80141801e-02
      2.83687934e-02 1.41843967e-02 0. 3.54609936e-02 2.83687934e-02
      7.09219836e-03 4.25531901e-02 2.12765951e-02 2.12765951e-02 0.
      2.12765951e-02 2.83687934e-02 3.54609936e-02 2.12765951e-02
      4.96453866e-02 0. 0. 7.09219836e-03 4.25531901e-02 4.25531901e-02
      2.83687934e-02 0. 2.12765951e-02 5.67375869e-02 2.83687934e-02
      1.41843967e-02 0. 0. 0. 1.41843967e-02 1.41843967e-02
      7.09219836e-03 2.12765951e-02 0. 5.67375869e-02 0. 2.12765951e-02
      2.83687934e-02 7.09219836e-03</_>
    <_>
      3.38345878e-02 1.12781953e-02 3.00751887e-02 1.87969934e-02
      7.51879718e-03 2.25563906e-02 1.50375944e-02 2.25563906e-02
      3.38345878e-02 1.50375944e-02 6.76691756e-02 3.38345878e-02
      1.50375944e-02 1.87969934e-02 2.63157897e-02 2.25563906e-02 0.
      3.00751887e-02 5.26315793e-02 1.50375944e-02 0. 1.87969934e-02
      2.25563906e-02 7.51879718e-03 1.50375944e-02 3.00751887e-02
      1.12781953e-02 7.51879718e-03 1.50375944e-02 4.13533859e-02
      2.25563906e-02 1.12781953e-02 4.13533859e-02 1.12781953e-02
      3.00751887e-02 2.63157897e-02 1.50375944e-02 1.50375944e-02
      7.51879718e-03 1.50375944e-02 1.12781953e-02 7.51879718e-03
      7.51879718e-03 1.87969934e-02 7.51879718e-03 2.25563906e-02
      1.50375944e-02 3.00751887e-02 1.12781953e-02 1.12781953e-02</_>
    <_>
      2.33463030e-02 1.42671857e-02 2.59403372e-03 1.42671857e-02
      2.46433206e-02 6.48508407e-03 9.07911826e-03 3.89105058e-03
      2.59403363e-02 5.05836569e-02 9.07911826e-03 2.59403363e-02
      1.29701686e-03 7.78210117e-03 2.07522698e-02 1.29701681e-02
      1.55642023e-02 1.55642023e-02 1.81582365e-02 2.46433206e-02
      2.85343714e-02 3.63164730e-02 2.33463030e-02 2.98313871e-02
      4.15045395e-02 1.94552522e-02 2.72373538e-02 2.72373538e-02
      1.29701681e-02 2.33463030e-02 2.72373538e-02 7.78210117e-03
      1.03761349e-02 2.72373538e-02 7.78210117e-03 5.70687428e-02
      1.29701686e-03 9.07911826e-03 2.85343714e-02 1.94552522e-02
      2.20492873e-02 2.59403363e-02 9.07911826e-03 2.59403363e-02
      1.16731515e-02 2.59403363e-02 2.98313871e-02 2.59403372e-03
      7.78210117e-03 4.66926061e-02</_>
    <_>
      2.22222228e-02 1.11111114e-02 2.77777780e-02 5.55555569e-03
      1.11111114e-02 5.55555569e-03 1.66666675e-02 0. 1.66666675e-02
      2.22222228e-02 7.77777806e-02 5.55555560e-02 0. 0. 1.11111114e-02
      5.55555569e-03 2.22222228e-02 1.11111114e-02 1.11111114e-02
      4.44444455e-02 2.22222228e-02 3.33333351e-02 3.33333351e-02
      2.22222228e-02 3.88888903e-02 1.11111114e-02 2.77777780e-02
      5.55555560e-02 2.22222228e-02 1.11111114e-02 2.22222228e-02
      3.88888903e-02 1.11111114e-02 1.66666675e-02 3.33333351e-02
      1.66666675e-02 0. 0. 1.11111114e-02 0. 1.66666675e-02
      2.77777780e-02 4.44444455e-02 1.66666675e-02 5.55555569e-03
      1.11111114e-02 2.22222228e-02 1.11111114e-02 1.11111114e-02
      2.77777780e-02</_>
    <_>
      8.68725851e-02 1.54440152e-02 1.54440152e-02 1.15830116e-02
      1.35135129e-02 1.15830116e-02 1.54440152e-02 3.86100379e-03
      2.31660232e-02 1.54440152e-02 3.66795361e-02 2.70270258e-02
      1.15830116e-02 7.72200758e-03 9.65250935e-03 9.65250935e-03
      3.08880303e-02 1.15830116e-02 4.05405387e-02 3.86100374e-02
      7.72200758e-03 2.50965245e-02 1.15830116e-02 2.70270258e-02
      1.15830116e-02 1.35135129e-02 1.15830116e-02 3.08880303e-02
      1.73745174e-02 9.65250935e-03 1.54440152e-02 1.54440152e-02
      3.28185335e-02 7.72200758e-03 1.93050187e-02 1.54440152e-02
      5.79150580e-03 2.70270258e-02 3.28185335e-02 1.93050187e-02
      1.93050187e-02 2.70270258e-02 3.08880303e-02 9.65250935e-03
      4.44015451e-02 2.12355200e-02 2.89575290e-02 1.93050189e-03
      7.72200758e-03 1.54440152e-02</_>
    <_>
      7.14285746e-02 3.17460336e-02 7.14285746e-02 3.96825410e-02
      2.38095261e-02 1.58730168e-02 0. 1.58730168e-02 3.17460336e-02
      7.93650839e-03 2.38095261e-02 0. 7.93650839e-03 7.93650839e-03
      1.58730168e-02 7.93650839e-03 1.58730168e-02 7.93650839e-03
      7.93650839e-03 1.58730168e-02 0. 7.93650839e-03 3.17460336e-02 0.
      2.38095261e-02 3.17460336e-02 7.93650839e-03 2.38095261e-02
      2.38095261e-02 7.93650839e-03 3.17460336e-02 7.93650839e-03
      7.93650839e-03 3.96825410e-02 5.55555597e-02 3.96825410e-02
      1.58730168e-02 1.58730168e-02 1.58730168e-02 2.38095261e-02
      7.93650839e-03 3.17460336e-02 7.93650839e-03 1.58730168e-02
      1.58730168e-02 3.17460336e-02 2.38095261e-02 7.93650839e-03
      2.38095261e-02 0.</_>
    <_>
      5.33333346e-02 0. 6.66666683e-03 0. 0. 4.66666669e-02
      2.66666673e-02 6.66666683e-03 6.66666683e-03 3.33333351e-02
      6.00000024e-02 1.99999996e-02 6.66666683e-03 0. 6.66666683e-03
      6.66666683e-03 0. 0. 2.66666673e-02 1.33333337e-02 6.66666683e-03
      2.66666673e-02 3.33333351e-02 3.33333351e-02 3.99999991e-02
      1.33333337e-02 2.66666673e-02 1.99999996e-02 0. 1.33333337e-02
      3.33333351e-02 6.66666701e-02 6.66666683e-03 6.66666683e-03
      3.33333351e-02 1.99999996e-02 1.33333337e-02 6.66666683e-03
      2.66666673e-02 6.66666683e-03 2.66666673e-02 3.99999991e-02 0.
      2.66666673e-02 2.66666673e-02 2.66666673e-02 5.33333346e-02
      1.99999996e-02 2.66666673e-02 0.</_>
    <_>
      1.55172413e-02 1.55172413e-02 2.93103456e-02 1.37931034e-02
      1.37931034e-02 1.72413792e-02 3.96551713e-02 3.44827585e-03
      1.72413792e-02 3.44827585e-02 1.89655162e-02 3.10344826e-02
      1.72413792e-03 3.44827585e-03 8.62068962e-03 2.24137940e-02
      1.37931034e-02 8.62068962e-03 3.44827585e-03 2.24137940e-02
      5.00000007e-02 4.82758619e-02 4.31034490e-02 2.58620679e-02
      3.96551713e-02 1.55172413e-02 2.93103456e-02 2.24137940e-02
      1.03448275e-02 1.37931034e-02 1.03448275e-02 3.27586196e-02
      3.44827585e-03 1.20689655e-02 3.27586196e-02 1.55172413e-02
      1.03448275e-02 1.03448275e-02 1.89655162e-02 6.89655170e-03
      2.93103456e-02 2.75862068e-02 1.55172413e-02 1.20689655e-02
      1.37931034e-02 1.72413792e-02 2.24137940e-02 5.17241377e-03
      2.41379309e-02 4.65517230e-02</_>
    <_>
      4.57142852e-02 1.42857144e-02 1.14285713e-02 1.14285713e-02
      1.99999996e-02 1.42857144e-02 1.71428565e-02 2.85714283e-03
      2.85714287e-02 1.42857144e-02 1.99999996e-02 1.42857144e-02 0.
      2.57142857e-02 1.14285713e-02 8.57142825e-03 1.14285713e-02
      8.57142825e-03 4.57142852e-02 3.71428579e-02 1.42857144e-02
      1.99999996e-02 1.42857144e-02 4.85714264e-02 2.57142857e-02
      1.42857144e-02 2.28571426e-02 1.99999996e-02 1.14285713e-02
      2.85714283e-03 1.71428565e-02 1.14285713e-02 4.57142852e-02
      5.71428565e-03 2.57142857e-02 8.57142825e-03 8.57142825e-03
      4.57142852e-02 3.99999991e-02 1.42857144e-02 3.14285718e-02
      2.28571426e-02 1.42857144e-02 8.57142825e-03 2.28571426e-02
      2.85714287e-02 3.14285718e-02 2.85714283e-03 2.57142857e-02
      3.14285718e-02</_>
    <_>
      4.82180268e-02 3.98322828e-02 3.77358496e-02 1.25786159e-02
      2.30607949e-02 2.09643599e-02 1.88679248e-02 4.19287197e-03
      1.67714879e-02 1.46750519e-02 4.19287197e-02 6.28930796e-03
      4.19287197e-03 1.67714879e-02 1.04821799e-02 1.25786159e-02
      2.72536688e-02 1.25786159e-02 1.25786159e-02 2.30607949e-02
      2.72536688e-02 2.51572318e-02 1.67714879e-02 2.09643599e-02
      3.14465389e-02 4.19287197e-03 2.93501038e-02 3.98322828e-02
      1.46750519e-02 1.04821799e-02 1.25786159e-02 1.88679248e-02
      1.04821799e-02 8.38574395e-03 8.38574395e-03 4.19287197e-03
      6.28930796e-03 6.07966445e-02 2.51572318e-02 1.46750519e-02
      2.30607949e-02 2.30607949e-02 4.19287197e-02 1.25786159e-02
      4.82180268e-02 1.25786159e-02 2.09643599e-02 4.19287197e-03
      6.28930796e-03 1.25786159e-02</_>
    <_>
      3.36749628e-02 3.22108343e-02 1.61054172e-02 1.90336742e-02
      1.17130307e-02 2.48901900e-02 2.04978045e-02 1.17130307e-02
      1.02489023e-02 3.36749628e-02 2.78184488e-02 7.32064433e-03
      2.92825769e-03 1.75695457e-02 1.61054172e-02 5.85651537e-03
      3.80673483e-02 1.46412887e-02 1.61054172e-02 1.31771592e-02
      3.07467058e-02 3.07467058e-02 1.90336742e-02 2.04978045e-02
      2.34260615e-02 1.75695457e-02 3.07467058e-02 1.75695457e-02
      1.90336742e-02 4.39238641e-03 1.46412887e-02 2.34260615e-02
      2.04978045e-02 1.90336742e-02 3.36749628e-02 2.78184488e-02
      8.78477283e-03 2.48901900e-02 2.48901900e-02 1.75695457e-02
      1.61054172e-02 1.46412887e-02 2.19619330e-02 1.17130307e-02
      2.34260615e-02 2.34260615e-02 2.34260615e-02 7.32064433e-03
      3.51390913e-02 2.04978045e-02</_>
    <_>
      2.41758246e-02 2.19780225e-02 1.53846163e-02 2.85714306e-02
      1.53846163e-02 2.41758246e-02 2.85714306e-02 1.53846163e-02
      1.75824184e-02 4.39560460e-03 3.73626389e-02 2.63736285e-02
      1.97802205e-02 2.19780225e-02 1.53846163e-02 3.29670347e-02
      1.31868143e-02 6.59340713e-03 1.31868143e-02 2.19780225e-02
      2.85714306e-02 1.53846163e-02 1.97802205e-02 1.53846163e-02
      3.07692327e-02 1.97802205e-02 1.97802205e-02 3.29670347e-02
      1.97802205e-02 2.63736285e-02 2.41758246e-02 1.97802205e-02
      1.09890113e-02 1.31868143e-02 1.53846163e-02 1.31868143e-02
      2.19780225e-02 2.85714306e-02 2.19780225e-02 2.19780225e-02
      1.75824184e-02 2.85714306e-02 3.07692327e-02 2.19780225e-02
      1.09890113e-02 3.51648368e-02 1.53846163e-02 2.19780230e-03
      6.59340713e-03 6.59340713e-03</_>
    <_>
      8.00000038e-03 2.40000002e-02 3.20000015e-02 3.20000015e-02
      2.40000002e-02 8.00000038e-03 8.00000038e-03 1.60000008e-02
      1.60000008e-02 5.60000017e-02 3.20000015e-02 4.00000028e-02
      8.00000038e-03 0. 1.60000008e-02 8.00000038e-03 0. 0.
      8.00000038e-03 8.00000038e-03 0. 2.40000002e-02 3.20000015e-02
      8.00000038e-03 1.60000008e-02 4.00000028e-02 8.00000038e-03
      1.60000008e-02 8.00000038e-03 1.60000008e-02 4.80000004e-02
      3.20000015e-02 1.60000008e-02 0. 8.00000038e-03 8.80000070e-02
      8.00000038e-03 8.00000038e-03 1.60000008e-02 3.20000015e-02
      2.40000002e-02 3.20000015e-02 8.00000038e-03 4.00000028e-02
      1.60000008e-02 1.60000008e-02 1.60000008e-02 1.60000008e-02
      2.40000002e-02 4.00000028e-02</_>
    <_>
      2.56410260e-02 1.46520147e-02 1.09890113e-02 7.32600736e-03
      1.09890113e-02 1.46520147e-02 1.83150191e-02 2.93040294e-02
      3.66300382e-02 1.83150191e-02 4.39560451e-02 1.83150191e-02
      7.32600736e-03 0. 2.19780225e-02 1.46520147e-02 7.32600736e-03
      2.19780225e-02 3.66300368e-03 1.83150191e-02 2.19780225e-02
      3.29670347e-02 1.46520147e-02 1.09890113e-02 1.46520147e-02
      2.19780225e-02 3.66300368e-03 2.19780225e-02 2.56410260e-02
      5.12820520e-02 3.29670347e-02 2.19780225e-02 3.29670347e-02
      2.19780225e-02 7.32600736e-03 4.76190485e-02 3.66300368e-03
      2.56410260e-02 2.19780225e-02 3.29670347e-02 2.19780225e-02
      1.83150191e-02 2.19780225e-02 1.83150191e-02 2.56410260e-02
      2.56410260e-02 3.66300368e-03 1.46520147e-02 2.56410260e-02
      1.09890113e-02</_>
    <_>
      4.21686731e-02 4.81927693e-02 3.01204808e-02 1.80722885e-02
      1.20481923e-02 6.02409616e-03 1.80722885e-02 1.20481923e-02
      2.40963846e-02 1.20481923e-02 2.40963846e-02 2.40963846e-02
      1.80722885e-02 6.02409616e-03 6.02409616e-03 3.01204808e-02
      2.40963846e-02 1.20481923e-02 0. 1.80722885e-02 3.01204808e-02
      1.20481923e-02 2.40963846e-02 1.80722885e-02 4.81927693e-02
      1.20481923e-02 1.80722885e-02 6.02409616e-03 3.01204808e-02
      1.20481923e-02 6.02409616e-03 6.02409616e-02 3.61445770e-02
      6.02409616e-03 6.02409616e-02 1.20481923e-02 1.80722885e-02
      6.02409616e-03 1.80722885e-02 6.02409616e-03 3.01204808e-02
      3.61445770e-02 2.40963846e-02 0. 1.20481923e-02 1.80722885e-02
      2.40963846e-02 1.20481923e-02 0. 1.80722885e-02</_>
    <_>
      5.69105670e-02 4.06504050e-02 2.43902430e-02 1.21951215e-02
      4.06504050e-03 3.65853645e-02 1.21951215e-02 0. 8.13008100e-03
      1.62601620e-02 6.91056848e-02 4.06504050e-03 8.13008100e-03
      1.21951215e-02 1.62601620e-02 1.62601620e-02 1.62601620e-02
      2.43902430e-02 8.13008100e-03 1.21951215e-02 1.62601620e-02
      2.43902430e-02 2.03252025e-02 2.43902430e-02 1.62601620e-02
      2.03252025e-02 2.84552835e-02 6.91056848e-02 8.13008100e-03
      2.03252025e-02 1.62601620e-02 2.84552835e-02 4.06504050e-03
      8.13008100e-03 2.03252025e-02 1.21951215e-02 1.21951215e-02
      1.62601620e-02 2.84552835e-02 2.43902430e-02 1.62601620e-02
      2.03252025e-02 2.43902430e-02 2.03252025e-02 4.87804860e-02
      4.06504050e-03 2.84552835e-02 4.06504050e-03 4.06504050e-03
      1.21951215e-02</_>
    <_>
      2.56410260e-02 2.56410260e-02 5.41310534e-02 1.99430194e-02
      5.69800567e-03 1.13960113e-02 1.99430194e-02 1.99430194e-02
      1.13960113e-02 1.13960113e-02 2.27920227e-02 1.70940161e-02
      2.56410260e-02 3.13390307e-02 1.99430194e-02 1.42450146e-02
      3.41880322e-02 8.54700804e-03 1.13960113e-02 2.56410260e-02
      1.99430194e-02 1.13960113e-02 1.42450146e-02 1.42450146e-02
      1.13960113e-02 1.13960113e-02 2.56410260e-02 2.27920227e-02
      2.27920227e-02 1.70940161e-02 2.27920227e-02 1.70940161e-02
      3.41880322e-02 1.99430194e-02 4.27350439e-02 0. 1.99430194e-02
      4.27350439e-02 2.27920227e-02 1.99430194e-02 1.70940161e-02
      1.13960113e-02 3.13390307e-02 1.70940161e-02 3.13390307e-02
      1.70940161e-02 1.13960113e-02 1.13960113e-02 1.42450146e-02
      8.54700804e-03</_>
    <_>
      7.26643652e-02 6.92041544e-03 2.42214538e-02 1.38408309e-02
      2.07612459e-02 1.38408309e-02 1.73010379e-02 3.46020772e-03
      1.03806229e-02 1.38408309e-02 8.99654031e-02 2.76816618e-02
      3.46020772e-03 2.42214538e-02 1.73010379e-02 1.03806229e-02
      1.73010379e-02 1.38408309e-02 2.42214538e-02 2.76816618e-02
      1.73010379e-02 1.38408309e-02 1.73010379e-02 4.15224917e-02
      3.80622856e-02 3.46020758e-02 2.07612459e-02 3.11418697e-02
      1.38408309e-02 1.03806229e-02 2.07612459e-02 2.42214538e-02
      6.92041544e-03 1.03806229e-02 1.73010379e-02 0. 6.92041544e-03
      2.76816618e-02 2.07612459e-02 6.92041544e-03 1.38408309e-02
      2.76816618e-02 2.07612459e-02 1.38408309e-02 1.03806229e-02
      2.42214538e-02 2.42214538e-02 1.03806229e-02 6.92041544e-03
      1.38408309e-02</_>
    <_>
      4.92227972e-02 1.81347150e-02 2.07253881e-02 3.36787552e-02
      1.03626940e-02 2.07253881e-02 1.81347150e-02 1.81347150e-02
      1.55440411e-02 1.55440411e-02 7.77202025e-02 2.84974091e-02
      2.84974091e-02 2.84974091e-02 1.55440411e-02 7.77202053e-03
      2.33160611e-02 5.18134702e-03 2.59067351e-03 2.33160611e-02
      3.62694301e-02 7.77202053e-03 1.29533671e-02 3.88601013e-02
      1.03626940e-02 3.36787552e-02 2.33160611e-02 1.03626940e-02
      3.62694301e-02 1.29533671e-02 1.55440411e-02 4.14507762e-02
      2.07253881e-02 1.55440411e-02 2.84974091e-02 1.29533671e-02
      3.36787552e-02 2.59067351e-03 2.59067342e-02 2.59067351e-03
      1.29533671e-02 1.81347150e-02 1.03626940e-02 1.55440411e-02
      5.18134702e-03 7.77202053e-03 1.55440411e-02 7.77202053e-03
      2.59067351e-03 2.07253881e-02</_>
    <_>
      4.06091362e-02 2.53807101e-02 5.07614203e-02 2.03045681e-02
      1.52284261e-02 3.04568522e-02 5.07614203e-03 0. 3.55329961e-02
      2.03045681e-02 3.55329961e-02 2.03045681e-02 0. 0. 1.52284261e-02
      2.03045681e-02 5.07614203e-03 5.07614203e-03 1.52284261e-02
      1.01522841e-02 1.52284261e-02 1.01522841e-02 1.52284261e-02
      3.55329961e-02 2.03045681e-02 5.07614203e-03 1.52284261e-02
      4.56852764e-02 1.52284261e-02 1.01522841e-02 2.03045681e-02
      2.03045681e-02 3.04568522e-02 2.53807101e-02 3.55329961e-02
      1.52284261e-02 1.52284261e-02 2.53807101e-02 5.07614203e-03
      2.53807101e-02 1.52284261e-02 3.04568522e-02 1.52284261e-02
      1.01522841e-02 2.53807101e-02 3.04568522e-02 3.04568522e-02 0.
      4.06091362e-02 2.53807101e-02</_>
    <_>
      3.67346928e-02 2.85714269e-02 3.26530598e-02 1.63265299e-02
      2.85714269e-02 0. 0. 4.08163248e-03 8.16326495e-03 4.48979586e-02
      7.34693855e-02 1.22448970e-02 0. 4.08163248e-03 2.04081628e-02
      2.04081628e-02 3.26530598e-02 3.67346928e-02 2.44897939e-02
      2.44897939e-02 1.22448970e-02 1.63265299e-02 1.22448970e-02
      1.22448970e-02 2.04081628e-02 1.22448970e-02 4.08163248e-03
      4.08163257e-02 1.22448970e-02 1.63265299e-02 2.04081628e-02
      2.44897939e-02 2.44897939e-02 3.67346928e-02 3.26530598e-02
      3.26530598e-02 0. 1.63265299e-02 2.85714269e-02 0. 1.22448970e-02
      1.63265299e-02 3.26530598e-02 4.08163248e-03 2.04081628e-02 0.
      3.26530598e-02 8.16326495e-03 2.04081628e-02 2.85714269e-02</_>
    <_>
      1.24223605e-02 6.21118024e-03 3.10559012e-02 6.21118024e-03
      3.10559012e-02 6.21118024e-03 3.10559012e-02 1.24223605e-02
      1.86335407e-02 1.86335407e-02 2.48447210e-02 1.24223605e-02
      6.21118024e-03 2.48447210e-02 6.21118024e-03 2.48447210e-02
      1.86335407e-02 6.21118024e-03 3.72670814e-02 0. 6.21118024e-03
      3.72670814e-02 3.72670814e-02 1.86335407e-02 2.48447210e-02
      3.72670814e-02 1.86335407e-02 1.86335407e-02 0. 1.86335407e-02
      2.48447210e-02 3.72670814e-02 3.72670814e-02 2.48447210e-02
      3.10559012e-02 6.21118024e-03 1.24223605e-02 4.96894419e-02
      6.21118024e-03 0. 1.86335407e-02 2.48447210e-02 1.86335407e-02
      1.86335407e-02 1.86335407e-02 3.72670814e-02 1.86335407e-02
      1.86335407e-02 3.10559012e-02 1.24223605e-02</_>
    <_>
      2.78745648e-02 2.09059231e-02 1.04529615e-02 2.43902449e-02
      1.39372824e-02 1.74216032e-02 2.26480830e-02 6.96864119e-03
      1.39372824e-02 1.91637632e-02 3.65853645e-02 1.56794433e-02
      1.04529615e-02 1.04529615e-02 8.71080160e-03 1.04529615e-02
      2.09059231e-02 1.74216032e-02 1.21951224e-02 3.48432064e-02
      2.09059231e-02 2.96167247e-02 2.78745648e-02 2.43902449e-02
      2.09059231e-02 8.71080160e-03 2.61324048e-02 1.91637632e-02
      2.09059231e-02 1.04529615e-02 1.91637632e-02 3.13588865e-02
      2.26480830e-02 1.56794433e-02 1.56794433e-02 2.78745648e-02
      1.91637632e-02 2.09059231e-02 2.96167247e-02 2.26480830e-02
      2.26480830e-02 3.31010446e-02 2.43902449e-02 1.56794433e-02
      2.43902449e-02 2.43902449e-02 2.96167247e-02 5.22648077e-03
      1.74216032e-02 1.39372824e-02</_>
    <_>
      0. 1.57894753e-02 2.10526325e-02 1.57894753e-02 3.15789506e-02
      5.26315812e-03 3.68421078e-02 1.57894753e-02 2.10526325e-02
      3.15789506e-02 2.10526325e-02 0. 0. 5.26315812e-03 5.26315812e-03
      2.63157897e-02 1.57894753e-02 3.15789506e-02 0. 2.10526325e-02
      5.26315812e-03 4.73684222e-02 5.26315793e-02 1.57894753e-02
      2.63157897e-02 1.05263162e-02 4.73684222e-02 4.21052650e-02
      2.10526325e-02 3.15789506e-02 2.63157897e-02 5.26315793e-02 0.
      5.26315812e-03 4.73684222e-02 3.68421078e-02 1.57894753e-02
      5.26315812e-03 1.05263162e-02 2.10526325e-02 3.15789506e-02
      2.63157897e-02 2.63157897e-02 1.05263162e-02 1.05263162e-02
      3.68421078e-02 5.26315812e-03 5.26315812e-03 5.26315812e-03 0.</_>
    <_>
      2.20000017e-02 4.00000019e-03 1.80000011e-02 2.00000014e-02
      8.00000038e-03 4.00000028e-02 1.60000008e-02 1.00000007e-02
      3.00000012e-02 2.60000005e-02 7.40000010e-02 2.00000014e-02
      1.60000008e-02 3.20000015e-02 1.00000007e-02 1.40000004e-02
      3.60000022e-02 1.60000008e-02 2.20000017e-02 2.00000014e-02
      1.20000001e-02 1.40000004e-02 3.00000012e-02 1.60000008e-02
      1.60000008e-02 1.00000007e-02 2.00000014e-02 1.00000007e-02
      2.60000005e-02 2.00000014e-02 2.20000017e-02 8.00000038e-03
      3.40000018e-02 8.00000038e-03 3.20000015e-02 1.20000001e-02
      6.00000005e-03 1.20000001e-02 2.20000017e-02 3.00000012e-02
      2.60000005e-02 1.80000011e-02 2.40000002e-02 2.00000014e-02
      1.80000011e-02 1.60000008e-02 1.80000011e-02 1.00000007e-02
      1.00000007e-02 2.60000005e-02</_>
    <_>
      2.17391290e-02 1.73913036e-02 1.73913036e-02 0. 1.73913036e-02
      3.91304344e-02 1.30434781e-02 1.30434781e-02 1.73913036e-02
      4.78260852e-02 7.39130378e-02 2.17391290e-02 0. 0. 2.60869563e-02
      8.69565178e-03 0. 8.69565178e-03 2.17391290e-02 2.60869563e-02
      2.60869563e-02 1.73913036e-02 1.73913036e-02 8.69565178e-03
      4.78260852e-02 8.69565178e-03 1.30434781e-02 2.17391290e-02
      1.73913036e-02 2.17391290e-02 1.30434781e-02 3.47826071e-02
      4.34782589e-03 3.04347817e-02 6.08695634e-02 4.34782580e-02
      1.30434781e-02 0. 3.04347817e-02 1.73913036e-02 2.60869563e-02
      1.30434781e-02 8.69565178e-03 2.17391290e-02 4.34782589e-03
      2.60869563e-02 1.73913036e-02 8.69565178e-03 4.34782589e-03
      3.04347817e-02</_>
    <_>
      3.33333351e-02 0. 3.33333351e-02 6.66666683e-03 6.66666683e-03
      6.66666683e-03 3.99999991e-02 6.66666683e-03 1.33333337e-02
      1.33333337e-02 8.66666660e-02 1.33333337e-02 6.66666683e-03
      6.66666683e-03 2.66666673e-02 1.33333337e-02 0. 6.66666683e-03
      3.33333351e-02 1.33333337e-02 6.66666683e-03 3.33333351e-02
      3.33333351e-02 1.33333337e-02 2.66666673e-02 1.99999996e-02
      1.33333337e-02 2.66666673e-02 1.33333337e-02 1.33333337e-02
      3.33333351e-02 1.33333337e-02 2.66666673e-02 6.66666683e-03
      3.99999991e-02 2.66666673e-02 1.33333337e-02 1.33333337e-02
      4.66666669e-02 0. 3.33333351e-02 1.99999996e-02 1.33333337e-02 0.
      6.66666683e-03 3.33333351e-02 4.66666669e-02 1.99999996e-02
      1.33333337e-02 2.66666673e-02</_>
    <_>
      4.95049506e-02 9.90098994e-03 4.95049506e-02 0. 1.98019799e-02 0.
      1.98019799e-02 9.90098994e-03 4.95049506e-02 0. 1.98019799e-02
      2.97029689e-02 1.98019799e-02 0. 0. 9.90098994e-03 2.97029689e-02
      0. 0. 2.97029689e-02 0. 9.90098994e-03 2.97029689e-02
      7.92079195e-02 9.90098994e-03 1.98019799e-02 1.98019799e-02
      9.90098994e-03 9.90098994e-03 2.97029689e-02 2.97029689e-02
      1.98019799e-02 9.90098994e-03 1.98019799e-02 5.94059378e-02
      9.90098994e-03 3.96039598e-02 0. 1.98019799e-02 0. 5.94059378e-02
      9.90098994e-03 3.96039598e-02 9.90098994e-03 6.93069324e-02
      2.97029689e-02 0. 0. 9.90098994e-03 0.</_>
    <_>
      1.94805190e-02 1.29870130e-02 3.89610380e-02 1.29870130e-02
      6.49350649e-03 1.29870130e-02 1.94805190e-02 6.49350649e-03
      2.59740259e-02 2.59740259e-02 5.84415570e-02 3.24675329e-02
      6.49350649e-03 0. 1.29870130e-02 2.59740259e-02 0. 6.49350649e-03
      3.89610380e-02 1.29870130e-02 1.94805190e-02 7.14285746e-02 0. 0.
      1.29870130e-02 2.59740259e-02 3.24675329e-02 9.74025950e-02
      1.29870130e-02 1.94805190e-02 3.24675329e-02 3.24675329e-02
      2.59740259e-02 0. 3.89610380e-02 2.59740259e-02 6.49350649e-03
      6.49350649e-03 6.49350649e-03 6.49350649e-03 2.59740259e-02
      6.49350649e-03 6.49350649e-03 3.24675329e-02 0. 3.89610380e-02
      2.59740259e-02 1.29870130e-02 0. 0.</_>
    <_>
      2.75862068e-02 4.13793102e-02 3.44827585e-02 6.89655170e-03
      6.89655170e-03 3.44827585e-02 3.44827585e-02 1.37931034e-02 0.
      2.06896551e-02 6.20689653e-02 1.37931034e-02 6.89655170e-03
      1.37931034e-02 2.75862068e-02 1.37931034e-02 0. 1.37931034e-02
      6.89655170e-03 6.89655170e-03 0. 3.44827585e-02 6.89655170e-03
      3.44827585e-02 2.75862068e-02 2.75862068e-02 4.13793102e-02
      1.37931034e-02 2.06896551e-02 2.75862068e-02 4.82758619e-02
      2.75862068e-02 1.37931034e-02 1.37931034e-02 3.44827585e-02
      6.89655170e-03 2.06896551e-02 6.89655170e-03 6.89655170e-03
      2.75862068e-02 2.06896551e-02 2.75862068e-02 0. 2.75862068e-02
      2.06896551e-02 2.75862068e-02 1.37931034e-02 2.06896551e-02 0.
      1.37931034e-02</_>
    <_>
      1.42857144e-02 7.14285718e-03 3.57142873e-02 2.85714287e-02
      1.42857144e-02 2.85714287e-02 7.14285718e-03 7.14285718e-03
      1.42857144e-02 3.57142873e-02 5.71428575e-02 1.42857144e-02 0.
      7.14285718e-03 2.14285720e-02 6.42857179e-02 0. 7.14285718e-03
      7.14285718e-03 0. 2.14285720e-02 4.28571440e-02 2.14285720e-02
      7.14285718e-03 2.14285720e-02 1.42857144e-02 2.14285720e-02
      3.57142873e-02 0. 2.14285720e-02 2.14285720e-02 7.14285718e-03
      1.42857144e-02 3.57142873e-02 5.71428575e-02 3.57142873e-02 0. 0.
      2.14285720e-02 1.42857144e-02 2.14285720e-02 2.14285720e-02
      2.14285720e-02 2.85714287e-02 0. 4.28571440e-02 1.42857144e-02
      2.14285720e-02 2.85714287e-02 1.42857144e-02</_>
    <_>
      0. 6.06060587e-03 4.84848469e-02 1.81818176e-02 3.63636352e-02
      2.42424235e-02 3.03030293e-02 6.06060587e-03 1.81818176e-02
      2.42424235e-02 4.24242392e-02 3.03030293e-02 1.21212117e-02 0.
      2.42424235e-02 4.24242392e-02 2.42424235e-02 6.06060587e-03
      6.06060587e-03 1.81818176e-02 3.03030293e-02 2.42424235e-02
      2.42424235e-02 4.24242392e-02 1.21212117e-02 5.45454547e-02
      2.42424235e-02 1.21212117e-02 6.06060587e-03 2.42424235e-02
      1.81818176e-02 2.42424235e-02 6.06060587e-03 6.06060587e-03
      4.24242392e-02 3.03030293e-02 3.03030293e-02 1.21212117e-02
      1.21212117e-02 6.06060587e-03 1.21212117e-02 6.06060587e-03
      2.42424235e-02 0. 1.21212117e-02 1.21212117e-02 1.81818176e-02
      6.06060587e-03 1.81818176e-02 3.03030293e-02</_>
    <_>
      3.72670814e-02 2.48447210e-02 6.21118024e-03 6.21118024e-03
      1.24223605e-02 1.86335407e-02 3.10559012e-02 1.24223605e-02
      1.86335407e-02 6.21118024e-03 1.24223605e-02 3.72670814e-02
      1.86335407e-02 0. 1.24223605e-02 1.86335407e-02 0. 1.24223605e-02
      3.10559012e-02 0. 6.21118024e-03 1.24223605e-02 1.86335407e-02
      5.59006222e-02 3.10559012e-02 3.10559012e-02 6.21118024e-03
      1.24223605e-02 1.24223605e-02 6.21118024e-03 2.48447210e-02
