<?xml version="1.0"?>
<opencv_storage>
<opencv_ml_svm>
  <format>3</format>
  <svmType>C_SVC</svmType>
  <kernel>
    <type>RBF</type>
    <gamma>3.3750000000000002e-02</gamma></kernel>
  <C>3.1250000000000000e+02</C>
  <term_criteria><epsilon>1.1920928955078125e-07</epsilon>
    <iterations>1000</iterations></term_criteria>
  <var_count>50</var_count>
  <class_count>2</class_count>
  <class_labels type_id="opencv-matrix">
    <rows>2</rows>
    <cols>1</cols>
    <dt>i</dt>
    <data>
      0 1</data></class_labels>
  <sv_total>439</sv_total>
  <support_vectors>
    <_>
      2.02952027e-02 3.13653126e-02 1.66051667e-02 1.47601478e-02
      1.29151288e-02 1.29151288e-02 1.29151288e-02 5.53505542e-03
      2.21402217e-02 1.84501857e-02 4.05904055e-02 1.10701108e-02
      2.76752766e-02 1.29151288e-02 3.32103334e-02 2.02952027e-02
      1.10701108e-02 9.22509283e-03 1.47601478e-02 5.71955740e-02
      3.69003713e-02 2.95202956e-02 2.58302577e-02 2.02952027e-02
      1.66051667e-02 3.69003695e-03 4.24354263e-02 4.79704812e-02
      1.84501857e-02 2.02952027e-02 5.53505542e-03 1.29151288e-02
      3.69003695e-03 0. 5.53505542e-03 2.21402217e-02 2.02952027e-02
      9.22509283e-03 3.32103334e-02 9.22509283e-03 2.02952027e-02
      1.47601478e-02 3.13653126e-02 9.22509283e-03 2.02952027e-02
      5.53505542e-03 4.61254604e-02 3.32103334e-02 2.21402217e-02
      7.38007389e-03</_>
    <_>
      1.96506549e-02 4.36681211e-02 2.18340605e-02 1.96506549e-02
      1.31004369e-02 2.40174681e-02 4.36681230e-03 1.31004369e-02
      2.40174681e-02 1.52838435e-02 4.58515286e-02 1.96506549e-02
      1.96506549e-02 2.40174681e-02 8.73362459e-03 1.31004369e-02
      1.31004369e-02 1.31004369e-02 4.58515286e-02 5.45851551e-02
      3.27510908e-02 2.18340605e-02 2.40174681e-02 2.83842795e-02
      1.31004369e-02 8.73362459e-03 3.93013097e-02 2.40174681e-02
      2.40174681e-02 8.73362459e-03 3.05676870e-02 3.49344984e-02
      2.18340615e-03 1.96506549e-02 2.40174681e-02 1.96506549e-02
      8.73362459e-03 1.96506549e-02 1.31004369e-02 6.55021844e-03
      1.52838435e-02 6.55021844e-03 4.36681230e-03 1.52838435e-02
      1.31004369e-02 1.74672492e-02 2.83842795e-02 1.09170303e-02
      1.52838435e-02 1.31004369e-02</_>
    <_>
      1.29870130e-02 4.22077924e-02 2.59740259e-02 1.94805190e-02
      2.27272734e-02 9.74025950e-03 9.74025950e-03 1.29870130e-02
      1.29870130e-02 9.74025950e-03 1.29870130e-02 2.59740259e-02
      3.24675324e-03 1.94805190e-02 2.92207785e-02 1.62337665e-02
      1.62337665e-02 9.74025950e-03 2.59740259e-02 6.16883114e-02
      2.59740259e-02 4.87012975e-02 2.27272734e-02 2.59740259e-02
      2.27272734e-02 0. 1.62337665e-02 2.92207785e-02 2.92207785e-02
      1.62337665e-02 2.59740259e-02 9.74025950e-03 3.24675324e-03
      3.24675329e-02 1.94805190e-02 9.74025950e-03 2.59740259e-02
      1.94805190e-02 1.62337665e-02 1.29870130e-02 9.74025950e-03
      1.29870130e-02 3.24675324e-03 1.62337665e-02 3.57142873e-02
      1.62337665e-02 3.57142873e-02 3.89610380e-02 6.49350649e-03
      1.29870130e-02</_>
    <_>
      3.70370373e-02 2.69360263e-02 2.02020202e-02 2.35690232e-02
      2.35690232e-02 3.36700343e-02 3.36700343e-02 0. 5.05050495e-02
      1.68350171e-02 3.36700343e-02 1.34680131e-02 2.02020202e-02
      6.73400657e-03 4.37710434e-02 6.73400657e-03 1.01010101e-02
      1.34680131e-02 4.71380465e-02 3.36700343e-02 3.03030293e-02
      3.03030293e-02 1.34680131e-02 1.34680131e-02 1.68350171e-02
      1.01010101e-02 2.69360263e-02 1.01010101e-02 1.34680131e-02
      3.36700329e-03 1.34680131e-02 2.69360263e-02 6.73400657e-03
      1.68350171e-02 1.01010101e-02 3.36700329e-03 1.01010101e-02
      1.34680131e-02 2.02020202e-02 1.01010101e-02 2.02020202e-02
      3.36700329e-03 3.03030293e-02 1.01010101e-02 2.02020202e-02
      6.73400657e-03 6.06060587e-02 3.03030293e-02 1.01010101e-02
      1.34680131e-02</_>
    <_>
      1.50375944e-02 1.87969930e-03 9.39849671e-03 2.25563906e-02
      1.12781953e-02 1.31578948e-02 1.50375944e-02 3.19548883e-02
      1.31578948e-02 5.63909765e-03 5.26315793e-02 1.69172939e-02
      1.31578948e-02 1.87969934e-02 2.44360901e-02 9.39849671e-03
      1.31578948e-02 2.06766929e-02 3.57142873e-02 4.51127812e-02
      1.31578948e-02 2.81954892e-02 3.38345878e-02 1.69172939e-02
      5.63909765e-03 1.50375944e-02 3.75939859e-03 1.69172939e-02
      2.25563906e-02 3.38345878e-02 1.12781953e-02 1.31578948e-02
      2.06766929e-02 1.12781953e-02 1.12781953e-02 9.39849671e-03
      2.63157897e-02 2.25563906e-02 1.69172939e-02 3.19548883e-02
      2.44360901e-02 3.19548883e-02 3.00751887e-02 1.12781953e-02
      1.50375944e-02 1.31578948e-02 5.45112789e-02 2.44360901e-02
      3.00751887e-02 1.12781953e-02</_>
    <_>
      1.27118640e-02 1.27118640e-02 6.35593198e-03 2.11864412e-02
      8.47457629e-03 1.90677959e-02 1.69491526e-02 3.17796618e-02
      1.05932206e-02 2.11864412e-02 2.54237279e-02 4.02542390e-02
      1.69491526e-02 2.54237279e-02 1.48305083e-02 1.27118640e-02
      1.05932206e-02 1.69491526e-02 4.66101691e-02 1.69491526e-02
      1.90677959e-02 1.90677959e-02 1.90677959e-02 1.27118640e-02
      8.47457629e-03 2.54237279e-02 1.69491526e-02 2.54237279e-02
      2.54237279e-02 1.90677959e-02 1.69491526e-02 8.47457629e-03
      2.33050846e-02 1.69491526e-02 3.60169485e-02 8.47457629e-03
      1.69491526e-02 1.90677959e-02 8.47457629e-03 2.11864412e-02
      1.69491526e-02 4.23728824e-02 6.35593198e-03 1.48305083e-02
      8.47457629e-03 2.75423732e-02 5.50847463e-02 1.90677959e-02
      2.33050846e-02 3.17796618e-02</_>
    <_>
      1.93704609e-02 2.17917692e-02 2.17917692e-02 1.93704609e-02
      7.26392306e-03 1.69491526e-02 2.17917692e-02 2.42130756e-02
      1.45278461e-02 9.68523044e-03 5.32687679e-02 1.69491526e-02
      3.38983051e-02 1.45278461e-02 2.17917692e-02 1.45278461e-02
      9.68523044e-03 2.42130756e-02 2.66343839e-02 1.21065378e-02
      3.38983051e-02 1.93704609e-02 2.66343839e-02 3.14770006e-02
      1.93704609e-02 7.26392306e-03 3.14770006e-02 5.56900762e-02
      1.93704609e-02 1.69491526e-02 1.45278461e-02 7.26392306e-03
      9.68523044e-03 1.45278461e-02 7.26392306e-03 1.69491526e-02
      7.26392306e-03 7.26392306e-03 2.17917692e-02 1.69491526e-02
      1.93704609e-02 2.66343839e-02 2.90556923e-02 2.42130756e-02
      7.26392306e-03 7.26392306e-03 4.11622301e-02 1.93704609e-02
      2.42130756e-02 1.21065378e-02</_>
    <_>
      2.50569489e-02 2.27790438e-02 4.32801843e-02 2.27790438e-02
      1.82232354e-02 1.13895219e-02 1.36674270e-02 2.73348540e-02
      2.05011405e-02 9.11161769e-03 3.87243740e-02 1.13895219e-02
      5.23918010e-02 1.59453303e-02 1.59453303e-02 1.59453303e-02
      2.05011405e-02 2.27790438e-02 1.82232354e-02 2.96127573e-02
      1.59453303e-02 2.27790438e-02 2.96127573e-02 2.50569489e-02
      1.36674270e-02 1.13895219e-02 2.73348540e-02 2.96127573e-02
      2.27790438e-02 2.27790442e-03 9.11161769e-03 2.50569489e-02
      1.36674270e-02 1.59453303e-02 6.83371350e-03 2.05011405e-02
      2.96127573e-02 1.13895219e-02 2.05011405e-02 2.73348540e-02
      9.11161769e-03 6.83371350e-03 1.13895219e-02 2.27790438e-02
      6.83371350e-03 1.82232354e-02 2.50569489e-02 2.96127573e-02
      2.27790438e-02 1.13895219e-02</_>
    <_>
      7.98403192e-03 7.98403192e-03 9.98003967e-03 1.59680638e-02
      2.39520967e-02 1.79640725e-02 1.79640725e-02 1.79640725e-02
      3.99201596e-03 2.39520967e-02 7.98403192e-03 3.79241519e-02
      3.19361277e-02 1.59680638e-02 5.98802418e-03 1.59680638e-02
      2.79441122e-02 2.19560880e-02 2.99401190e-02 2.19560880e-02
      2.99401190e-02 7.98403192e-03 3.99201587e-02 1.19760484e-02
      7.98403192e-03 2.19560880e-02 5.98802418e-03 1.19760484e-02
      1.79640725e-02 3.39321345e-02 1.59680638e-02 2.39520967e-02
      1.59680638e-02 1.39720561e-02 1.99600793e-02 7.98403192e-03
      1.79640725e-02 3.19361277e-02 5.98802418e-03 1.39720561e-02
      1.59680638e-02 3.39321345e-02 1.39720561e-02 1.79640725e-02
      1.99600798e-03 3.39321345e-02 7.38522932e-02 1.99600793e-02
      3.19361277e-02 3.39321345e-02</_>
    <_>
      2.09205020e-02 2.30125524e-02 4.39330526e-02 1.46443509e-02
      1.46443509e-02 2.09205020e-02 4.81171533e-02 1.88284516e-02
      4.60251048e-02 1.88284516e-02 2.30125524e-02 4.18410031e-03
      2.30125524e-02 4.18410031e-03 2.09205020e-02 1.46443509e-02
      2.30125524e-02 8.36820062e-03 6.27615023e-03 6.27615023e-03
      2.30125524e-02 2.71966513e-02 1.67364012e-02 2.92887017e-02
      5.43933026e-02 1.25523005e-02 5.43933026e-02 3.55648510e-02
      1.25523005e-02 1.88284516e-02 8.36820062e-03 3.55648510e-02
      4.18410031e-03 1.46443509e-02 2.09205016e-03 2.71966513e-02
      1.67364012e-02 1.67364012e-02 1.25523005e-02 1.67364012e-02
      2.09205020e-02 6.27615023e-03 2.71966513e-02 1.67364012e-02
      8.36820062e-03 4.18410031e-03 2.09205020e-02 2.71966513e-02
      1.67364012e-02 8.36820062e-03</_>
    <_>
      2.56410260e-02 1.42450146e-02 1.42450146e-02 3.70370373e-02
      1.42450146e-02 1.42450146e-02 1.70940161e-02 5.69800567e-03
      2.27920227e-02 2.27920227e-02 2.56410260e-02 4.27350439e-02
      4.27350439e-02 8.54700804e-03 1.13960113e-02 2.27920227e-02
      2.27920227e-02 2.84900283e-03 1.42450146e-02 3.70370373e-02
      2.27920227e-02 2.84900293e-02 6.26780614e-02 8.54700804e-03
      5.69800567e-03 2.27920227e-02 1.99430194e-02 3.70370373e-02
      1.70940161e-02 1.70940161e-02 1.99430194e-02 4.55840454e-02 0.
      3.41880322e-02 1.42450146e-02 1.13960113e-02 5.69800567e-03
      4.84330468e-02 1.13960113e-02 5.69800567e-03 2.84900283e-03
      1.70940161e-02 8.54700804e-03 8.54700804e-03 1.42450146e-02
      1.42450146e-02 4.84330468e-02 1.70940161e-02 2.84900283e-03
      8.54700804e-03</_>
    <_>
      3.18471342e-02 1.27388537e-02 4.45859879e-02 6.36942685e-03 0.
      1.91082805e-02 1.91082805e-02 2.54777074e-02 1.27388537e-02
      1.91082805e-02 1.91082805e-02 2.54777074e-02 1.27388537e-02
      5.09554148e-02 3.18471342e-02 1.27388537e-02 3.18471342e-02
      1.27388537e-02 3.82165611e-02 5.09554148e-02 3.18471342e-02
      1.91082805e-02 0. 3.18471342e-02 0. 1.27388537e-02 6.36942685e-03
      3.18471342e-02 0. 2.54777074e-02 0. 4.45859879e-02 1.27388537e-02
      6.36942685e-03 1.91082805e-02 1.27388537e-02 1.91082805e-02
      2.54777074e-02 6.36942685e-03 6.36942685e-03 3.18471342e-02
      3.18471342e-02 3.18471342e-02 1.91082805e-02 0. 1.91082805e-02
      4.45859879e-02 1.27388537e-02 1.27388537e-02 6.36942685e-03</_>
    <_>
      8.62068962e-03 4.88505736e-02 1.43678160e-02 1.14942528e-02
      8.62068962e-03 1.14942528e-02 1.43678160e-02 5.74712642e-03
      1.14942528e-02 1.72413792e-02 1.14942528e-02 1.43678160e-02
      2.01149434e-02 3.44827585e-02 8.62068962e-03 1.14942528e-02
      8.62068962e-03 4.88505736e-02 4.88505736e-02 1.14942528e-02
      3.73563208e-02 2.29885057e-02 1.43678160e-02 1.43678160e-02
      1.43678160e-02 1.43678160e-02 2.29885057e-02 1.72413792e-02
      5.74712642e-03 1.72413792e-02 8.62068962e-03 2.87356321e-03
      1.72413792e-02 1.14942528e-02 1.43678160e-02 1.14942528e-02
      2.29885057e-02 8.62068962e-03 2.87356321e-03 2.87356321e-02
      7.18390793e-02 5.74712642e-03 1.43678160e-02 1.43678160e-02
      1.09195404e-01 5.74712642e-03 3.73563208e-02 2.58620679e-02
      2.01149434e-02 1.43678160e-02</_>
    <_>
      7.61034992e-03 1.21765602e-02 1.67427696e-02 2.73972601e-02
      9.13242064e-03 1.67427696e-02 2.89193299e-02 1.82648413e-02
      1.36986300e-02 7.61034992e-03 2.58751903e-02 1.67427696e-02
      3.50076109e-02 2.89193299e-02 2.58751903e-02 1.67427696e-02
      2.73972601e-02 1.67427696e-02 3.04413997e-02 1.52206998e-02
      2.43531205e-02 2.28310507e-02 3.04413997e-02 9.13242064e-03
      1.36986300e-02 6.08828012e-03 1.36986300e-02 3.34855393e-02
      2.73972601e-02 2.58751903e-02 1.97869111e-02 1.36986300e-02
      1.06544904e-02 1.52206998e-02 1.67427696e-02 1.52206998e-02
      2.73972601e-02 2.28310507e-02 1.67427696e-02 1.52206998e-02
      1.36986300e-02 2.28310507e-02 2.13089809e-02 1.36986300e-02
      1.06544904e-02 1.67427696e-02 8.06697085e-02 1.52206998e-02
      1.82648413e-02 9.13242064e-03</_>
    <_>
      3.07692308e-02 4.61538471e-02 1.53846154e-02 7.69230770e-03
      1.53846154e-02 3.07692308e-02 1.53846154e-02 1.53846154e-02
      1.53846154e-02 0. 2.30769236e-02 4.61538471e-02 1.53846154e-02
      2.30769236e-02 1.53846154e-02 1.53846154e-02 1.53846154e-02
      7.69230770e-03 3.07692308e-02 4.61538471e-02 2.30769236e-02
      3.07692308e-02 2.30769236e-02 3.84615399e-02 0. 3.07692308e-02
      2.30769236e-02 3.07692308e-02 0. 3.07692308e-02 1.53846154e-02
      7.69230770e-03 0. 3.84615399e-02 7.69230770e-03 0. 2.30769236e-02
      3.84615399e-02 1.53846154e-02 7.69230770e-03 1.53846154e-02
      2.30769236e-02 2.30769236e-02 1.53846154e-02 2.30769236e-02
      2.30769236e-02 3.84615399e-02 0. 7.69230770e-03 1.53846154e-02</_>
    <_>
      5.67375869e-02 1.41843967e-02 4.25531901e-02 7.09219836e-03
      4.25531901e-02 2.83687934e-02 0. 4.25531901e-02 0. 2.12765951e-02
      7.09219836e-03 3.54609936e-02 3.54609936e-02 1.41843967e-02
      7.09219836e-03 0. 0. 3.54609936e-02 5.67375869e-02 4.96453866e-02
      0. 1.41843967e-02 2.12765951e-02 1.41843967e-02 0. 1.41843967e-02
      0. 0. 2.83687934e-02 3.54609936e-02 7.09219836e-03 2.12765951e-02
      1.41843967e-02 1.41843967e-02 2.12765951e-02 1.41843967e-02
      7.09219836e-03 2.83687934e-02 0. 2.83687934e-02 0. 2.83687934e-02
      0. 0. 2.83687934e-02 4.25531901e-02 8.51063803e-02 7.09219836e-03
      0. 2.83687934e-02</_>
    <_>
      1.53846154e-02 9.61538497e-03 1.34615386e-02 1.34615386e-02
      1.34615386e-02 1.15384618e-02 1.53846154e-02 1.92307699e-02
      2.30769236e-02 1.34615386e-02 7.69230770e-03 3.26923095e-02
      4.80769239e-02 1.15384618e-02 3.26923095e-02 7.69230770e-03
      5.76923089e-03 1.53846154e-02 9.61538497e-03 5.76923089e-03
      9.61538497e-03 1.92307699e-02 1.92307699e-02 3.46153863e-02
      1.34615386e-02 1.34615386e-02 1.92307699e-02 2.11538468e-02
      1.34615386e-02 2.69230772e-02 9.61538497e-03 1.92307699e-02
      9.61538497e-03 3.84615385e-03 9.61538497e-03 3.07692308e-02
      3.07692308e-02 3.26923095e-02 1.73076931e-02 3.07692308e-02
      2.50000004e-02 3.84615399e-02 6.92307726e-02 2.30769236e-02
      1.34615386e-02 3.46153863e-02 4.03846167e-02 1.34615386e-02
      1.92307699e-02 1.34615386e-02</_>
    <_>
      3.24909762e-02 3.61010828e-03 2.88808662e-02 3.24909762e-02
      1.08303251e-02 1.80505421e-02 2.52707582e-02 3.24909762e-02
      1.08303251e-02 2.16606501e-02 1.80505421e-02 2.52707582e-02
      3.61010828e-03 1.44404331e-02 1.08303251e-02 3.61010828e-03
      1.44404331e-02 1.44404331e-02 3.61010842e-02 1.08303251e-02
      7.22021656e-03 1.44404331e-02 1.08303251e-02 1.44404331e-02
      7.22021656e-03 1.80505421e-02 1.44404331e-02 0. 3.61010828e-03
      3.24909762e-02 1.08303251e-02 1.08303251e-02 1.80505421e-02
      2.52707582e-02 4.69314083e-02 1.44404331e-02 2.88808662e-02
      2.16606501e-02 1.08303251e-02 3.24909762e-02 2.16606501e-02
      5.05415164e-02 1.80505421e-02 2.52707582e-02 1.80505421e-02
      3.61010842e-02 6.13718405e-02 1.08303251e-02 1.80505421e-02
      2.88808662e-02</_>
    <_>
      2.40700226e-02 2.40700226e-02 1.53172873e-02 8.75273533e-03
      1.09409187e-02 1.75054707e-02 1.96936540e-02 1.75054707e-02
      1.96936540e-02 1.53172873e-02 2.62582060e-02 1.09409187e-02
      6.56455150e-03 1.31291030e-02 2.62582060e-02 1.53172873e-02
      1.09409187e-02 1.75054707e-02 1.96936540e-02 2.18818374e-02
      3.50109413e-02 3.50109413e-02 3.50109413e-02 2.62582060e-02
      2.18818374e-02 4.37636767e-03 3.71991247e-02 5.68927787e-02
      1.53172873e-02 2.40700226e-02 8.75273533e-03 8.75273533e-03
      1.09409187e-02 8.75273533e-03 8.75273533e-03 2.40700226e-02
      1.96936540e-02 1.75054707e-02 1.31291030e-02 2.40700226e-02
      2.40700226e-02 1.53172873e-02 2.40700226e-02 2.62582060e-02
      1.09409187e-02 6.56455150e-03 5.47045954e-02 4.37636748e-02
      1.53172873e-02 2.18818383e-03</_>
    <_>
      1.64835174e-02 2.19780225e-02 1.09890113e-02 0. 1.09890113e-02
      1.64835174e-02 2.19780225e-02 5.49450563e-03 1.09890113e-02 0.
      1.64835174e-02 2.19780225e-02 5.49450563e-03 5.49450563e-03
      3.29670347e-02 2.19780225e-02 1.64835174e-02 5.49450563e-03
      4.39560451e-02 3.84615399e-02 2.74725277e-02 5.49450563e-03
      5.49450563e-03 1.64835174e-02 0. 1.64835174e-02 1.64835174e-02
      1.64835174e-02 5.49450563e-03 2.74725277e-02 5.49450563e-03
      4.39560451e-02 5.49450554e-02 1.09890113e-02 2.74725277e-02
      3.29670347e-02 2.74725277e-02 1.09890113e-02 1.64835174e-02
      2.74725277e-02 1.09890113e-02 4.94505502e-02 1.64835174e-02
      2.74725277e-02 1.09890113e-02 2.19780225e-02 3.29670347e-02
      1.64835174e-02 5.49450554e-02 3.84615399e-02</_>
    <_>
      2.01342292e-02 2.01342292e-02 2.14765109e-02 1.87919475e-02
      1.87919475e-02 1.07382555e-02 2.01342292e-02 1.20805372e-02
      2.68456377e-02 8.05369206e-03 2.14765109e-02 2.28187926e-02
      2.55033560e-02 9.39597376e-03 1.74496658e-02 1.20805372e-02
      1.07382555e-02 2.41610743e-02 3.08724847e-02 1.87919475e-02
      2.41610743e-02 2.14765109e-02 2.28187926e-02 1.20805372e-02
      2.68456377e-02 8.05369206e-03 3.08724847e-02 4.69798669e-02
      1.07382555e-02 2.68456377e-02 5.36912773e-03 5.90604059e-02
      1.20805372e-02 2.68456386e-03 1.07382555e-02 2.41610743e-02
      1.74496658e-02 2.41610743e-02 2.55033560e-02 1.61073841e-02
      1.87919475e-02 1.20805372e-02 2.28187926e-02 1.87919475e-02
      9.39597376e-03 1.34228189e-02 3.62416133e-02 4.02684584e-02
      2.01342292e-02 9.39597376e-03</_>
    <_>
      2.12765951e-02 2.60047279e-02 2.60047279e-02 2.83687934e-02
      1.18203312e-02 3.07328608e-02 2.12765951e-02 1.41843967e-02
      1.65484641e-02 7.09219836e-03 3.30969281e-02 1.41843967e-02
      3.54609936e-02 9.45626479e-03 1.89125296e-02 1.18203312e-02
      1.65484641e-02 1.89125296e-02 1.89125296e-02 2.36406624e-02
      2.36406624e-02 2.83687934e-02 1.89125296e-02 2.36406624e-02
      1.65484641e-02 9.45626479e-03 7.09219836e-03 2.60047279e-02
      9.45626479e-03 1.89125296e-02 9.45626479e-03 4.72813239e-03
      3.30969281e-02 1.65484641e-02 4.72813239e-03 1.89125296e-02
      2.12765951e-02 4.72813239e-03 1.18203312e-02 3.54609936e-02
      2.60047279e-02 4.01891246e-02 2.60047279e-02 3.07328608e-02
      1.89125296e-02 2.12765951e-02 4.96453904e-02 1.41843967e-02
      1.65484641e-02 9.45626479e-03</_>
    <_>
      3.13725509e-02 7.84313772e-03 1.56862754e-02 1.17647070e-02
      2.35294141e-02 7.84313772e-03 2.35294141e-02 1.96078438e-02
      1.56862754e-02 7.84313772e-03 1.96078438e-02 2.35294141e-02
      1.17647070e-02 1.17647070e-02 1.56862754e-02 0. 3.52941193e-02
      3.52941193e-02 3.52941193e-02 1.13725498e-01 1.56862754e-02
      1.17647070e-02 7.84313772e-03 7.84313772e-03 1.17647070e-02
      1.56862754e-02 3.92156877e-02 0. 2.35294141e-02 1.56862754e-02
      1.17647070e-02 5.49019650e-02 1.96078438e-02 2.74509825e-02
      1.56862754e-02 0. 1.17647070e-02 0. 7.84313772e-03 2.35294141e-02
      1.17647070e-02 3.92156886e-03 7.84313772e-03 7.84313772e-03
      3.52941193e-02 2.74509825e-02 7.05882385e-02 1.96078438e-02
      3.92156886e-03 2.35294141e-02</_>
    <_>
      4.13223123e-03 8.26446246e-03 4.13223123e-03 4.13223123e-03
      1.23966932e-02 8.26446246e-03 8.26446246e-03 2.06611566e-02
      3.71900797e-02 3.30578499e-02 4.95867729e-02 1.23966932e-02
      4.54545431e-02 2.06611566e-02 2.47933865e-02 2.47933865e-02 0.
      8.26446246e-03 0. 8.26446246e-03 0. 2.89256182e-02 1.23966932e-02
      4.54545431e-02 8.26446246e-03 0. 1.65289249e-02 6.19834699e-02
      1.23966932e-02 3.71900797e-02 8.26446246e-03 0. 0. 8.26446246e-03
      4.13223123e-03 4.54545431e-02 1.65289249e-02 2.06611566e-02
      1.23966932e-02 3.30578499e-02 4.13223132e-02 2.06611566e-02
      9.09090862e-02 8.26446246e-03 4.13223123e-03 2.89256182e-02
      5.78512363e-02 8.26446246e-03 1.65289249e-02 1.65289249e-02</_>
    <_>
      2.16216221e-02 1.62162166e-02 1.08108111e-02 7.20720738e-03
      1.98198203e-02 3.60360369e-03 2.88288295e-02 1.26126129e-02
      1.62162166e-02 1.80180185e-02 2.16216221e-02 1.62162166e-02
      5.04504517e-02 2.52252258e-02 1.98198203e-02 1.80180185e-02
      1.62162166e-02 1.26126129e-02 2.88288295e-02 1.62162166e-02
      1.80180185e-02 1.98198203e-02 2.52252258e-02 9.00900923e-03
      2.52252258e-02 1.08108111e-02 1.44144148e-02 5.58558553e-02
      9.00900923e-03 1.44144148e-02 9.00900923e-03 1.08108111e-02
      1.98198203e-02 1.98198203e-02 1.08108111e-02 2.16216221e-02
      1.80180185e-02 1.62162166e-02 3.24324332e-02 1.44144148e-02
      1.44144148e-02 3.42342332e-02 1.98198203e-02 2.16216221e-02
      2.52252258e-02 1.62162166e-02 5.40540554e-02 1.98198203e-02
      2.70270277e-02 1.26126129e-02</_>
    <_>
      9.12778918e-03 3.34685594e-02 1.31845837e-02 1.41987829e-02
      7.09939143e-03 2.53549684e-02 2.02839747e-02 1.11561865e-02
      3.34685594e-02 2.33265720e-02 2.33265720e-02 5.07099368e-03
      1.41987829e-02 6.08519278e-03 1.52129810e-02 1.11561865e-02
      7.09939143e-03 2.53549684e-02 1.11561865e-02 3.34685594e-02
      1.41987829e-02 2.23123729e-02 7.09939143e-03 1.11561865e-02
      1.32860035e-01 4.05679503e-03 4.86815423e-02 1.52129810e-02
      1.01419874e-02 1.72413792e-02 1.01419876e-03 2.23123729e-02
      1.01419874e-02 6.08519278e-03 5.07099368e-03 2.12981738e-02
      1.52129810e-02 6.08519278e-03 1.92697756e-02 2.02839747e-02
      2.02839747e-02 1.01419874e-02 2.63691675e-02 1.62271801e-02
      1.52129810e-02 8.11359007e-03 6.08519278e-03 1.05476670e-01
      3.14401612e-02 8.11359007e-03</_>
    <_>
      1.99115053e-02 1.76991150e-02 2.65486725e-02 2.65486725e-02
      1.54867256e-02 2.21238937e-02 2.43362822e-02 1.32743362e-02
      2.43362822e-02 1.32743362e-02 5.30973449e-02 1.54867256e-02
      3.98230106e-02 2.65486725e-02 1.76991150e-02 2.65486725e-02
      1.54867256e-02 1.32743362e-02 1.76991150e-02 3.53982300e-02
      3.09734512e-02 1.99115053e-02 1.76991150e-02 1.99115053e-02
      2.43362822e-02 6.63716812e-03 2.43362822e-02 2.65486725e-02
      1.99115053e-02 1.32743362e-02 1.99115053e-02 1.99115053e-02
      1.76991150e-02 1.54867256e-02 1.76991150e-02 1.99115053e-02
      1.10619469e-02 1.32743362e-02 1.54867256e-02 1.99115053e-02
      8.84955749e-03 6.63716812e-03 1.54867256e-02 8.84955749e-03
      1.10619469e-02 1.54867256e-02 3.31858397e-02 3.09734512e-02
      1.76991150e-02 1.32743362e-02</_>
    <_>
      3.10559012e-02 4.34782617e-02 1.86335407e-02 0. 6.21118024e-03
      2.48447210e-02 1.24223605e-02 1.86335407e-02 1.86335407e-02
      3.10559012e-02 1.24223605e-02 4.34782617e-02 1.24223605e-02
      3.72670814e-02 1.86335407e-02 1.24223605e-02 0. 1.86335407e-02
      2.48447210e-02 3.10559012e-02 3.10559012e-02 0. 0. 1.86335407e-02
      2.48447210e-02 1.24223605e-02 1.86335407e-02 1.24223605e-02
      6.21118024e-03 6.21118024e-03 1.24223605e-02 1.24223605e-02
      2.48447210e-02 1.86335407e-02 1.86335407e-02 6.21118024e-03
      4.34782617e-02 1.86335407e-02 1.24223605e-02 3.72670814e-02
      6.21118024e-03 4.34782617e-02 2.48447210e-02 3.72670814e-02
      3.10559012e-02 1.86335407e-02 3.10559012e-02 1.86335407e-02
      1.86335407e-02 1.86335407e-02</_>
    <_>
      1.12866815e-02 2.25733630e-02 9.02934559e-03 2.48307008e-02
      1.12866815e-02 9.02934559e-03 2.25733630e-02 4.51467279e-03
      1.35440184e-02 1.58013552e-02 2.03160271e-02 2.70880368e-02
      1.80586912e-02 3.61173823e-02 1.80586912e-02 3.16027105e-02
      1.58013552e-02 6.77200919e-03 2.48307008e-02 2.03160271e-02
      3.16027105e-02 2.70880368e-02 4.28893901e-02 3.16027105e-02
      1.35440184e-02 2.03160271e-02 2.70880368e-02 4.74040657e-02
      1.80586912e-02 1.12866815e-02 2.03160271e-02 4.51467279e-03
      1.12866815e-02 1.12866815e-02 2.03160271e-02 2.70880368e-02
      9.02934559e-03 1.35440184e-02 2.25733630e-02 1.12866815e-02
      1.58013552e-02 2.93453727e-02 1.35440184e-02 1.58013552e-02
      1.35440184e-02 1.35440184e-02 5.41760735e-02 3.83747183e-02
      1.12866815e-02 9.02934559e-03</_>
    <_>
      2.67639905e-02 1.45985400e-02 2.91970801e-02 1.45985400e-02
      1.70316305e-02 1.45985400e-02 2.91970801e-02 7.29927002e-03
      3.89294401e-02 2.91970801e-02 1.94647200e-02 1.45985400e-02
      1.94647200e-02 4.86618001e-03 2.43308991e-02 2.91970801e-02
      1.94647200e-02 1.21654496e-02 7.29927002e-03 1.21654496e-02
      7.29927002e-03 3.89294401e-02 2.43308991e-02 2.91970801e-02
      1.45985400e-02 1.21654496e-02 2.67639905e-02 5.10948896e-02
      2.18978096e-02 2.67639905e-02 1.21654496e-02 1.45985400e-02
      1.45985400e-02 4.86618001e-03 1.45985400e-02 2.18978096e-02
      2.67639905e-02 7.29927002e-03 1.70316305e-02 1.45985400e-02
      9.73236002e-03 2.18978096e-02 4.37956192e-02 1.45985400e-02
      2.43309001e-03 1.21654496e-02 3.40632610e-02 3.40632610e-02
      2.18978096e-02 1.94647200e-02</_>
    <_>
      9.43396240e-03 1.88679248e-02 9.43396240e-03 2.83018872e-02
      2.83018872e-02 1.88679248e-02 1.88679248e-02 2.83018872e-02
      9.43396240e-03 2.83018872e-02 0. 9.43396240e-03 5.66037744e-02
      2.83018872e-02 2.83018872e-02 1.88679248e-02 9.43396240e-03
      9.43396240e-03 9.43396240e-03 2.83018872e-02 3.77358496e-02
      2.83018872e-02 9.43396240e-03 0. 0. 9.43396240e-03 9.43396240e-03
      3.77358496e-02 9.43396240e-03 1.88679248e-02 0. 6.60377368e-02
      1.88679248e-02 9.43396240e-03 3.77358496e-02 1.88679248e-02
      3.77358496e-02 1.88679248e-02 9.43396240e-03 3.77358496e-02
      9.43396240e-03 9.43396240e-03 0. 4.71698120e-02 1.88679248e-02
      1.88679248e-02 4.71698120e-02 1.88679248e-02 0. 1.88679248e-02</_>
    <_>
      1.77383590e-02 1.10864742e-02 3.76940146e-02 3.10421288e-02
      1.99556537e-02 1.10864742e-02 1.55210644e-02 1.55210644e-02
      8.86917952e-03 8.86917952e-03 1.99556537e-02 2.88248342e-02
      2.88248342e-02 1.33037698e-02 2.43902430e-02 6.65188488e-03
      1.77383590e-02 1.33037698e-02 6.87361434e-02 1.99556537e-02
      1.99556537e-02 1.55210644e-02 1.33037698e-02 1.99556537e-02 0.
      8.86917952e-03 8.86917952e-03 5.76496683e-02 1.55210644e-02
      1.33037698e-02 2.43902430e-02 4.43458976e-03 2.21729483e-02
      2.21729483e-02 3.10421288e-02 2.88248342e-02 6.65188488e-03
      6.65188488e-03 2.66075395e-02 1.99556537e-02 1.33037698e-02
      2.21729483e-02 0. 1.77383590e-02 2.43902430e-02 2.88248342e-02
      4.87804860e-02 1.55210644e-02 1.77383590e-02 2.66075395e-02</_>
    <_>
      3.50877200e-03 7.01754401e-03 1.05263162e-02 1.40350880e-02
      7.01754401e-03 3.50877200e-03 4.21052650e-02 2.10526325e-02 0.
      1.40350880e-02 0. 2.80701760e-02 3.50877196e-02 1.75438598e-02
      3.15789469e-02 2.45614033e-02 1.40350880e-02 2.80701760e-02
      1.40350880e-02 0. 3.50877200e-03 3.15789469e-02 1.05263162e-02
      3.15789469e-02 1.05263162e-02 3.50877200e-03 3.50877200e-03
      2.80701760e-02 7.01754401e-03 3.15789469e-02 7.01754401e-03
      3.50877200e-03 1.40350880e-02 1.05263162e-02 0. 2.45614033e-02
      1.05263162e-02 1.75438598e-02 1.05263162e-02 1.40350880e-02
      4.56140377e-02 1.05263159e-01 8.42105299e-02 3.85964923e-02 0.
      3.50877196e-02 5.96491247e-02 1.40350880e-02 1.05263162e-02
      1.75438598e-02</_>
    <_>
      1.35951657e-02 1.35951657e-02 1.51057402e-02 1.96374618e-02
      2.11480372e-02 2.11480372e-02 1.35951657e-02 2.71903314e-02
      1.51057402e-02 1.66163146e-02 1.35951657e-02 2.11480372e-02
      3.32326293e-02 1.81268882e-02 2.71903314e-02 1.96374618e-02
      1.51057402e-02 1.96374618e-02 2.11480372e-02 1.51057402e-02
      7.55287008e-03 3.47432010e-02 1.81268882e-02 3.92749235e-02
      1.66163146e-02 7.55287008e-03 2.41691843e-02 6.34441078e-02
      1.05740186e-02 2.71903314e-02 6.04229607e-03 1.81268882e-02
      9.06344410e-03 6.04229607e-03 1.20845921e-02 2.26586107e-02
      3.32326293e-02 2.11480372e-02 1.35951657e-02 1.66163146e-02
      1.96374618e-02 1.20845921e-02 2.26586107e-02 1.51057402e-02
      2.71903314e-02 1.81268882e-02 3.62537764e-02 3.47432010e-02
      1.66163146e-02 9.06344410e-03</_>
    <_>
      3.28767151e-02 4.10958901e-02 2.46575344e-02 1.09589044e-02
      1.91780832e-02 1.36986300e-02 1.36986300e-02 1.09589044e-02
      3.83561663e-02 1.36986300e-02 1.64383575e-02 1.91780832e-02
      1.36986300e-02 5.47945220e-03 2.19178088e-02 2.19178088e-02
      1.64383575e-02 2.19178088e-02 1.91780832e-02 4.93150689e-02
      1.91780832e-02 8.21917877e-03 1.64383575e-02 1.91780832e-02
      5.47945220e-03 1.64383575e-02 1.91780832e-02 1.09589044e-02
      1.64383575e-02 1.64383575e-02 1.64383575e-02 1.91780832e-02
      1.64383575e-02 2.19178088e-02 2.73972601e-02 1.09589044e-02
      1.36986300e-02 2.19178088e-02 2.19178088e-02 2.73972601e-02
      1.64383575e-02 3.28767151e-02 1.36986300e-02 1.91780832e-02
      1.91780832e-02 2.73972601e-02 2.46575344e-02 3.01369876e-02
      3.28767151e-02 1.36986300e-02</_>
    <_>
      1.65975112e-02 2.38589216e-02 1.76348556e-02 1.14107886e-02
      9.33609996e-03 7.26141129e-03 3.21576782e-02 2.48962678e-02
      1.97095443e-02 4.14937781e-03 5.18672215e-03 1.24481339e-02
      1.45228226e-02 4.14937781e-03 2.17842329e-02 6.22406695e-03
      9.33609996e-03 3.21576782e-02 2.07468891e-03 9.33609996e-03
      6.22406695e-03 3.21576782e-02 5.18672215e-03 3.73443998e-02
      2.59336121e-02 1.14107886e-02 1.45228226e-02 2.69709565e-02
      1.24481339e-02 2.80083008e-02 1.24481339e-02 3.83817442e-02
      1.76348556e-02 1.86721999e-02 1.97095443e-02 2.90456451e-02
      3.11203338e-02 2.59336121e-02 1.97095443e-02 3.63070555e-02
      3.63070555e-02 1.55601669e-02 4.97925356e-02 2.07468886e-02
      7.26141129e-03 3.11203338e-02 5.18672215e-03 1.86721999e-02
      6.63900450e-02 1.55601669e-02</_>
    <_>
      2.71903314e-02 3.02114803e-02 3.02114803e-02 2.11480372e-02
      1.51057402e-02 2.71903314e-02 3.92749235e-02 9.06344410e-03
      2.71903314e-02 2.71903314e-02 3.02114803e-02 1.20845921e-02
      9.06344410e-03 7.55287008e-03 2.56797578e-02 1.51057402e-02
      1.20845921e-02 3.17220539e-02 3.47432010e-02 1.35951657e-02
      1.20845921e-02 2.41691843e-02 9.06344410e-03 1.96374618e-02
      1.96374618e-02 7.55287008e-03 2.71903314e-02 1.51057402e-02
      1.05740186e-02 1.81268882e-02 7.55287008e-03 3.77643518e-02
      1.35951657e-02 9.06344410e-03 1.51057402e-02 1.96374618e-02
      1.81268882e-02 2.11480372e-02 1.66163146e-02 2.56797578e-02
      3.62537764e-02 1.20845921e-02 1.66163146e-02 2.41691843e-02
      1.51057402e-02 1.35951657e-02 2.56797578e-02 2.87009068e-02
      2.26586107e-02 1.20845921e-02</_>
    <_>
      1.70316305e-02 7.29927002e-03 1.45985400e-02 2.18978096e-02
      1.94647200e-02 1.94647200e-02 4.37956192e-02 7.29927002e-03
      4.86618001e-03 1.70316305e-02 2.43309001e-03 2.43308991e-02
      2.43308991e-02 2.18978096e-02 1.21654496e-02 7.29927002e-03
      2.18978096e-02 1.70316305e-02 3.16301696e-02 5.59610687e-02
      9.73236002e-03 2.43308991e-02 2.43308991e-02 1.21654496e-02
      4.86618001e-03 9.73236002e-03 2.43309001e-03 4.62287106e-02
      1.94647200e-02 1.94647200e-02 1.45985400e-02 1.94647200e-02
      9.73236002e-03 1.45985400e-02 2.18978096e-02 2.43308991e-02
      1.45985400e-02 1.45985400e-02 1.70316305e-02 1.94647200e-02
      2.67639905e-02 1.21654496e-02 9.73236002e-03 2.67639905e-02
      3.16301696e-02 2.18978096e-02 6.56934306e-02 1.21654496e-02
      3.64963487e-02 2.18978096e-02</_>
    <_>
      6.49350649e-03 2.38095243e-02 1.29870130e-02 2.81385276e-02
      1.51515156e-02 8.65800865e-03 2.81385276e-02 1.73160173e-02
      2.38095243e-02 1.51515156e-02 1.51515156e-02 1.73160173e-02
      2.59740259e-02 2.16450207e-02 2.38095243e-02 1.29870130e-02
      1.73160173e-02 1.29870130e-02 2.81385276e-02 8.65800865e-03
      2.38095243e-02 2.38095243e-02 2.59740259e-02 3.46320346e-02
      1.08225103e-02 6.49350649e-03 6.49350649e-03 5.19480519e-02
      2.81385276e-02 1.51515156e-02 1.08225103e-02 2.38095243e-02
      6.49350649e-03 1.08225103e-02 4.32900432e-03 1.94805190e-02
      1.51515156e-02 8.65800865e-03 2.38095243e-02 6.49350649e-03
      6.49350649e-03 1.29870130e-02 4.97835502e-02 2.16450207e-02
      1.94805190e-02 8.65800865e-03 1.10389613e-01 2.59740259e-02
      1.08225103e-02 1.29870130e-02</_>
    <_>
      1.55844148e-02 1.03896102e-02 1.03896102e-02 2.07792204e-02
      1.03896102e-02 1.29870130e-02 3.11688296e-02 1.29870130e-02
      3.89610380e-02 1.55844148e-02 2.33766232e-02 2.59740255e-03
      5.19480519e-02 7.79220741e-03 3.37662324e-02 3.63636352e-02
      2.07792204e-02 2.33766232e-02 1.29870130e-02 5.19480510e-03
      2.59740259e-02 3.37662324e-02 2.59740259e-02 1.81818176e-02
      2.59740259e-02 0. 1.29870130e-02 3.89610380e-02 7.79220741e-03
      2.33766232e-02 5.19480510e-03 1.55844148e-02 7.79220741e-03
      7.79220741e-03 1.29870130e-02 1.29870130e-02 1.55844148e-02
      2.33766232e-02 3.37662324e-02 1.03896102e-02 1.03896102e-02
      4.15584408e-02 3.63636352e-02 1.03896102e-02 2.07792204e-02
      1.81818176e-02 6.23376593e-02 1.81818176e-02 1.55844148e-02
      1.03896102e-02</_>
    <_>
      1.04712043e-02 2.79232115e-02 1.39616057e-02 1.91972069e-02
      1.57068074e-02 5.23560215e-03 1.57068074e-02 2.09424086e-02
      3.49040143e-02 8.72600358e-03 2.09424086e-02 2.44328100e-02
      3.49040143e-02 1.91972069e-02 1.91972069e-02 1.39616057e-02
      1.39616057e-02 2.79232115e-02 2.26876102e-02 1.91972069e-02
      3.31588127e-02 3.14136147e-02 2.96684131e-02 1.74520072e-02
      3.66492160e-02 6.98080286e-03 2.79232115e-02 3.66492160e-02
      1.57068074e-02 1.04712043e-02 1.04712043e-02 1.57068074e-02
      2.09424086e-02 2.44328100e-02 1.91972069e-02 1.04712043e-02
      1.57068074e-02 1.57068074e-02 2.79232115e-02 1.74520072e-02
      1.91972069e-02 2.44328100e-02 1.39616057e-02 2.09424086e-02
      1.57068074e-02 2.26876102e-02 2.44328100e-02 2.09424086e-02
      1.57068074e-02 8.72600358e-03</_>
    <_>
      2.93209888e-02 2.77777780e-02 3.24074067e-02 2.62345672e-02
      2.00617276e-02 2.00617276e-02 2.16049384e-02 2.62345672e-02
      2.62345672e-02 2.16049384e-02 3.70370373e-02 2.46913582e-02
      2.00617276e-02 2.62345672e-02 1.69753097e-02 1.85185187e-02
      1.69753097e-02 1.38888890e-02 2.31481493e-02 4.16666679e-02
      3.39506194e-02 1.54320989e-02 3.08641978e-02 1.85185187e-02
      1.54320989e-02 1.69753097e-02 2.31481493e-02 2.62345672e-02
      1.38888890e-02 1.38888890e-02 1.23456791e-02 1.08024692e-02
      1.69753097e-02 7.71604944e-03 1.08024692e-02 1.08024692e-02
      1.85185187e-02 1.85185187e-02 9.25925933e-03 2.00617276e-02
      9.25925933e-03 2.31481493e-02 7.71604944e-03 1.54320989e-02
      1.23456791e-02 1.54320989e-02 1.85185187e-02 4.16666679e-02
      9.25925933e-03 1.23456791e-02</_>
    <_>
      3.66492160e-02 5.23560215e-03 1.57068074e-02 2.61780098e-02
      3.14136147e-02 1.04712043e-02 4.71204184e-02 1.04712043e-02
      1.04712043e-02 2.61780098e-02 1.04712043e-02 5.23560215e-03
      1.57068074e-02 0. 5.23560215e-03 1.57068074e-02 2.09424086e-02
      4.71204184e-02 4.18848172e-02 2.09424086e-02 0. 1.04712043e-02
      2.09424086e-02 3.66492160e-02 0. 1.57068074e-02 2.61780098e-02 0.
      2.09424086e-02 0. 1.57068074e-02 4.18848172e-02 4.71204184e-02 0.
      5.23560215e-03 1.04712043e-02 2.09424086e-02 2.09424086e-02
      1.04712043e-02 4.71204184e-02 0. 4.71204184e-02 3.14136147e-02
      2.09424086e-02 5.23560215e-03 3.14136147e-02 2.61780098e-02
      1.57068074e-02 2.61780098e-02 4.18848172e-02</_>
    <_>
      2.48667859e-02 1.42095918e-02 2.48667859e-02 1.24333929e-02
      1.06571941e-02 1.77619897e-03 1.59857906e-02 2.13143881e-02
      1.42095918e-02 2.13143881e-02 2.30905861e-02 1.77619904e-02
      4.08525765e-02 7.10479589e-03 3.73001769e-02 1.59857906e-02
      1.59857906e-02 1.42095918e-02 3.01953834e-02 2.48667859e-02
      1.24333929e-02 3.90763767e-02 3.19715813e-02 2.48667859e-02
      7.10479589e-03 1.59857906e-02 1.06571941e-02 4.08525765e-02
      1.59857906e-02 2.30905861e-02 1.42095918e-02 2.13143881e-02
      1.06571941e-02 1.42095918e-02 1.77619904e-02 1.42095918e-02
      2.30905861e-02 1.59857906e-02 1.24333929e-02 1.06571941e-02
      1.59857906e-02 3.01953834e-02 2.30905861e-02 2.84191836e-02
      2.13143881e-02 2.13143881e-02 4.26287763e-02 8.88099521e-03
      1.77619904e-02 2.48667859e-02</_>
    <_>
      4.73933667e-03 9.47867334e-03 0. 3.31753567e-02 4.73933667e-03
      4.73933667e-03 0. 9.47867334e-03 9.47867334e-03 4.73933667e-03
      9.47867334e-03 2.84360200e-02 5.68720400e-02 9.47867334e-03
      4.26540300e-02 9.47867334e-03 4.73933667e-02 3.31753567e-02
      5.68720400e-02 4.73933667e-03 1.42180100e-02 2.84360200e-02
      9.47867334e-03 6.63507134e-02 4.73933667e-03 2.36966833e-02
      1.42180100e-02 3.79146934e-02 4.73933667e-03 3.31753567e-02
      2.84360200e-02 0. 1.42180100e-02 2.36966833e-02 1.89573467e-02
      5.21327034e-02 1.42180100e-02 2.36966833e-02 4.73933667e-03
      4.73933667e-03 0. 4.26540300e-02 1.42180100e-02 4.73933667e-03
      9.47867334e-03 1.89573467e-02 5.21327034e-02 1.42180100e-02
      4.73933667e-03 3.79146934e-02</_>
    <_>
      3.26086953e-02 4.16666679e-02 2.89855078e-02 2.71739140e-02
      1.26811601e-02 5.43478271e-03 1.63043477e-02 5.43478271e-03
      3.44202891e-02 9.05797072e-03 3.26086953e-02 1.81159414e-02
      3.80434804e-02 2.35507246e-02 2.89855078e-02 9.05797072e-03
      1.81159414e-02 1.63043477e-02 1.63043477e-02 1.26811601e-02
      2.53623202e-02 2.17391308e-02 1.63043477e-02 3.07971016e-02
      2.35507246e-02 9.05797072e-03 3.07971016e-02 3.98550741e-02
      5.43478271e-03 2.53623202e-02 1.26811601e-02 5.43478271e-03
      1.08695654e-02 1.44927539e-02 1.08695654e-02 1.26811601e-02
      3.07971016e-02 1.26811601e-02 1.81159414e-02 7.24637695e-03
      1.81159414e-02 1.63043477e-02 3.62318829e-02 2.17391308e-02
      7.24637695e-03 1.44927539e-02 2.17391308e-02 2.17391308e-02
      3.07971016e-02 1.99275371e-02</_>
    <_>
      1.80586912e-02 2.93453727e-02 1.58013552e-02 1.58013552e-02
      4.51467279e-03 1.12866815e-02 3.83747183e-02 1.12866815e-02
      2.70880368e-02 6.77200919e-03 2.70880368e-02 1.35440184e-02
      5.41760735e-02 9.02934559e-03 3.16027105e-02 2.93453727e-02
      1.80586912e-02 6.77200919e-03 2.25733630e-02 2.25733630e-02
      1.12866815e-02 2.25733630e-02 2.48307008e-02 3.38600464e-02
      2.25733630e-02 4.51467279e-03 2.93453727e-02 2.93453727e-02
      9.02934559e-03 2.03160271e-02 1.58013552e-02 9.02934559e-03
      1.12866815e-02 1.35440184e-02 4.51467279e-03 1.12866815e-02
      1.35440184e-02 2.25733630e-02 1.35440184e-02 1.58013552e-02
      2.93453727e-02 2.93453727e-02 2.48307008e-02 1.80586912e-02
      1.58013552e-02 2.25733630e-02 3.83747183e-02 1.58013552e-02
      4.51467261e-02 9.02934559e-03</_>
    <_>
      1.58102773e-02 1.97628476e-02 1.58102773e-02 1.97628476e-02
      3.16205546e-02 2.37154160e-02 2.76679844e-02 2.37154160e-02
      1.18577080e-02 1.58102773e-02 5.13834022e-02 3.16205546e-02
      3.95256933e-03 7.90513866e-03 1.58102773e-02 3.95256933e-03
      1.18577080e-02 2.37154160e-02 5.53359687e-02 5.53359687e-02
      7.90513866e-03 1.18577080e-02 1.58102773e-02 3.95256933e-03
      3.95256933e-03 3.16205546e-02 3.95256951e-02 2.37154160e-02
      1.18577080e-02 1.58102773e-02 2.76679844e-02 1.18577080e-02
      2.76679844e-02 2.37154160e-02 1.18577080e-02 3.95256933e-03
      1.18577080e-02 1.97628476e-02 1.18577080e-02 3.16205546e-02
      1.97628476e-02 1.18577080e-02 3.95256933e-03 1.58102773e-02
      1.97628476e-02 1.58102773e-02 6.71936795e-02 3.95256933e-03
      7.90513866e-03 1.97628476e-02</_>
    <_>
      1.36986300e-02 6.84931502e-03 4.10958901e-02 1.36986300e-02
      2.05479451e-02 2.05479451e-02 4.10958901e-02 2.73972601e-02
      2.73972601e-02 6.84931502e-03 3.42465751e-02 2.73972601e-02
      4.10958901e-02 6.84931502e-03 1.36986300e-02 3.42465751e-02
      2.73972601e-02 2.05479451e-02 3.42465751e-02 3.42465751e-02
      1.36986300e-02 1.36986300e-02 1.36986300e-02 2.05479451e-02
      1.36986300e-02 6.84931502e-03 6.84931502e-03 2.73972601e-02
      6.84931502e-03 1.36986300e-02 2.05479451e-02 1.36986300e-02
      2.05479451e-02 2.05479451e-02 1.36986300e-02 2.05479451e-02
      3.42465751e-02 0. 1.36986300e-02 1.36986300e-02 0. 2.73972601e-02
      1.36986300e-02 2.73972601e-02 0. 2.05479451e-02 6.16438352e-02 0.
      2.73972601e-02 2.05479451e-02</_>
    <_>
      2.09424086e-02 3.92670147e-02 2.09424086e-02 2.35602092e-02
      1.83246080e-02 5.23560215e-03 2.35602092e-02 1.83246080e-02
      3.40314135e-02 1.04712043e-02 3.66492160e-02 2.35602092e-02
      3.92670147e-02 2.87958123e-02 2.09424086e-02 1.57068074e-02
      1.30890049e-02 1.04712043e-02 7.85340369e-03 1.83246080e-02
      2.35602092e-02 1.04712043e-02 1.30890049e-02 1.30890049e-02
      5.23560215e-03 2.35602092e-02 1.83246080e-02 3.66492160e-02
      1.57068074e-02 2.35602092e-02 1.83246080e-02 2.61780107e-03
      1.57068074e-02 2.09424086e-02 1.57068074e-02 1.04712043e-02
      1.04712043e-02 1.83246080e-02 1.30890049e-02 2.61780098e-02
      1.30890049e-02 2.87958123e-02 1.30890049e-02 5.23560215e-03
      2.61780098e-02 1.83246080e-02 8.37696344e-02 2.61780098e-02
      2.61780107e-03 1.83246080e-02</_>
    <_>
      3.96825410e-02 1.58730168e-02 3.96825410e-02 2.38095261e-02
      7.93650839e-03 4.76190522e-02 1.58730168e-02 1.58730168e-02
      1.58730168e-02 1.58730168e-02 1.58730168e-02 3.17460336e-02 0.
      7.93650839e-03 7.93650839e-03 3.17460336e-02 2.38095261e-02
      1.58730168e-02 5.55555597e-02 7.93650821e-02 7.93650839e-03
      1.58730168e-02 1.58730168e-02 1.58730168e-02 7.93650839e-03
      1.58730168e-02 7.93650839e-03 6.34920672e-02 3.17460336e-02 0.
      7.93650839e-03 3.96825410e-02 7.93650839e-03 0. 7.93650839e-03
      7.93650839e-03 7.93650839e-03 3.17460336e-02 2.38095261e-02
      2.38095261e-02 0. 7.93650839e-03 1.58730168e-02 3.17460336e-02
      2.38095261e-02 7.93650839e-03 2.38095261e-02 2.38095261e-02
      7.93650839e-03 7.93650839e-03</_>
    <_>
      2.46753246e-02 1.94805190e-02 2.98701301e-02 1.55844148e-02
      1.42857144e-02 2.85714287e-02 4.41558436e-02 2.59740259e-02
      1.55844148e-02 2.59740259e-02 6.49350649e-03 1.68831162e-02
      2.85714287e-02 1.55844148e-02 2.72727273e-02 1.29870130e-02
      1.81818176e-02 1.68831162e-02 6.49350649e-03 2.59740255e-03
      9.09090880e-03 2.46753246e-02 2.85714287e-02 2.33766232e-02
      1.03896102e-02 3.89610371e-03 9.09090880e-03 2.33766232e-02
      1.55844148e-02 2.59740259e-02 1.29870127e-03 6.49350658e-02
      1.16883116e-02 5.19480510e-03 3.89610371e-03 1.94805190e-02
      3.24675329e-02 2.85714287e-02 2.98701301e-02 2.33766232e-02
      2.59740259e-02 6.49350649e-03 3.11688296e-02 1.81818176e-02
      7.79220741e-03 2.46753246e-02 1.29870130e-02 1.68831162e-02
      5.32467514e-02 1.16883116e-02</_>
    <_>
      1.37931034e-02 1.03448275e-02 1.03448275e-02 1.03448275e-02
      8.62068962e-03 1.37931034e-02 3.10344826e-02 1.37931034e-02
      1.55172413e-02 1.37931034e-02 1.55172413e-02 1.55172413e-02
      2.58620679e-02 6.89655170e-03 2.58620679e-02 1.37931034e-02
      1.20689655e-02 4.13793102e-02 3.10344826e-02 2.93103456e-02
      3.44827585e-03 2.24137940e-02 2.24137940e-02 2.06896551e-02
      1.37931034e-02 3.44827585e-03 1.37931034e-02 1.72413792e-02
      1.55172413e-02 3.10344826e-02 6.89655170e-03 2.24137940e-02
      3.27586196e-02 3.44827585e-03 6.89655170e-03 3.44827585e-02
      5.00000007e-02 1.89655162e-02 1.72413792e-02 3.62068973e-02
      4.31034490e-02 2.75862068e-02 2.41379309e-02 2.24137940e-02
      2.41379309e-02 1.72413792e-02 1.89655162e-02 1.37931034e-02
      3.62068973e-02 2.06896551e-02</_>
    <_>
      2.06489675e-02 2.06489675e-02 2.06489675e-02 1.17994100e-02
      1.76991150e-02 8.84955749e-03 2.35988200e-02 8.84955749e-03
      3.24483775e-02 5.89970499e-03 2.06489675e-02 2.06489675e-02
      1.17994100e-02 2.65486725e-02 2.65486725e-02 1.17994100e-02
      8.84955749e-03 1.76991150e-02 4.12979349e-02 2.65486725e-02
      2.35988200e-02 1.47492625e-02 2.65486725e-02 1.76991150e-02
      2.06489675e-02 8.84955749e-03 3.83480825e-02 1.47492625e-02
      2.65486725e-02 1.17994100e-02 2.06489675e-02 1.47492625e-02
      2.06489675e-02 1.47492625e-02 5.89970499e-03 2.94985250e-03
      3.53982300e-02 2.06489675e-02 1.47492625e-02 2.35988200e-02
      2.06489675e-02 2.65486725e-02 1.76991150e-02 2.06489675e-02
      3.24483775e-02 5.89970499e-03 7.07964599e-02 2.94985250e-02
      8.84955749e-03 5.89970499e-03</_>
    <_>
      6.80272132e-02 1.36054419e-02 4.76190448e-02 6.80272095e-03
      1.36054419e-02 2.04081628e-02 0. 6.80272095e-03 4.08163257e-02
      1.36054419e-02 6.80272095e-03 2.72108838e-02 8.16326514e-02
      6.80272095e-03 4.08163257e-02 2.04081628e-02 6.80272095e-03
      6.80272095e-03 4.08163257e-02 1.36054419e-02 3.40136066e-02
      6.80272095e-03 6.80272095e-03 3.40136066e-02 2.04081628e-02 0.
      2.04081628e-02 4.08163257e-02 6.80272095e-03 1.36054419e-02
      1.36054419e-02 6.80272095e-03 6.80272095e-03 1.36054419e-02
      2.04081628e-02 1.36054419e-02 1.36054419e-02 2.04081628e-02
      2.04081628e-02 6.80272095e-03 0. 2.04081628e-02 6.80272095e-03
      2.72108838e-02 2.72108838e-02 1.36054419e-02 3.40136066e-02
      2.04081628e-02 2.72108838e-02 2.04081628e-02</_>
    <_>
      1.91740412e-02 4.57227156e-02 2.80235987e-02 3.09734512e-02
      1.91740412e-02 2.06489675e-02 1.47492625e-02 2.35988200e-02
      2.50737462e-02 1.76991150e-02 2.06489675e-02 1.32743362e-02
      1.76991150e-02 5.16224205e-02 1.32743362e-02 1.62241887e-02
      1.62241887e-02 1.91740412e-02 2.80235987e-02 2.21238937e-02
      1.76991150e-02 2.35988200e-02 2.50737462e-02 8.84955749e-03
      2.06489675e-02 8.84955749e-03 3.24483775e-02 2.94985250e-02
      2.21238937e-02 1.76991150e-02 1.76991150e-02 2.21238937e-02
      1.32743362e-02 1.32743362e-02 1.17994100e-02 1.03244837e-02
      1.62241887e-02 1.32743362e-02 1.17994100e-02 2.21238937e-02
      1.32743362e-02 1.03244837e-02 1.17994100e-02 1.62241887e-02
      1.76991150e-02 1.03244837e-02 4.42477874e-02 3.24483775e-02
      1.17994100e-02 1.03244837e-02</_>
    <_>
      4.61956523e-02 1.63043477e-02 4.07608710e-02 2.71739140e-02
      2.44565215e-02 6.25000000e-02 2.98913047e-02 2.44565215e-02
      2.44565215e-02 2.44565215e-02 8.15217383e-03 2.98913047e-02
      1.35869570e-02 1.08695654e-02 1.35869570e-02 5.43478271e-03
      1.90217402e-02 1.08695654e-02 2.98913047e-02 5.43478271e-03
      2.17391308e-02 2.71739140e-02 1.63043477e-02 1.08695654e-02
      2.98913047e-02 8.15217383e-03 8.15217383e-03 1.08695654e-02
      1.90217402e-02 1.90217402e-02 1.08695654e-02 2.17391308e-02
      2.17391308e-02 1.08695654e-02 2.17391308e-02 1.08695654e-02
      2.71739140e-02 8.15217383e-03 2.44565215e-02 2.17391308e-02
      1.63043477e-02 8.15217383e-03 1.35869570e-02 1.35869570e-02
      2.71739135e-03 1.90217402e-02 2.44565215e-02 4.34782617e-02
      3.26086953e-02 8.15217383e-03</_>
    <_>
      2.97029689e-02 9.90098994e-03 1.98019799e-02 9.90098994e-03
      9.90098994e-03 1.98019799e-02 1.98019799e-02 1.98019799e-02 0.
      9.90098994e-03 2.97029689e-02 9.90098994e-03 0. 0. 4.95049506e-02
      3.96039598e-02 2.97029689e-02 0. 3.96039598e-02 0. 0.
      7.92079195e-02 1.98019799e-02 4.95049506e-02 0. 0. 0.
      2.97029689e-02 9.90098994e-03 9.90098994e-03 9.90098994e-03
      9.90098994e-03 0. 0. 0. 3.96039598e-02 1.98019799e-02
      3.96039598e-02 9.90098994e-03 1.98019799e-02 1.98019799e-02
      3.96039598e-02 6.93069324e-02 3.96039598e-02 1.98019799e-02
      9.90098994e-03 4.95049506e-02 9.90098994e-03 0. 4.95049506e-02</_>
    <_>
      6.55737706e-03 4.26229499e-02 6.55737706e-03 1.96721312e-02
      1.96721312e-02 2.29508206e-02 1.31147541e-02 3.27868834e-02
      2.62295082e-02 6.55737706e-03 1.63934417e-02 2.62295082e-02
      5.24590164e-02 2.95081958e-02 6.55737706e-03 1.63934417e-02
      1.31147541e-02 1.96721312e-02 2.29508206e-02 6.55737706e-03
      2.95081958e-02 9.83606558e-03 1.96721312e-02 1.31147541e-02
      1.63934417e-02 9.83606558e-03 6.55737706e-03 1.31147541e-02
      1.63934417e-02 3.60655747e-02 9.83606558e-03 1.31147541e-02
      1.31147541e-02 1.31147541e-02 1.31147541e-02 3.27868853e-03
      3.60655747e-02 2.95081958e-02 2.95081958e-02 2.29508206e-02
      2.62295082e-02 2.29508206e-02 9.83606558e-03 1.31147541e-02
      7.21311495e-02 1.31147541e-02 4.59016412e-02 1.63934417e-02
      9.83606558e-03 9.83606558e-03</_>
    <_>
      1.82232354e-02 1.13895219e-02 2.27790438e-02 4.55580885e-03
      1.36674270e-02 6.83371350e-03 2.27790438e-02 1.59453303e-02
      1.36674270e-02 1.13895219e-02 6.83371350e-03 1.82232354e-02
      1.82232354e-02 0. 3.41685675e-02 6.83371350e-03 6.83371350e-03
      1.13895219e-02 7.74487481e-02 1.36674270e-02 2.27790442e-03
      2.96127573e-02 9.11161769e-03 4.32801843e-02 9.11161769e-03
      9.11161769e-03 4.55580885e-03 9.11161769e-03 1.82232354e-02
      4.32801843e-02 1.36674270e-02 9.11161769e-03 2.73348540e-02
      4.55580885e-03 4.55580885e-03 2.73348540e-02 2.05011405e-02
      1.59453303e-02 1.13895219e-02 3.87243740e-02 4.10022810e-02
      2.50569489e-02 4.32801843e-02 3.64464708e-02 3.41685675e-02
      2.27790438e-02 7.06150383e-02 9.11161769e-03 1.36674270e-02
      1.82232354e-02</_>
    <_>
      3.06905359e-02 2.17391308e-02 2.68542189e-02 1.79028139e-02
      1.66240409e-02 2.30179019e-02 3.83631699e-02 2.17391308e-02
      1.91815849e-02 1.91815849e-02 2.04603579e-02 2.04603579e-02
      1.27877237e-03 2.04603579e-02 1.79028139e-02 1.40664959e-02
      2.17391308e-02 2.68542189e-02 3.06905359e-02 2.55754478e-02
      1.66240409e-02 2.04603579e-02 2.68542189e-02 1.53452680e-02
      1.27877239e-02 1.66240409e-02 1.79028139e-02 2.55754478e-02
      1.15089510e-02 2.42966749e-02 1.27877239e-02 3.06905359e-02
      1.91815849e-02 1.15089510e-02 2.04603579e-02 7.67263398e-03
      1.91815849e-02 1.66240409e-02 7.67263398e-03 2.30179019e-02
      1.53452680e-02 2.30179019e-02 1.66240409e-02 1.66240409e-02
      2.17391308e-02 2.81329919e-02 3.06905359e-02 2.94117648e-02
      1.66240409e-02 1.02301789e-02</_>
    <_>
      3.03867422e-02 2.20994484e-02 3.03867422e-02 2.48618796e-02
      2.20994484e-02 2.20994484e-02 3.86740342e-02 3.31491716e-02
      4.41988967e-02 1.93370171e-02 3.03867422e-02 2.76243109e-02
      5.52486209e-03 1.93370171e-02 1.93370171e-02 1.38121555e-02
      8.28729291e-03 1.38121555e-02 1.93370171e-02 2.76243105e-03
      2.48618796e-02 4.41988967e-02 1.93370171e-02 1.38121555e-02
      5.52486209e-03 1.65745858e-02 1.93370171e-02 2.76243109e-02
      1.65745858e-02 8.28729291e-03 1.38121555e-02 1.65745858e-02
      1.38121555e-02 8.28729291e-03 1.65745858e-02 1.65745858e-02
      1.10497242e-02 2.48618796e-02 1.38121555e-02 2.48618796e-02
      1.38121555e-02 1.93370171e-02 2.76243105e-03 2.48618796e-02
      1.65745858e-02 5.52486209e-03 5.80110513e-02 2.76243109e-02
      1.10497242e-02 1.65745858e-02</_>
    <_>
      0. 3.66972461e-02 1.83486231e-02 1.83486231e-02 4.58715577e-03
      1.37614673e-02 4.58715577e-03 2.29357779e-02 2.75229346e-02
      1.83486231e-02 4.58715577e-03 3.21100913e-02 0. 1.83486231e-02
      1.37614673e-02 4.58715577e-03 1.83486231e-02 1.83486231e-02
      4.58715558e-02 4.12844010e-02 1.83486231e-02 1.83486231e-02
      4.58715558e-02 0. 4.58715577e-03 3.21100913e-02 5.50458692e-02
      9.17431153e-03 2.29357779e-02 1.83486231e-02 2.75229346e-02
      3.21100913e-02 1.83486231e-02 2.29357779e-02 2.75229346e-02
      1.37614673e-02 9.17431153e-03 1.83486231e-02 4.58715577e-03
      2.75229346e-02 1.83486231e-02 2.29357779e-02 1.83486231e-02
      2.75229346e-02 3.21100913e-02 2.75229346e-02 4.12844010e-02
      4.58715577e-03 9.17431153e-03 9.17431153e-03</_>
    <_>
      2.11864412e-02 1.48305083e-02 3.60169485e-02 1.05932206e-02
      8.47457629e-03 2.11864412e-02 2.54237279e-02 1.27118640e-02
      8.47457629e-03 3.17796618e-02 3.38983051e-02 2.11864412e-02
      8.47457629e-03 6.35593198e-03 1.90677959e-02 1.05932206e-02
      2.33050846e-02 1.90677959e-02 4.23728824e-02 4.66101691e-02
      1.27118640e-02 2.33050846e-02 2.11864412e-02 1.90677959e-02
      2.11864407e-03 2.11864412e-02 1.48305083e-02 8.47457629e-03
      2.33050846e-02 2.54237279e-02 6.35593198e-03 3.17796618e-02
      1.27118640e-02 4.23728814e-03 1.48305083e-02 1.05932206e-02
      1.48305083e-02 1.90677959e-02 1.48305083e-02 2.54237279e-02
      1.48305083e-02 2.54237279e-02 2.96610165e-02 6.35593198e-03
      2.75423732e-02 2.96610165e-02 6.77966103e-02 1.27118640e-02
      1.90677959e-02 1.90677959e-02</_>
    <_>
      9.11161769e-03 2.27790438e-02 9.11161769e-03 2.73348540e-02
      6.83371350e-03 1.59453303e-02 1.13895219e-02 2.50569489e-02
      2.05011405e-02 1.13895219e-02 1.59453303e-02 1.36674270e-02
      2.05011405e-02 2.96127573e-02 4.55580885e-03 2.05011405e-02
      2.73348540e-02 1.82232354e-02 2.73348540e-02 2.27790438e-02
      2.05011405e-02 2.05011405e-02 2.96127573e-02 1.36674270e-02
      2.50569489e-02 1.82232354e-02 4.32801843e-02 4.10022810e-02
      1.82232354e-02 1.13895219e-02 1.36674270e-02 1.82232354e-02
      1.13895219e-02 9.11161769e-03 1.82232354e-02 9.11161769e-03
      1.59453303e-02 2.05011405e-02 3.64464708e-02 2.27790438e-02
      1.59453303e-02 2.73348540e-02 9.11161769e-03 1.13895219e-02
      1.82232354e-02 9.11161769e-03 5.92255145e-02 3.18906605e-02
      2.27790438e-02 1.82232354e-02</_>
    <_>
      1.19904075e-02 2.15827338e-02 1.43884895e-02 9.59232636e-03
      1.19904075e-02 4.55635488e-02 1.67865716e-02 1.43884895e-02
      5.51558770e-02 6.47482052e-02 7.67386109e-02 9.59232636e-03
      4.31654677e-02 1.19904075e-02 1.19904075e-02 4.79616318e-03
      4.79616318e-03 9.59232636e-03 9.59232636e-03 3.59712243e-02
      4.79616318e-03 9.59232636e-03 3.35731432e-02 2.15827338e-02
      7.19424486e-02 2.39808159e-03 3.59712243e-02 3.59712243e-02
      9.59232636e-03 1.19904075e-02 7.19424477e-03 4.79616318e-03
      1.43884895e-02 9.59232636e-03 2.39808159e-03 1.43884895e-02
      9.59232636e-03 1.43884895e-02 2.39808159e-03 9.59232636e-03
      1.43884895e-02 1.67865716e-02 7.19424477e-03 1.67865716e-02
      1.67865716e-02 1.19904075e-02 6.23501204e-02 2.63788980e-02
      4.79616318e-03 1.19904075e-02</_>
    <_>
      3.36134471e-02 2.52100844e-02 3.36134471e-02 1.68067235e-02
      1.12044821e-02 1.40056023e-02 2.24089641e-02 1.12044821e-02
      1.40056023e-02 3.92156877e-02 5.04201688e-02 5.60224103e-03
      8.40336177e-03 8.40336177e-03 5.60224103e-03 1.40056023e-02
      1.68067235e-02 8.40336177e-03 1.96078438e-02 5.60224093e-02
      1.40056023e-02 5.60224103e-03 2.52100844e-02 0. 2.52100844e-02
      1.96078438e-02 4.76190485e-02 1.12044821e-02 3.08123250e-02
      1.12044821e-02 2.52100844e-02 2.80112047e-02 1.68067235e-02
      1.96078438e-02 1.12044821e-02 2.80112051e-03 1.96078438e-02
      1.96078438e-02 5.60224103e-03 1.96078438e-02 1.96078438e-02
      1.12044821e-02 1.40056023e-02 5.60224103e-03 3.36134471e-02
      1.68067235e-02 3.36134471e-02 4.48179282e-02 1.68067235e-02
      3.08123250e-02</_>
    <_>
      4.63576168e-02 1.98675506e-02 3.97351012e-02 6.62251655e-03
      2.64900662e-02 3.31125818e-02 6.62251655e-03 1.32450331e-02
      6.62251655e-03 2.64900662e-02 2.64900662e-02 2.64900662e-02
      6.62251655e-03 3.31125818e-02 1.32450331e-02 6.62251655e-03
      6.62251655e-03 1.32450331e-02 5.96026480e-02 4.63576168e-02
      1.98675506e-02 1.32450331e-02 0. 1.32450331e-02 0. 1.98675506e-02
      6.62251655e-03 2.64900662e-02 6.62251655e-03 3.31125818e-02
      6.62251655e-03 0. 2.64900662e-02 6.62251655e-03 1.32450331e-02 0.
      3.31125818e-02 3.31125818e-02 0. 1.98675506e-02 2.64900662e-02
      3.97351012e-02 2.64900662e-02 6.62251655e-03 3.31125818e-02
      1.32450331e-02 6.62251636e-02 0. 6.62251655e-03 3.97351012e-02</_>
    <_>
      2.95275599e-02 2.16535442e-02 3.14960629e-02 9.84251965e-03
      1.57480314e-02 1.96850393e-02 2.16535442e-02 1.77165344e-02
      9.84251965e-03 1.57480314e-02 2.55905502e-02 4.92125973e-02
      7.87401572e-03 9.84251965e-03 1.18110236e-02 7.87401572e-03
      2.16535442e-02 1.18110236e-02 4.72440943e-02 3.93700786e-02
      2.75590550e-02 1.77165344e-02 3.74015756e-02 1.96850393e-02
      5.90551179e-03 2.16535442e-02 5.90551179e-03 1.37795275e-02
      1.18110236e-02 3.14960629e-02 9.84251965e-03 2.16535442e-02
      1.57480314e-02 1.37795275e-02 2.36220472e-02 7.87401572e-03
      1.96850393e-02 2.75590550e-02 1.57480314e-02 1.37795275e-02
      2.55905502e-02 3.54330689e-02 1.37795275e-02 5.90551179e-03
      1.18110236e-02 3.54330689e-02 2.55905502e-02 7.87401572e-03
      1.57480314e-02 3.54330689e-02</_>
    <_>
      4.92610820e-02 4.92610829e-03 4.43349741e-02 1.97044332e-02
      1.97044332e-02 2.46305410e-02 3.94088663e-02 1.97044332e-02
      4.92610829e-03 0. 2.95566507e-02 1.97044332e-02 0. 1.47783253e-02
      2.46305410e-02 1.47783253e-02 9.85221658e-03 2.46305410e-02
      8.37438405e-02 4.43349741e-02 1.47783253e-02 3.44827585e-02
      1.47783253e-02 2.95566507e-02 9.85221658e-03 1.97044332e-02 0.
      9.85221658e-03 0. 4.92610829e-03 4.92610829e-03 4.43349741e-02
      9.85221658e-03 9.85221658e-03 4.92610829e-03 1.47783253e-02
      1.47783253e-02 1.97044332e-02 4.92610829e-03 3.44827585e-02
      1.47783253e-02 3.44827585e-02 2.95566507e-02 4.92610829e-03
      4.92610829e-03 1.47783253e-02 8.37438405e-02 0. 1.47783253e-02
      4.92610829e-03</_>
    <_>
      1.66666675e-02 0. 3.33333351e-02 0. 2.50000022e-02 4.16666679e-02
      2.50000022e-02 3.33333351e-02 0. 3.33333351e-02 5.00000045e-02
      2.50000022e-02 6.66666701e-02 0. 5.00000045e-02 2.50000022e-02 0.
      2.50000022e-02 4.16666679e-02 8.33333377e-03 1.66666675e-02
      1.66666675e-02 8.33333377e-03 4.16666679e-02 0. 8.33333377e-03 0.
      2.50000022e-02 0. 0. 1.66666675e-02 2.50000022e-02 1.66666675e-02
      8.33333377e-03 8.33333377e-03 8.33333377e-03 8.33333377e-03
      1.66666675e-02 8.33333377e-03 1.66666675e-02 2.50000022e-02
      1.66666675e-02 8.33333377e-03 4.16666679e-02 4.16666679e-02
      8.33333377e-03 3.33333351e-02 8.33333377e-03 6.66666701e-02 0.</_>
    <_>
      3.18021215e-02 7.06713786e-03 4.24028262e-02 1.76678449e-02
      1.41342757e-02 2.12014131e-02 3.88692580e-02 3.18021215e-02
      1.76678449e-02 3.53356893e-03 2.82685515e-02 7.06713786e-03
      2.12014131e-02 1.06007066e-02 1.06007066e-02 2.47349832e-02
      1.76678449e-02 2.12014131e-02 2.82685515e-02 1.76678449e-02
      2.12014131e-02 2.82685515e-02 4.24028262e-02 1.76678449e-02
      3.53356893e-03 1.06007066e-02 1.06007066e-02 1.76678449e-02
      3.18021215e-02 2.12014131e-02 0. 6.36042431e-02 0. 3.53356893e-03
      7.06713786e-03 2.47349832e-02 5.65371029e-02 2.12014131e-02
      1.06007066e-02 1.06007066e-02 2.12014131e-02 1.06007066e-02
      3.18021215e-02 3.53356893e-03 1.76678449e-02 2.12014131e-02
      4.24028262e-02 1.76678449e-02 7.06713786e-03 1.06007066e-02</_>
    <_>
      6.85714260e-02 3.42857130e-02 4.57142852e-02 1.14285713e-02
      5.71428565e-03 5.71428565e-03 5.71428565e-03 2.28571426e-02
      2.85714287e-02 4.57142852e-02 2.85714287e-02 1.14285713e-02 0. 0.
      1.14285713e-02 2.28571426e-02 0. 1.14285713e-02 3.99999991e-02
      8.57142881e-02 3.99999991e-02 1.14285713e-02 3.99999991e-02
      1.14285713e-02 1.14285713e-02 2.28571426e-02 2.28571426e-02 0.
      5.71428565e-03 5.71428565e-03 1.14285713e-02 1.14285713e-02
      1.14285713e-02 1.71428565e-02 4.57142852e-02 5.71428565e-03
      5.71428565e-03 1.14285713e-02 2.85714287e-02 2.28571426e-02
      5.71428565e-03 1.71428565e-02 0. 3.42857130e-02 1.71428565e-02
      5.71428565e-03 3.42857130e-02 2.85714287e-02 5.71428565e-03
      2.28571426e-02</_>
    <_>
      1.11731840e-02 1.67597756e-02 1.95530728e-02 8.37988779e-03
      1.67597756e-02 1.67597756e-02 3.35195512e-02 1.95530728e-02
      2.51396634e-02 1.39664803e-02 8.37988779e-03 1.95530728e-02
      3.63128483e-02 1.67597756e-02 1.11731840e-02 5.58659201e-03
      1.67597756e-02 2.79329605e-02 8.10055807e-02 1.95530728e-02
      5.58659201e-03 2.51396634e-02 8.37988779e-03 1.11731840e-02
      2.79329605e-02 1.11731840e-02 1.39664803e-02 3.07262558e-02
      2.23463681e-02 8.37988779e-03 5.58659201e-03 4.74860333e-02
      5.58659201e-03 5.58659201e-03 1.39664803e-02 1.39664803e-02
      8.37988779e-03 1.39664803e-02 2.23463681e-02 8.37988779e-03
      1.39664803e-02 3.07262558e-02 3.63128483e-02 1.95530728e-02
      1.11731840e-02 2.23463681e-02 5.58659211e-02 2.79329605e-02
      3.63128483e-02 1.11731840e-02</_>
    <_>
      1.75438598e-02 1.75438598e-02 4.38596494e-02 1.75438598e-02
      1.75438598e-02 8.77192989e-03 5.26315793e-02 8.77192989e-03 0.
      8.77192989e-03 2.63157897e-02 8.77192989e-03 8.77192989e-03 0.
      1.75438598e-02 7.89473653e-02 1.75438598e-02 0. 8.77192989e-03
      8.77192989e-03 3.50877196e-02 4.38596494e-02 1.75438598e-02
      2.63157897e-02 8.77192989e-03 1.75438598e-02 2.63157897e-02
      2.63157897e-02 0. 1.75438598e-02 1.75438598e-02 2.63157897e-02 0.
      1.75438598e-02 1.75438598e-02 2.63157897e-02 8.77192989e-03
      8.77192989e-03 0. 2.63157897e-02 1.75438598e-02 2.63157897e-02
      5.26315793e-02 5.26315793e-02 0. 8.77192989e-03 8.77192989e-02 0.
      1.75438598e-02 0.</_>
    <_>
      2.02702712e-02 2.92792805e-02 1.57657657e-02 1.12612620e-02
      1.35135138e-02 1.57657657e-02 2.92792805e-02 2.25225240e-02
      1.35135138e-02 1.35135138e-02 4.27927934e-02 4.50450480e-02
      1.57657657e-02 1.12612620e-02 1.80180185e-02 4.50450461e-03
      2.02702712e-02 1.80180185e-02 2.47747749e-02 1.35135138e-02
      2.02702712e-02 2.92792805e-02 3.37837860e-02 2.25225240e-02
      6.75675692e-03 2.47747749e-02 1.35135138e-02 1.57657657e-02
      6.75675692e-03 2.47747749e-02 6.75675692e-03 1.35135138e-02
      2.70270277e-02 1.12612620e-02 3.37837860e-02 9.00900923e-03
      1.57657657e-02 3.15315314e-02 6.75675692e-03 2.70270277e-02
      1.80180185e-02 2.92792805e-02 2.25225240e-02 1.57657657e-02
      9.00900923e-03 2.70270277e-02 2.25225240e-02 2.47747749e-02
      1.80180185e-02 3.37837860e-02</_>
    <_>
      2.81690136e-02 3.28638516e-02 1.40845068e-02 3.75586860e-02
      1.40845068e-02 9.38967150e-03 2.81690136e-02 4.69483575e-03
      2.81690136e-02 9.38967150e-03 6.10328652e-02 1.40845068e-02
      9.38967150e-03 4.69483575e-03 1.87793430e-02 0. 4.69483575e-03
      1.40845068e-02 4.22535203e-02 5.16431928e-02 1.40845068e-02
      1.87793430e-02 1.87793430e-02 3.28638516e-02 1.40845068e-02
      1.87793430e-02 1.87793430e-02 4.22535203e-02 1.40845068e-02
      2.81690136e-02 1.40845068e-02 4.69483575e-03 4.69483575e-03
      2.34741792e-02 1.40845068e-02 1.87793430e-02 1.87793430e-02
      9.38967150e-03 2.34741792e-02 1.40845068e-02 4.69483575e-03
      1.87793430e-02 4.69483575e-03 9.38967150e-03 4.69483575e-03
      1.40845068e-02 8.45070407e-02 9.38967150e-03 3.75586860e-02
      1.87793430e-02</_>
    <_>
      3.05343512e-02 1.78117044e-02 3.30788791e-02 2.54452936e-02
      1.01781171e-02 2.29007639e-02 2.29007639e-02 1.01781171e-02
      2.03562342e-02 1.78117044e-02 5.34351133e-02 4.58015278e-02
      7.63358781e-03 1.27226468e-02 5.08905854e-03 1.78117044e-02
      1.52671756e-02 5.08905854e-03 1.01781171e-02 6.87022880e-02
      2.03562342e-02 1.78117044e-02 1.27226468e-02 2.29007639e-02
      1.78117044e-02 2.79898215e-02 1.78117044e-02 3.05343512e-02
      2.03562342e-02 2.29007639e-02 1.27226468e-02 2.29007639e-02
      1.78117044e-02 2.79898215e-02 1.78117044e-02 1.52671756e-02
      1.01781171e-02 1.01781171e-02 2.54452927e-03 1.52671756e-02
      1.01781171e-02 1.52671756e-02 2.54452927e-03 2.03562342e-02
      7.63358781e-03 3.05343512e-02 2.54452936e-02 2.29007639e-02
      1.52671756e-02 3.30788791e-02</_>
    <_>
      3.83795314e-02 3.83795314e-02 4.26439233e-02 2.55863555e-02
      1.49253737e-02 2.34541576e-02 2.34541576e-02 2.13219617e-02
      1.91897657e-02 1.91897657e-02 3.19829434e-02 1.91897657e-02
      2.13219617e-02 4.26439242e-03 1.27931777e-02 8.52878485e-03
      1.70575697e-02 1.27931777e-02 3.62473354e-02 3.41151394e-02
      1.70575697e-02 1.49253737e-02 8.52878485e-03 4.26439242e-03
      1.91897657e-02 2.34541576e-02 1.70575697e-02 1.06609808e-02
      3.62473354e-02 6.39658887e-03 1.91897657e-02 4.90405113e-02
      1.27931777e-02 1.27931777e-02 2.77185515e-02 6.39658887e-03
      4.26439242e-03 2.77185515e-02 1.06609808e-02 1.70575697e-02
      1.27931777e-02 1.27931777e-02 2.13219621e-03 1.49253737e-02
      1.70575697e-02 2.34541576e-02 3.83795314e-02 1.70575697e-02
      3.41151394e-02 1.70575697e-02</_>
    <_>
      4.76190485e-02 1.46520147e-02 4.39560451e-02 2.56410260e-02
      1.83150191e-02 1.83150191e-02 2.56410260e-02 2.56410260e-02 0.
      3.66300368e-03 1.83150191e-02 2.93040294e-02 4.39560451e-02
      2.93040294e-02 1.46520147e-02 0. 1.09890113e-02 7.32600736e-03
      3.66300382e-02 2.93040294e-02 1.09890113e-02 1.46520147e-02
      1.83150191e-02 3.66300368e-03 0. 3.66300382e-02 3.66300368e-03
      7.32600736e-03 3.66300368e-03 1.09890113e-02 2.19780225e-02
      1.46520147e-02 3.29670347e-02 3.66300382e-02 4.02930416e-02
      7.32600736e-03 1.83150191e-02 2.56410260e-02 3.66300368e-03
      5.12820520e-02 7.32600736e-03 2.56410260e-02 3.66300368e-03
      7.32600736e-03 2.19780225e-02 2.19780225e-02 6.22710623e-02
      1.83150191e-02 3.66300368e-03 2.19780225e-02</_>
    <_>
      8.39160848e-03 1.67832170e-02 9.79021005e-03 3.35664339e-02
      3.49650346e-02 2.09790226e-02 1.67832170e-02 2.09790226e-02
      1.25874132e-02 1.67832170e-02 2.65734270e-02 2.23776232e-02
      2.51748264e-02 2.37762239e-02 1.81818195e-02 2.79720291e-03
      2.79720295e-02 1.11888116e-02 3.63636389e-02 2.93706302e-02
      1.39860148e-02 2.65734270e-02 3.21678333e-02 1.67832170e-02 0.
      1.67832170e-02 1.67832170e-02 2.09790226e-02 2.09790226e-02
      2.79720295e-02 1.67832170e-02 8.39160848e-03 1.39860148e-02
      1.11888116e-02 1.39860148e-02 8.39160848e-03 1.95804201e-02
      2.65734270e-02 1.53846163e-02 1.67832170e-02 9.79021005e-03
      3.77622396e-02 2.09790226e-02 3.07692327e-02 2.37762239e-02
      2.23776232e-02 3.91608402e-02 1.53846163e-02 2.65734270e-02
      1.39860148e-02</_>
    <_>
      2.96495948e-02 2.96495948e-02 4.85175177e-02 2.42587589e-02
      1.61725059e-02 1.61725059e-02 2.96495948e-02 2.96495948e-02
      2.42587589e-02 2.96495948e-02 1.88679248e-02 4.31266837e-02
      1.07816709e-02 1.07816709e-02 1.61725059e-02 8.08625296e-03
      1.34770889e-02 1.07816709e-02 5.12129366e-02 3.23450118e-02
      1.07816709e-02 1.61725059e-02 5.39083546e-03 2.69541773e-03
      1.88679248e-02 2.42587589e-02 1.07816709e-02 5.39083546e-03 0.
      1.61725059e-02 1.34770889e-02 2.42587589e-02 1.34770889e-02
      8.08625296e-03 2.69541778e-02 2.69541773e-03 1.61725059e-02
      2.69541778e-02 5.39083546e-03 2.15633418e-02 2.69541773e-03
      1.34770889e-02 5.39083546e-03 2.96495948e-02 8.08625296e-03
      3.50404307e-02 6.19946085e-02 2.15633418e-02 3.23450118e-02
      2.69541778e-02</_>
    <_>
      4.34782589e-03 1.30434781e-02 1.73913036e-02 1.30434781e-02
      1.95652172e-02 1.73913036e-02 1.95652172e-02 2.17391294e-03
      1.08695645e-02 1.52173908e-02 1.30434781e-02 2.82608680e-02
      3.47826071e-02 2.82608680e-02 1.73913036e-02 1.95652172e-02
      8.69565178e-03 1.52173908e-02 3.69565189e-02 2.17391290e-02
      1.95652172e-02 3.26086953e-02 1.08695645e-02 4.56521735e-02
      1.30434781e-02 1.73913036e-02 1.73913036e-02 3.91304344e-02
      1.30434781e-02 1.30434781e-02 1.08695645e-02 0. 2.17391290e-02
      8.69565178e-03 8.69565178e-03 2.82608680e-02 1.95652172e-02
      2.17391290e-02 6.52173907e-03 3.47826071e-02 1.73913036e-02
      3.91304344e-02 1.73913036e-02 4.56521735e-02 2.82608680e-02
      6.52173907e-03 5.86956479e-02 1.73913036e-02 6.52173907e-03
      2.39130426e-02</_>
    <_>
      2.10084040e-02 2.52100863e-02 2.52100863e-02 8.40336177e-03
      1.68067235e-02 2.52100863e-02 1.68067235e-02 4.20168079e-02
      4.20168089e-03 1.26050431e-02 1.68067235e-02 1.68067235e-02 0.
      3.36134471e-02 1.68067235e-02 8.40336177e-03 1.68067235e-02
      3.78151275e-02 5.88235334e-02 2.10084040e-02 2.94117667e-02
      2.52100863e-02 1.26050431e-02 3.36134471e-02 4.20168089e-03
      4.20168089e-03 1.68067235e-02 2.10084040e-02 4.20168089e-03
      3.78151275e-02 4.20168089e-03 6.72268942e-02 2.10084040e-02
      1.26050431e-02 8.40336177e-03 1.68067235e-02 2.52100863e-02
      8.40336177e-03 8.40336177e-03 2.94117667e-02 8.40336177e-03 0.
      8.40336177e-03 2.10084040e-02 1.68067235e-02 4.20168089e-03
      4.20168079e-02 8.40336177e-03 5.04201725e-02 2.52100863e-02</_>
    <_>
      2.20994484e-02 1.65745858e-02 1.65745858e-02 0. 5.52486209e-03
      3.86740342e-02 3.31491716e-02 2.20994484e-02 1.65745858e-02
      3.31491716e-02 1.10497242e-02 3.31491716e-02 3.31491716e-02 0.
      3.31491716e-02 1.65745858e-02 0. 2.76243109e-02 4.97237593e-02
      4.41988967e-02 2.20994484e-02 2.76243109e-02 1.10497242e-02
      1.10497242e-02 5.52486209e-03 2.20994484e-02 2.20994484e-02
      1.10497242e-02 5.52486209e-03 2.20994484e-02 1.10497242e-02
      1.65745858e-02 2.76243109e-02 5.52486209e-03 5.52486209e-03
      1.65745858e-02 0. 1.65745858e-02 1.65745858e-02 2.76243109e-02
      1.10497242e-02 2.20994484e-02 1.65745858e-02 2.20994484e-02
      1.65745858e-02 2.76243109e-02 4.41988967e-02 3.86740342e-02
      1.10497242e-02 3.31491716e-02</_>
    <_>
      0. 0. 2.91970801e-02 7.29927002e-03 7.29927002e-03 1.45985400e-02
      4.37956192e-02 1.45985400e-02 0. 2.18978096e-02 0. 4.37956192e-02
      3.64963487e-02 0. 2.91970801e-02 5.10948896e-02 1.45985400e-02
      2.18978096e-02 1.45985400e-02 7.29927002e-03 0. 2.91970801e-02
      7.29927002e-03 4.37956192e-02 0. 1.45985400e-02 2.91970801e-02
      8.02919716e-02 7.29927002e-03 0. 7.29927002e-03 2.18978096e-02
      7.29927002e-03 7.29927002e-03 7.29927002e-03 7.29926974e-02
      2.18978096e-02 2.18978096e-02 0. 2.91970801e-02 1.45985400e-02
      3.64963487e-02 2.18978096e-02 2.91970801e-02 1.45985400e-02
      7.29927002e-03 4.37956192e-02 1.45985400e-02 3.64963487e-02
      1.45985400e-02</_>
    <_>
      1.67597774e-02 5.40037267e-02 2.60707643e-02 5.58659248e-03
      1.11731850e-02 1.48975793e-02 2.97951587e-02 9.31098685e-03
      3.16573568e-02 1.30353821e-02 4.28305417e-02 3.72439483e-03
      2.60707643e-02 2.42085662e-02 1.11731850e-02 1.30353821e-02
      1.11731850e-02 9.31098685e-03 2.60707643e-02 6.51769117e-02
      3.72439474e-02 5.58659248e-03 4.84171323e-02 1.48975793e-02
      1.48975793e-02 1.11731850e-02 3.16573568e-02 5.02793305e-02
      9.31098685e-03 1.67597774e-02 1.11731850e-02 7.44878966e-03
      1.48975793e-02 1.86219737e-02 7.44878966e-03 5.58659248e-03
      9.31098685e-03 1.48975793e-02 1.86219737e-02 1.48975793e-02
      1.48975793e-02 1.86219737e-02 1.30353821e-02 1.48975793e-02
      1.86219737e-02 1.48975793e-02 5.40037267e-02 1.67597774e-02
      9.31098685e-03 1.67597774e-02</_>
    <_>
      1.42045459e-02 5.11363670e-02 1.42045459e-02 8.52272753e-03
      8.52272753e-03 8.52272753e-03 3.12500000e-02 8.52272753e-03
      1.98863633e-02 1.98863633e-02 1.13636367e-02 1.42045459e-02
      4.82954569e-02 4.54545468e-02 3.12500000e-02 1.42045459e-02
      1.70454551e-02 3.12500000e-02 2.55681835e-02 1.13636367e-02
      4.54545468e-02 2.55681835e-02 3.97727266e-02 3.12500000e-02
      2.55681835e-02 2.84090918e-03 1.42045459e-02 4.54545468e-02
      8.52272753e-03 1.13636367e-02 8.52272753e-03 8.52272753e-03
      1.42045459e-02 0. 2.84090918e-03 2.55681835e-02 1.98863633e-02
      2.27272734e-02 4.82954569e-02 1.13636367e-02 1.98863633e-02
      5.68181835e-03 1.13636367e-02 2.55681835e-02 3.12500000e-02
      2.84090918e-03 3.40909101e-02 8.52272753e-03 1.13636367e-02
      2.84090918e-03</_>
    <_>
      2.40963846e-02 6.02409616e-03 6.02409616e-03 2.40963846e-02
      1.80722885e-02 6.02409616e-03 3.61445770e-02 6.02409616e-03
      1.20481923e-02 6.02409616e-03 1.20481923e-02 2.40963846e-02
      1.80722885e-02 0. 1.20481923e-02 4.21686731e-02 6.02409616e-03
      2.40963846e-02 5.42168655e-02 2.40963846e-02 4.21686731e-02
      1.80722885e-02 1.80722885e-02 3.01204808e-02 1.20481923e-02
      1.20481923e-02 2.40963846e-02 3.61445770e-02 1.80722885e-02
      2.40963846e-02 1.80722885e-02 1.20481923e-02 1.80722885e-02
      1.80722885e-02 1.20481923e-02 1.80722885e-02 1.20481923e-02
      2.40963846e-02 1.20481923e-02 1.80722885e-02 3.01204808e-02
      6.02409616e-02 6.02409616e-03 2.40963846e-02 0. 1.80722885e-02
      2.40963846e-02 2.40963846e-02 1.20481923e-02 4.21686731e-02</_>
    <_>
      2.16346160e-02 2.40384620e-02 2.88461559e-02 4.80769249e-03
      1.44230779e-02 2.40384620e-02 2.16346160e-02 3.12500000e-02
      1.44230779e-02 1.44230779e-02 2.16346160e-02 2.40384620e-02
      2.16346160e-02 7.21153896e-03 1.92307699e-02 2.88461559e-02
      1.20192310e-02 9.61538497e-03 2.16346160e-02 9.61538497e-03
      2.16346160e-02 2.64423080e-02 1.20192310e-02 3.84615399e-02
      2.16346160e-02 2.64423080e-02 2.88461559e-02 1.68269239e-02
      4.80769249e-03 9.61538497e-03 9.61538497e-03 2.88461559e-02
      4.80769249e-03 4.80769249e-03 2.88461559e-02 1.68269239e-02
      1.20192310e-02 2.64423080e-02 1.20192310e-02 1.92307699e-02
      1.20192310e-02 4.32692319e-02 1.20192310e-02 1.92307699e-02
      2.64423080e-02 3.36538479e-02 4.08653878e-02 2.16346160e-02
      1.44230779e-02 3.12500000e-02</_>
    <_>
      1.31147541e-02 1.31147541e-02 1.31147541e-02 9.83606558e-03
      3.27868853e-03 9.83606558e-03 2.62295082e-02 6.55737706e-03
      2.29508206e-02 3.60655747e-02 1.96721312e-02 0. 3.93442623e-02
      2.95081958e-02 4.26229499e-02 2.62295082e-02 3.27868853e-03
      1.96721312e-02 2.62295082e-02 6.55737706e-03 1.63934417e-02
      3.93442623e-02 1.63934417e-02 2.62295082e-02 1.63934417e-02 0.
      3.93442623e-02 4.91803288e-02 1.63934417e-02 1.63934417e-02
      9.83606558e-03 1.96721312e-02 6.55737706e-03 9.83606558e-03 0.
      1.96721312e-02 1.63934417e-02 3.27868853e-03 2.29508206e-02
      1.63934417e-02 3.93442623e-02 2.95081958e-02 3.60655747e-02
      1.96721312e-02 3.27868853e-03 1.63934417e-02 6.55737668e-02
      3.60655747e-02 1.31147541e-02 1.31147541e-02</_>
    <_>
      3.52564119e-02 3.20512825e-03 1.60256419e-02 3.52564119e-02
      1.60256419e-02 1.28205130e-02 1.60256419e-02 1.60256419e-02
      1.28205130e-02 3.20512839e-02 1.92307699e-02 1.60256419e-02
      1.28205130e-02 6.41025649e-03 6.41025649e-03 2.88461540e-02
      9.61538497e-03 3.84615399e-02 4.80769239e-02 7.69230798e-02 0.
      9.61538497e-03 2.24358980e-02 1.92307699e-02 1.60256419e-02
      2.56410260e-02 5.12820520e-02 2.56410260e-02 1.92307699e-02
      1.28205130e-02 1.92307699e-02 2.24358980e-02 1.60256419e-02
      2.24358980e-02 1.60256419e-02 3.20512825e-03 1.92307699e-02
      1.60256419e-02 1.28205130e-02 1.60256419e-02 2.56410260e-02
      1.28205130e-02 6.41025649e-03 6.41025649e-03 6.41025649e-03
      1.60256419e-02 3.84615399e-02 3.84615399e-02 6.41025649e-03
      1.92307699e-02</_>
    <_>
      3.51758786e-02 1.17252935e-02 2.51256283e-02 2.01005023e-02
      1.34003349e-02 2.17755437e-02 1.67504176e-02 1.50753763e-02
      1.67504176e-02 1.34003349e-02 1.34003349e-02 1.34003349e-02
      1.17252935e-02 1.34003349e-02 5.02512557e-03 1.00502511e-02
      1.67504176e-02 2.01005023e-02 3.51758786e-02 1.84254609e-02
      1.67504176e-02 1.00502511e-02 2.84757111e-02 1.34003349e-02
      1.22278057e-01 2.68006697e-02 3.18257958e-02 4.18760478e-02
      1.50753763e-02 1.34003349e-02 1.67504176e-02 6.70016743e-03
      1.84254609e-02 1.00502511e-02 3.01507525e-02 8.37520882e-03
      2.17755437e-02 1.67504176e-02 8.37520882e-03 1.00502511e-02
      1.00502511e-02 1.17252935e-02 1.00502511e-02 6.70016743e-03
      3.01507525e-02 2.34505869e-02 2.84757111e-02 3.68509218e-02
      6.70016743e-03 2.17755437e-02</_>
    <_>
      3.01886797e-02 1.69811323e-02 2.64150947e-02 3.77358496e-03
      1.88679248e-02 2.07547173e-02 2.07547173e-02 1.50943398e-02
      7.54716992e-03 2.07547173e-02 2.45283023e-02 3.58490571e-02
      1.13207549e-02 1.13207549e-02 1.88679248e-02 1.50943398e-02
      9.43396240e-03 9.43396240e-03 3.39622647e-02 4.15094346e-02
      3.01886797e-02 1.50943398e-02 1.50943398e-02 1.32075474e-02
      1.32075474e-02 2.83018872e-02 2.45283023e-02 2.07547173e-02
      2.07547173e-02 1.32075474e-02 1.88679248e-02 2.07547173e-02
      1.13207549e-02 9.43396240e-03 3.20754722e-02 2.64150947e-02
      1.13207549e-02 1.50943398e-02 5.66037744e-03 1.32075474e-02
      1.88679248e-02 1.88679248e-02 3.96226421e-02 2.07547173e-02
      1.69811323e-02 2.07547173e-02 6.41509444e-02 7.54716992e-03
      1.32075474e-02 2.83018872e-02</_>
    <_>
      4.14507762e-02 2.07253881e-02 3.10880821e-02 5.18134702e-03
      1.55440411e-02 2.07253881e-02 2.07253881e-02 1.55440411e-02
      2.07253881e-02 1.55440411e-02 2.07253881e-02 5.69948182e-02
      5.18134702e-03 3.10880821e-02 5.18134702e-03 0. 1.03626940e-02
      5.18134702e-03 6.21761642e-02 4.14507762e-02 2.59067342e-02
      2.07253881e-02 1.55440411e-02 5.18134702e-03 5.18134702e-03
      1.55440411e-02 5.18134702e-03 0. 1.55440411e-02 2.07253881e-02
      3.10880821e-02 5.18134702e-03 1.03626940e-02 1.03626940e-02
      5.18134683e-02 0. 1.03626940e-02 2.07253881e-02 1.55440411e-02
      3.10880821e-02 5.18134702e-03 1.03626940e-02 0. 1.03626940e-02
      3.10880821e-02 2.59067342e-02 7.77202025e-02 1.55440411e-02
      2.07253881e-02 4.14507762e-02</_>
    <_>
      2.23463681e-02 2.23463681e-02 1.67597756e-02 2.79329605e-02
      5.58659201e-03 2.51396634e-02 2.23463681e-02 1.39664803e-02
      4.46927361e-02 1.39664803e-02 3.91061455e-02 1.11731840e-02
      3.35195512e-02 2.79329605e-02 1.11731840e-02 1.11731840e-02
      8.37988779e-03 8.37988779e-03 2.51396634e-02 4.18994389e-02
      2.51396634e-02 1.39664803e-02 1.95530728e-02 2.23463681e-02
      8.37988779e-03 0. 5.02793267e-02 5.86592145e-02 5.58659201e-03
      1.67597756e-02 2.51396634e-02 2.51396634e-02 8.37988779e-03
      8.37988779e-03 0. 5.58659201e-03 1.67597756e-02 1.39664803e-02
      2.51396634e-02 2.79329601e-03 1.95530728e-02 5.58659201e-03
      1.11731840e-02 1.39664803e-02 1.95530728e-02 2.51396634e-02
      4.46927361e-02 4.46927361e-02 3.07262558e-02 0.</_>
    <_>
      1.61662810e-02 2.07852200e-02 6.92840666e-03 2.54041571e-02
      1.84757505e-02 9.23787523e-03 9.23787523e-03 1.84757505e-02
      2.77136266e-02 1.15473438e-02 9.23787523e-03 2.77136266e-02
      2.54041571e-02 1.61662810e-02 2.54041571e-02 1.61662810e-02
      2.54041571e-02 2.07852200e-02 3.46420333e-02 3.23325619e-02
      6.92840666e-03 2.54041571e-02 3.23325619e-02 2.30946876e-02
      1.15473438e-02 6.92840666e-03 9.23787523e-03 6.92840666e-02
      6.92840666e-03 2.30946876e-02 2.30946881e-03 2.77136266e-02
      9.23787523e-03 9.23787523e-03 1.61662810e-02 1.15473438e-02
      9.23787523e-03 1.61662810e-02 1.84757505e-02 9.23787523e-03
      2.54041571e-02 2.30946876e-02 1.61662810e-02 1.61662810e-02
      2.07852200e-02 1.84757505e-02 7.15935305e-02 1.38568133e-02
      3.00230943e-02 2.30946876e-02</_>
    <_>
      1.58311352e-02 2.11081803e-02 5.27704507e-03 1.84696577e-02
      5.27704507e-03 1.58311352e-02 1.05540901e-02 7.91556761e-03
      2.37467028e-02 1.31926127e-02 2.90237479e-02 1.31926127e-02
      2.90237479e-02 1.31926127e-02 2.90237479e-02 2.90237479e-02
      2.90237479e-02 2.11081803e-02 1.31926127e-02 1.58311352e-02
      3.16622704e-02 2.63852254e-02 3.69393155e-02 1.84696577e-02
      2.37467028e-02 2.63852254e-03 1.31926127e-02 4.48548831e-02
      2.37467028e-02 1.05540901e-02 7.91556761e-03 2.63852254e-02
      7.91556761e-03 1.31926127e-02 0. 2.90237479e-02 1.31926127e-02
      1.58311352e-02 3.16622704e-02 2.63852254e-03 2.63852254e-02
      1.84696577e-02 2.63852254e-02 1.05540901e-02 2.63852254e-03
      7.91556761e-03 1.10817946e-01 3.16622704e-02 1.84696577e-02
      7.91556761e-03</_>
    <_>
      2.21606642e-02 2.77008303e-02 1.10803321e-02 1.93905812e-02
      3.87811624e-02 1.93905812e-02 8.31024908e-03 3.32409963e-02
      2.21606642e-02 1.10803321e-02 4.15512472e-02 5.54016605e-02
      5.54016605e-03 1.66204982e-02 8.31024908e-03 2.77008303e-02
      1.93905812e-02 8.31024908e-03 3.60110775e-02 3.87811624e-02
      2.77008303e-02 8.31024908e-03 1.38504151e-02 1.10803321e-02
      5.54016605e-03 3.32409963e-02 2.49307472e-02 2.49307472e-02
      2.77008303e-02 5.54016605e-03 2.21606642e-02 4.15512472e-02
      1.38504151e-02 1.38504151e-02 2.49307472e-02 2.77008303e-03
      1.10803321e-02 1.38504151e-02 1.66204982e-02 2.49307472e-02
      2.77008303e-03 8.31024908e-03 0. 1.66204982e-02 1.66204982e-02
      1.66204982e-02 3.87811624e-02 1.10803321e-02 3.87811624e-02
      1.10803321e-02</_>
    <_>
      3.82882878e-02 9.00900923e-03 2.70270277e-02 2.92792805e-02
      1.12612620e-02 2.47747749e-02 1.57657657e-02 2.47747749e-02
      2.02702712e-02 2.47747749e-02 2.47747749e-02 2.25225240e-02
      1.80180185e-02 1.12612620e-02 2.02702712e-02 4.50450461e-03
      1.80180185e-02 2.02702712e-02 4.95495498e-02 4.05405425e-02
      9.00900923e-03 6.75675692e-03 2.25225240e-02 1.12612620e-02
      1.12612620e-02 1.80180185e-02 2.70270277e-02 1.80180185e-02
      1.57657657e-02 2.92792805e-02 1.35135138e-02 2.92792805e-02
      1.12612620e-02 1.80180185e-02 1.80180185e-02 1.57657657e-02
      1.12612620e-02 6.75675692e-03 1.35135138e-02 2.02702712e-02
      2.02702712e-02 1.80180185e-02 2.25225240e-02 6.75675692e-03
      9.00900923e-03 1.12612620e-02 6.30630627e-02 2.70270277e-02
      1.80180185e-02 2.25225240e-02</_>
    <_>
      2.09790207e-02 0. 6.99300691e-03 1.39860138e-02 2.79720277e-02
      4.19580415e-02 2.09790207e-02 2.79720277e-02 6.99300691e-03
      6.99300691e-03 2.09790207e-02 3.49650346e-02 3.49650346e-02 0.
      2.79720277e-02 4.19580415e-02 6.99300691e-03 6.99300691e-03
      2.09790207e-02 6.99300691e-03 6.99300691e-03 4.89510484e-02
      1.39860138e-02 6.99300691e-02 6.99300691e-03 1.39860138e-02
      1.39860138e-02 1.39860138e-02 6.99300691e-03 2.09790207e-02
      1.39860138e-02 6.99300691e-03 2.09790207e-02 1.39860138e-02
      6.99300691e-03 5.59440553e-02 3.49650346e-02 0. 6.99300691e-03
      3.49650346e-02 6.99300691e-03 6.29370660e-02 0. 2.79720277e-02
      6.99300691e-03 3.49650346e-02 3.49650346e-02 2.09790207e-02 0.
      1.39860138e-02</_>
    <_>
      2.08333340e-02 1.62037034e-02 1.62037034e-02 2.08333340e-02
      1.15740746e-02 1.62037034e-02 3.47222239e-02 2.31481483e-03
      2.08333340e-02 1.38888890e-02 3.00925933e-02 3.24074067e-02
      3.70370373e-02 3.47222239e-02 2.31481493e-02 1.15740746e-02
      1.38888890e-02 9.25925933e-03 1.85185187e-02 1.15740746e-02
      3.24074067e-02 2.08333340e-02 4.62962985e-02 2.08333340e-02
      1.15740746e-02 2.08333340e-02 9.25925933e-03 5.55555560e-02
      1.62037034e-02 1.15740746e-02 2.31481493e-02 1.62037034e-02
      1.15740746e-02 1.15740746e-02 4.62962966e-03 1.62037034e-02
      1.15740746e-02 3.24074067e-02 1.62037034e-02 9.25925933e-03
      2.54629627e-02 3.93518507e-02 2.08333340e-02 1.38888890e-02
      6.94444450e-03 1.62037034e-02 4.62962985e-02 1.62037034e-02
      1.38888890e-02 6.94444450e-03</_>
    <_>
      1.83150191e-02 2.19780225e-02 3.29670347e-02 2.93040294e-02
      1.83150191e-02 1.83150191e-02 3.66300368e-03 1.83150191e-02
      3.29670347e-02 7.32600736e-03 2.19780225e-02 2.56410260e-02
      1.46520147e-02 3.66300368e-03 1.46520147e-02 1.83150191e-02
      3.66300382e-02 1.09890113e-02 7.32600736e-03 1.09890113e-02
      3.29670347e-02 1.46520147e-02 2.19780225e-02 2.56410260e-02
      7.32600736e-03 2.93040294e-02 2.19780225e-02 2.56410260e-02
      1.09890113e-02 1.09890113e-02 7.32600736e-03 4.02930416e-02
      1.83150191e-02 1.46520147e-02 1.46520147e-02 7.32600736e-03
      2.19780225e-02 3.29670347e-02 2.19780225e-02 1.09890113e-02
      2.56410260e-02 2.56410260e-02 2.56410260e-02 3.66300368e-03
      2.56410260e-02 4.76190485e-02 4.39560451e-02 1.83150191e-02
      1.46520147e-02 1.09890113e-02</_>
    <_>
      1.13636367e-02 1.89393945e-02 1.89393945e-02 3.40909101e-02
      1.13636367e-02 1.89393945e-02 7.57575780e-03 1.89393945e-02
      1.51515156e-02 1.51515156e-02 1.89393945e-02 3.78787890e-02
      2.65151523e-02 3.40909101e-02 1.89393945e-02 3.78787890e-03
      1.89393945e-02 1.89393945e-02 2.65151523e-02 1.89393945e-02
      1.13636367e-02 3.78787890e-03 3.78787890e-02 7.57575780e-03
      1.51515156e-02 1.51515156e-02 2.65151523e-02 7.57575780e-03
      2.65151523e-02 3.03030312e-02 1.13636367e-02 1.51515156e-02
      3.78787890e-03 1.51515156e-02 1.51515156e-02 1.13636367e-02
      1.13636367e-02 3.03030312e-02 2.65151523e-02 3.03030312e-02
      7.57575780e-03 7.57575780e-03 1.51515156e-02 2.65151523e-02
      4.92424257e-02 1.51515156e-02 6.81818202e-02 2.27272734e-02
      2.65151523e-02 1.51515156e-02</_>
    <_>
      0. 2.04081628e-02 2.04081628e-02 1.63265299e-02 4.08163257e-02
      4.48979586e-02 2.04081628e-02 1.22448970e-02 1.22448970e-02
      2.44897939e-02 0. 1.63265299e-02 1.22448970e-02 2.44897939e-02
      2.85714269e-02 2.85714269e-02 0. 2.04081628e-02 2.85714269e-02
      3.26530598e-02 1.63265299e-02 2.04081628e-02 2.44897939e-02
      1.22448970e-02 1.63265299e-02 4.08163248e-03 3.26530598e-02
      4.08163257e-02 1.22448970e-02 8.16326495e-03 0. 4.48979586e-02 0.
      0. 8.16326495e-03 1.22448970e-02 1.22448970e-02 8.16326495e-03
      1.22448970e-02 1.22448970e-02 1.63265299e-02 2.85714269e-02
      3.26530598e-02 1.63265299e-02 1.63265299e-02 1.22448970e-02
      7.75510147e-02 3.26530598e-02 4.48979586e-02 2.04081628e-02</_>
    <_>
      2.24215258e-02 1.79372206e-02 2.24215258e-02 8.96861032e-03
      2.69058309e-02 2.24215258e-02 2.24215258e-02 1.34529155e-02
      1.34529155e-02 1.79372206e-02 5.38116619e-02 2.69058309e-02
      2.24215258e-02 1.34529155e-02 2.24215258e-02 8.96861032e-03
      4.48430516e-03 1.34529155e-02 3.13901380e-02 3.58744413e-02
      3.13901380e-02 1.34529155e-02 2.69058309e-02 3.58744413e-02
      8.96861032e-03 2.24215258e-02 1.79372206e-02 4.48430516e-02
      2.69058309e-02 1.79372206e-02 4.48430516e-03 0. 1.34529155e-02
      8.96861032e-03 2.24215258e-02 4.48430516e-03 2.24215258e-02
      8.96861032e-03 2.24215258e-02 8.96861032e-03 1.34529155e-02
      2.69058309e-02 0. 2.24215258e-02 4.03587446e-02 2.69058309e-02
      2.69058309e-02 3.58744413e-02 8.96861032e-03 1.34529155e-02</_>
    <_>
      2.04460956e-02 3.15985121e-02 2.23048329e-02 1.11524165e-02
      2.23048329e-02 2.78810412e-02 2.97397766e-02 2.23048329e-02
      1.30111519e-02 2.04460956e-02 2.41635684e-02 2.60223038e-02
      7.43494416e-03 1.85873602e-02 1.30111519e-02 2.41635684e-02
      9.29368008e-03 1.85873602e-02 2.41635684e-02 2.23048329e-02
      7.43494416e-03 1.11524165e-02 1.67286247e-02 2.41635684e-02
      7.43494416e-03 2.41635684e-02 1.67286247e-02 2.97397766e-02
      1.85873602e-02 1.67286247e-02 2.04460956e-02 1.48698883e-02
      9.29368008e-03 1.11524165e-02 4.08921912e-02 1.48698883e-02
      2.04460956e-02 2.23048329e-02 7.43494416e-03 3.15985121e-02
      3.15985121e-02 2.04460956e-02 2.04460956e-02 1.67286247e-02
      3.15985121e-02 1.85873602e-02 3.71747203e-02 1.67286247e-02
      1.30111519e-02 1.85873602e-02</_>
    <_>
      2.84090918e-02 3.40909101e-02 1.70454551e-02 2.27272734e-02
      5.68181835e-03 1.70454551e-02 5.68181835e-03 5.68181835e-03
      1.70454551e-02 0. 1.70454551e-02 1.13636367e-02 3.97727266e-02
      5.68181835e-03 2.84090918e-02 0. 1.13636367e-02 0. 3.97727266e-02
      2.27272734e-02 1.70454551e-02 3.97727266e-02 5.68181835e-03
      4.54545468e-02 0. 1.70454551e-02 5.68181835e-03 2.27272734e-02
      5.68181835e-03 0. 1.70454551e-02 1.13636367e-02 2.27272734e-02
      2.27272734e-02 5.68181835e-03 4.54545468e-02 1.13636367e-02
      1.70454551e-02 0. 2.27272734e-02 4.54545468e-02 2.27272734e-02
      9.09090936e-02 5.68181835e-03 1.13636367e-02 2.27272734e-02
      8.52272734e-02 1.70454551e-02 1.13636367e-02 2.27272734e-02</_>
    <_>
      1.90023761e-02 1.90023761e-02 1.18764853e-02 1.42517816e-02
      2.37529706e-02 1.90023761e-02 3.32541578e-02 2.61282679e-02
      2.13776734e-02 1.42517816e-02 2.13776734e-02 4.51306440e-02
      7.12589081e-03 2.61282679e-02 1.18764853e-02 2.37529702e-03
      1.18764853e-02 2.61282679e-02 2.37529706e-02 9.50118806e-03
      9.50118806e-03 2.37529706e-02 1.42517816e-02 2.13776734e-02
      2.37529702e-03 2.61282679e-02 4.75059403e-03 2.13776734e-02
      2.61282679e-02 4.27553467e-02 1.66270789e-02 1.42517816e-02
      3.08788605e-02 1.66270789e-02 2.85035633e-02 9.50118806e-03
      1.90023761e-02 3.08788605e-02 1.66270789e-02 9.50118806e-03
      2.13776734e-02 4.98812385e-02 1.90023761e-02 1.66270789e-02
      1.18764853e-02 2.61282679e-02 3.80047522e-02 9.50118806e-03
      1.42517816e-02 2.13776734e-02</_>
    <_>
      1.08695654e-02 7.24637695e-03 2.17391308e-02 1.08695654e-02
      1.81159414e-02 7.24637695e-03 2.53623202e-02 2.17391308e-02
      7.24637695e-03 7.24637695e-03 7.24637695e-03 3.26086953e-02
      5.43478280e-02 7.24637695e-03 1.81159414e-02 2.17391308e-02 0.
      1.81159414e-02 7.24637695e-03 0. 0. 2.53623202e-02 2.53623202e-02
      4.71014492e-02 3.62318847e-03 1.81159414e-02 7.24637695e-03
      6.52173907e-02 1.44927539e-02 2.53623202e-02 1.08695654e-02 0.
      2.17391308e-02 7.24637695e-03 1.08695654e-02 3.98550741e-02
      3.62318847e-03 2.89855078e-02 1.81159414e-02 3.26086953e-02
      2.53623202e-02 4.34782617e-02 4.34782617e-02 3.98550741e-02
      1.08695654e-02 2.17391308e-02 5.07246405e-02 1.81159414e-02
      1.81159414e-02 1.81159414e-02</_>
    <_>
      1.02564106e-02 2.56410260e-02 2.56410260e-02 1.53846163e-02
      5.12820529e-03 4.10256423e-02 3.07692327e-02 2.05128212e-02
      2.56410260e-02 2.05128212e-02 1.53846163e-02 3.07692327e-02
      1.02564106e-02 1.02564106e-02 1.53846163e-02 1.53846163e-02
      1.02564106e-02 0. 5.12820520e-02 2.56410260e-02 2.05128212e-02
      3.07692327e-02 1.02564106e-02 4.10256423e-02 1.02564106e-02
      2.56410260e-02 2.56410260e-02 2.56410260e-02 5.12820529e-03
      2.56410260e-02 1.53846163e-02 5.12820529e-03 2.56410260e-02
      1.53846163e-02 3.58974375e-02 1.02564106e-02 1.02564106e-02
      1.53846163e-02 1.53846163e-02 2.05128212e-02 5.12820529e-03
      2.56410260e-02 1.02564106e-02 2.05128212e-02 1.53846163e-02
      2.56410260e-02 5.12820520e-02 1.02564106e-02 5.12820529e-03
      3.58974375e-02</_>
    <_>
      4.38871458e-02 3.13479602e-02 3.76175530e-02 2.19435729e-02
      2.50783693e-02 9.40438826e-03 1.25391847e-02 1.56739801e-02
      2.82131657e-02 1.25391847e-02 2.50783693e-02 2.82131657e-02
      4.07523513e-02 2.82131657e-02 2.19435729e-02 1.56739801e-02
      9.40438826e-03 2.19435729e-02 9.40438826e-03 6.26959233e-03
      1.56739801e-02 2.19435729e-02 2.50783693e-02 1.88087765e-02
      6.26959233e-03 9.40438826e-03 3.13479602e-02 9.40438826e-03
      6.26959233e-03 6.26959205e-02 0. 2.82131657e-02 3.13479602e-02
      3.13479616e-03 6.26959233e-03 1.88087765e-02 1.88087765e-02
      6.26959205e-02 6.26959233e-03 6.26959233e-03 6.26959233e-03
      2.82131657e-02 2.19435729e-02 6.26959233e-03 9.40438826e-03
      1.25391847e-02 4.38871458e-02 9.40438826e-03 1.56739801e-02
      1.25391847e-02</_>
    <_>
      2.40000002e-02 8.00000038e-03 3.20000015e-02 1.60000008e-02 0.
      8.00000038e-03 8.00000038e-03 2.40000002e-02 0. 2.40000002e-02
      8.00000038e-03 4.00000028e-02 8.00000038e-03 1.60000008e-02 0.
      2.40000002e-02 4.00000028e-02 1.60000008e-02 8.00000038e-03
      3.20000015e-02 1.60000008e-02 1.60000008e-02 8.00000038e-03
      2.40000002e-02 3.20000015e-02 1.60000008e-02 8.00000038e-03
      8.00000038e-03 3.20000015e-02 2.40000002e-02 8.00000038e-03
      8.80000070e-02 1.60000008e-02 2.40000002e-02 1.60000008e-02
      8.00000038e-03 2.40000002e-02 2.40000002e-02 2.40000002e-02
      2.40000002e-02 0. 4.00000028e-02 1.60000008e-02 2.40000002e-02
      2.40000002e-02 2.40000002e-02 3.20000015e-02 0. 5.60000017e-02
      8.00000038e-03</_>
    <_>
      3.70370373e-02 2.77777780e-02 0. 0. 0. 1.85185187e-02
      2.77777780e-02 2.77777780e-02 9.25925933e-03 9.25925933e-03
      1.85185187e-02 2.77777780e-02 4.62962985e-02 9.25925933e-03
      5.55555560e-02 9.25925933e-03 2.77777780e-02 9.25925933e-03
      4.62962985e-02 0. 9.25925933e-03 2.77777780e-02 9.25925933e-03
      4.62962985e-02 1.85185187e-02 9.25925933e-03 0. 5.55555560e-02 0.
      1.85185187e-02 9.25925933e-03 9.25925933e-03 9.25925933e-03 0.
      2.77777780e-02 4.62962985e-02 1.85185187e-02 1.85185187e-02 0.
      4.62962985e-02 0. 2.77777780e-02 1.85185187e-02 2.77777780e-02
      1.85185187e-02 4.62962985e-02 2.77777780e-02 0. 9.25925933e-03
      3.70370373e-02</_>
    <_>
      1.84049085e-02 6.13496918e-03 1.84049085e-02 1.22699384e-02
      1.22699384e-02 1.22699384e-02 0. 3.68098170e-02 0. 1.84049085e-02
      2.45398767e-02 6.74846619e-02 1.22699384e-02 2.45398767e-02
      6.13496918e-03 1.22699384e-02 0. 3.06748450e-02 3.06748450e-02
      3.68098170e-02 1.22699384e-02 1.22699384e-02 1.84049085e-02
      2.45398767e-02 0. 4.90797535e-02 3.68098170e-02 1.84049085e-02
      1.22699384e-02 2.45398767e-02 1.84049085e-02 6.13496918e-03 0.
      6.13496918e-03 2.45398767e-02 1.84049085e-02 3.68098170e-02
      2.45398767e-02 1.84049085e-02 6.13496918e-03 1.84049085e-02
      2.45398767e-02 2.45398767e-02 1.22699384e-02 4.29447852e-02
      1.84049085e-02 6.13496900e-02 1.84049085e-02 1.22699384e-02
      1.84049085e-02</_>
    <_>
      3.55029590e-02 0. 4.73372787e-02 1.77514795e-02 1.18343197e-02
      5.91715984e-03 1.18343197e-02 4.14201170e-02 0. 2.95857992e-02
      2.95857992e-02 1.77514795e-02 5.91715984e-03 5.91715984e-03
      5.91715984e-03 0. 1.18343197e-02 1.18343197e-02 2.95857992e-02
      4.14201170e-02 5.91715984e-03 1.77514795e-02 3.55029590e-02
      1.77514795e-02 5.91715984e-03 2.95857992e-02 2.95857992e-02
      1.77514795e-02 1.18343197e-02 4.73372787e-02 1.77514795e-02
      4.73372787e-02 1.18343197e-02 2.36686394e-02 4.73372787e-02
      5.91715984e-03 4.14201170e-02 2.36686394e-02 5.91715984e-03
      3.55029590e-02 1.18343197e-02 5.91715984e-03 0. 2.36686394e-02
      5.91715984e-03 2.36686394e-02 2.95857992e-02 5.91715984e-03
      4.73372787e-02 5.91715984e-03</_>
    <_>
      1.39664803e-02 2.79329605e-02 2.79329605e-02 3.91061455e-02
      8.37988779e-03 5.58659201e-03 2.79329605e-02 8.37988779e-03
      3.35195512e-02 2.23463681e-02 3.63128483e-02 1.95530728e-02
      4.46927361e-02 2.23463681e-02 5.58659201e-03 1.39664803e-02
      1.95530728e-02 8.37988779e-03 1.67597756e-02 1.95530728e-02
      3.07262558e-02 8.37988779e-03 4.18994389e-02 1.39664803e-02
      5.58659201e-03 1.39664803e-02 1.95530728e-02 2.79329605e-02
      2.51396634e-02 1.67597756e-02 3.07262558e-02 1.95530728e-02
      8.37988779e-03 1.67597756e-02 1.67597756e-02 1.11731840e-02
      1.11731840e-02 2.51396634e-02 1.67597756e-02 1.11731840e-02
      5.58659201e-03 1.67597756e-02 3.07262558e-02 1.39664803e-02
      1.39664803e-02 1.11731840e-02 5.58659211e-02 2.51396634e-02
      2.23463681e-02 1.11731840e-02</_>
    <_>
      3.60721461e-02 2.80561130e-02 3.80761512e-02 1.40280565e-02
      1.00200400e-02 1.40280565e-02 1.40280565e-02 1.40280565e-02
      2.00400800e-02 2.40480974e-02 3.80761512e-02 2.20440887e-02
      8.01603217e-03 1.60320643e-02 2.00400800e-02 8.01603217e-03
      1.00200400e-02 2.40480974e-02 3.20641287e-02 3.60721461e-02
      1.00200400e-02 1.80360731e-02 3.60721461e-02 8.01603217e-03
      8.01603217e-03 2.20440887e-02 2.60521043e-02 1.80360731e-02
      2.00400800e-02 1.00200400e-02 1.40280565e-02 2.60521043e-02
      1.40280565e-02 1.60320643e-02 1.60320643e-02 1.20240487e-02
      1.80360731e-02 1.20240487e-02 8.01603217e-03 2.40480974e-02
      1.40280565e-02 1.00200400e-02 3.00601199e-02 1.80360731e-02
      1.80360731e-02 1.40280565e-02 6.61322623e-02 3.00601199e-02
      2.60521043e-02 1.00200400e-02</_>
    <_>
      1.92307699e-02 6.41025649e-03 1.28205130e-02 6.41025649e-03 0.
      3.84615399e-02 1.28205130e-02 1.28205130e-02 2.56410260e-02
      1.28205130e-02 0. 3.84615399e-02 1.28205130e-02 6.41025649e-03
      6.41025649e-03 1.28205130e-02 6.41025649e-03 1.92307699e-02
      9.61538479e-02 4.48717959e-02 4.48717959e-02 2.56410260e-02
      3.20512839e-02 3.84615399e-02 0. 1.92307699e-02 3.20512839e-02
      2.56410260e-02 1.28205130e-02 2.56410260e-02 6.41025649e-03
      4.48717959e-02 6.41025649e-03 1.92307699e-02 6.41025649e-03
      1.92307699e-02 3.84615399e-02 2.56410260e-02 1.92307699e-02
      1.92307699e-02 6.41025649e-03 1.92307699e-02 0. 1.92307699e-02
      1.28205130e-02 1.28205130e-02 3.84615399e-02 0. 0. 3.84615399e-02</_>
    <_>
      0. 3.80952395e-02 1.90476198e-02 9.52380989e-03 2.85714306e-02
      1.90476198e-02 3.80952395e-02 0. 9.52380989e-03 9.52380989e-03 0.
      2.85714306e-02 2.85714306e-02 4.76190485e-02 4.76190485e-02
      9.52380989e-03 0. 9.52380989e-03 5.71428612e-02 9.52380989e-03
      1.90476198e-02 1.90476198e-02 9.52380989e-03 1.90476198e-02
      1.90476198e-02 0. 9.52380989e-03 2.85714306e-02 9.52380989e-03
      1.90476198e-02 9.52380989e-03 2.85714306e-02 0. 1.90476198e-02
      9.52380989e-03 3.80952395e-02 9.52380989e-03 9.52380989e-03 0.
      2.85714306e-02 9.52380989e-03 9.52380970e-02 1.90476198e-02
      5.71428612e-02 3.80952395e-02 0. 2.85714306e-02 9.52380989e-03 0.
      2.85714306e-02</_>
    <_>
      4.11522621e-03 2.05761306e-02 3.08641959e-02 2.46913582e-02
      1.85185187e-02 2.67489702e-02 1.64609049e-02 1.85185187e-02
      8.23045243e-03 1.23456791e-02 3.49794216e-02 2.88065840e-02
      2.88065840e-02 8.23045243e-03 2.67489702e-02 4.11522621e-03
      2.05761306e-02 8.23045243e-03 5.14403284e-02 4.11522612e-02
      1.64609049e-02 1.02880653e-02 1.02880653e-02 1.02880653e-02
      6.17283955e-03 3.08641959e-02 2.05761311e-03 1.02880653e-02
      3.08641959e-02 1.85185187e-02 1.64609049e-02 3.49794216e-02
      2.26337444e-02 1.44032920e-02 2.88065840e-02 2.26337444e-02
      1.02880653e-02 2.88065840e-02 1.64609049e-02 1.44032920e-02
      1.23456791e-02 2.26337444e-02 1.02880653e-02 1.02880653e-02
      2.46913582e-02 3.08641959e-02 4.73251007e-02 8.23045243e-03
      1.44032920e-02 2.88065840e-02</_>
    <_>
      8.13008100e-02 1.62601620e-02 5.69105670e-02 8.13008100e-03 0.
      3.25203240e-02 8.13008100e-03 3.25203240e-02 4.87804860e-02
      8.13008100e-03 3.25203240e-02 3.25203240e-02 6.50406480e-02
      8.13008100e-03 2.43902430e-02 1.62601620e-02 2.43902430e-02
      2.43902430e-02 2.43902430e-02 1.62601620e-02 2.43902430e-02
      3.25203240e-02 0. 2.43902430e-02 1.62601620e-02 0. 0.
      1.62601620e-02 0. 8.13008100e-03 8.13008100e-03 4.06504050e-02
      2.43902430e-02 0. 1.62601620e-02 8.13008100e-03 8.13008100e-03
      8.13008100e-03 0. 2.43902430e-02 8.13008100e-03 0. 0.
      6.50406480e-02 1.62601620e-02 2.43902430e-02 1.62601620e-02
      1.62601620e-02 8.13008100e-03 2.43902430e-02</_>
    <_>
      1.46750519e-02 6.07966445e-02 1.46750519e-02 1.46750519e-02
      1.25786159e-02 1.04821799e-02 3.56394127e-02 1.46750519e-02
      5.66037707e-02 2.30607949e-02 2.51572318e-02 8.38574395e-03
      2.09643599e-02 1.46750519e-02 2.72536688e-02 3.77358496e-02
