<?xml version="1.0"?>
<opencv_storage>
<opencv_ml_svm>
  <format>3</format>
  <svmType>C_SVC</svmType>
  <kernel>
    <type>RBF</type>
    <gamma>1.5000000000000001e-04</gamma></kernel>
  <C>1.0000000000000001e-01</C>
  <term_criteria><epsilon>1.1920928955078125e-07</epsilon>
    <iterations>1000</iterations></term_criteria>
  <var_count>2</var_count>
  <class_count>2</class_count>
  <class_labels type_id="opencv-matrix">
    <rows>2</rows>
    <cols>1</cols>
    <dt>i</dt>
    <data>
      0 1</data></class_labels>
  <sv_total>49</sv_total>
  <support_vectors>
    <_>
      96. 36.</_>
    <_>
      78. 9.</_>
    <_>
      103. 122.</_>
    <_>
      128. 142.</_>
    <_>
      80. 137.</_>
    <_>
      20. 99.</_>
    <_>
      138. 27.</_>
    <_>
      54. 14.</_>
    <_>
      152. 115.</_>
    <_>
      138. 101.</_>
    <_>
      4. 3.</_>
    <_>
      34. 43.</_>
    <_>
      54. 81.</_>
    <_>
      91. 24.</_>
    <_>
      3. 40.</_>
    <_>
      137. 77.</_>
    <_>
      117. 42.</_>
    <_>
      80. 111.</_>
    <_>
      115. 124.</_>
    <_>
      145. 30.</_>
    <_>
      128. 70.</_>
    <_>
      59. 30.</_>
    <_>
      88. 126.</_>
    <_>
      7. 152.</_>
    <_>
      45. 14.</_>
    <_>
      166. 238.</_>
    <_>
      174. 110.</_>
    <_>
      148. 152.</_>
    <_>
      103. 105.</_>
    <_>
      210. 120.</_>
    <_>
      191. 209.</_>
    <_>
      242. 236.</_>
    <_>
      201. 248.</_>
    <_>
      251. 168.</_>
    <_>
      142. 108.</_>
    <_>
      151. 208.</_>
    <_>
      234. 222.</_>
    <_>
      118. 139.</_>
    <_>
      227. 173.</_>
    <_>
      194. 125.</_>
    <_>
      240. 117.</_>
    <_>
      143. 245.</_>
    <_>
      174. 141.</_>
    <_>
      232. 205.</_>
    <_>
      213. 137.</_>
    <_>
      247. 120.</_>
    <_>
      222. 217.</_>
    <_>
      103. 240.</_>
    <_>
      136. 250.</_></support_vectors>
  <decision_functions>
    <_>
      <sv_count>49</sv_count>
      <rho>-1.2751882866496957e-02</rho>
      <alpha>
        1.3905808078723540e-02 1.0000000000000001e-01
        1.0000000000000001e-01 1.0000000000000001e-01
        1.0000000000000001e-01 1.0000000000000001e-01
        1.0000000000000001e-01 1.0000000000000001e-01
        1.0000000000000001e-01 1.0000000000000001e-01
        1.0000000000000001e-01 1.0000000000000001e-01
        1.0000000000000001e-01 1.0000000000000001e-01
        1.0000000000000001e-01 1.0000000000000001e-01
        1.0000000000000001e-01 1.0000000000000001e-01
        1.0000000000000001e-01 1.0000000000000001e-01
        1.0000000000000001e-01 1.7934817534721238e-02
        1.0000000000000001e-01 1.0000000000000001e-01
        1.0000000000000001e-01 -1.0000000000000001e-01
        -1.0000000000000001e-01 -1.0000000000000001e-01
        -1.0000000000000001e-01 -1.0000000000000001e-01
        -5.6172686298596106e-02 -1.0000000000000001e-01
        -1.0000000000000001e-01 -1.0000000000000001e-01
        -1.0000000000000001e-01 -1.0000000000000001e-01
        -1.0000000000000001e-01 -1.0000000000000001e-01
        -7.5667939314848678e-02 -1.0000000000000001e-01
        -1.0000000000000001e-01 -1.0000000000000001e-01
        -1.0000000000000001e-01 -1.0000000000000001e-01
        -1.0000000000000001e-01 -1.0000000000000001e-01
        -1.0000000000000001e-01 -1.0000000000000001e-01
        -1.0000000000000001e-01</alpha>
      <index>
        0 1 2 3 4 5 6 7 8 9 10 11 12 13 14 15 16 17 18 19 20 21 22 23 24
        25 26 27 28 29 30 31 32 33 34 35 36 37 38 39 40 41 42 43 44 45
        46 47 48</index></_></decision_functions></opencv_ml_svm>
</opencv_storage>
